-3.816358206515471085e-01
-2.867669878375189718e-02
-2.098570190953421566e-01
-4.139827391134054402e-01
-5.654257076546573835e-01
3.822217367643025998e-01
-6.681982394297198979e-01
-5.278668536601560657e-01
9.440666896694984711e-01
-8.761143378989215691e-01
-4.185439376036186321e-01
-4.114002265827927385e-01
9.169470995492494669e-01
4.253206624637355660e-01
-7.352366646513086579e-02
8.680319302673185078e-01
1.192395770150078693e-01
3.820120805462419167e-01
-7.192928525389641337e-02
-3.667032664417138044e-01
-8.790370233703654890e-01
-1.181486101421913570e-01
-5.326012487899307590e-01
3.871172313547373012e-01
3.859463281039630100e-01
-1.431405778683187968e-01
-1.121675203725969183e-01
5.404071893049835484e-01
6.704916876393607339e-01
2.443093091971713093e-01
9.932328997297654727e-01
-8.479125632867539064e-01
-8.574734725937864788e-01
-8.797818110144535186e-01
7.010673781114169500e-01
8.916001904923507304e-01
1.669781711644207078e-01
-2.774366233840068752e-01
-9.619036012490862486e-01
-3.935749303621878248e-01
-1.657051239744240512e-01
6.782196799516753138e-01
4.043662793302251757e-01
-3.677850207986170794e-01
-6.822487840041449036e-01
4.362855177080091629e-01
6.510819188155991810e-03
-5.121841142817176173e-01
9.535721781485748672e-01
-3.868799935123128364e-01
2.643893614667014447e-01
-8.913002366639719565e-01
-2.901214404961702797e-01
-6.614145649971783225e-01
9.761367912952765291e-01
-3.353800226117784611e-01
-9.652416402266392748e-01
4.366130778978631888e-01
-7.023125972529653538e-01
-2.398623341328829373e-01
-4.287254196664145312e-01
4.914145522857666926e-01
-4.392025212344141671e-02
-2.587678028344564396e-02
3.659290178560834494e-01
2.323291052781268906e-01
2.164710474023838760e-01
5.312367754163860312e-01
7.495720161381944635e-01
-5.056136915273634624e-01
-3.925642875568513546e-01
-3.791020968606952923e-01
-1.219825542386687722e-02
4.938633258694085093e-01
2.580322785484199244e-01
-5.539778675067477121e-01
-6.723824293183886525e-01
-7.566898773348982310e-01
9.021117164935505972e-01
9.889172530348353529e-01
2.062981897078031146e-01
8.526147569510267310e-02
7.868924269162209661e-01
2.518978135597704782e-01
7.137350792229029128e-01
-3.127894338026169230e-01
-4.233834842465298287e-01
-5.708055373682816569e-01
-1.526532968604430440e-01
2.945173243738534730e-01
-3.096063070316290577e-01
8.888592909783219476e-01
-5.491463016539965825e-01
-5.827712991018312305e-01
-1.146579267684573189e-01
5.497683460726701110e-01
9.104521157671048304e-01
1.696671004894811929e-01
-3.709823545653161414e-01
-4.332123086491779240e-02
-7.883496368043219071e-01
-8.713130250435707769e-01
6.650567532688087535e-01
-7.358535642592678450e-01
-3.954141262278432212e-01
7.878272810742235066e-01
2.230698576640932629e-02
-1.495532319609269578e-01
4.464506226698383706e-02
2.763513130060608614e-01
-2.591405546313587660e-01
6.888161482097958643e-01
-4.217452474067033830e-01
-8.073502876447520293e-01
-6.255493243359406819e-01
-1.035877780814353777e-02
-9.398255325454993869e-01
-8.740144645288590031e-01
-8.305754959640860857e-01
-9.510683562845985151e-01
9.079941020500115201e-01
1.879095455120609603e-01
7.085304594522849886e-01
-7.314682212462428890e-01
4.440335236681347553e-02
-7.234485291083139202e-01
9.696504016461826581e-02
-3.584831213296590935e-01
-7.295899174289299793e-01
4.612847430143396377e-01
6.207494217067908160e-01
9.718436197628439466e-01
8.799144332924717649e-01
-6.162387889484597370e-01
-8.463251363063353239e-01
9.231203544717001552e-01
3.971501548781943836e-01
3.912925679032470683e-01
9.328231448544335169e-01
-7.305521025202805774e-01
-3.162113075580437194e-01
8.688685885008304854e-01
-6.577296396856557870e-02
3.318818381456183353e-01
1.326036383185202894e-01
3.714832928059137451e-01
-7.952561688512760352e-01
-5.569439539772769177e-01
-2.503798015615847916e-01
5.261903162405081602e-01
9.317355713458046473e-01
-6.694592677187376495e-01
3.268942280321083249e-01
1.187746006656007491e-01
8.772602889758278621e-01
-3.281440411247240618e-01
-9.469432317723327497e-01
2.070068841369507862e-01
9.807708717688463640e-01
6.288230403792289813e-01
-6.566381051164027483e-02
1.743465079799986217e-01
6.513069474589556762e-01
-7.697388135985330226e-01
7.043090616058667042e-01
-8.552760287838270248e-01
-5.678202140022834410e-01
-4.488718635329227435e-01
8.316654221996435670e-01
-8.203906303126951016e-02
1.520346537921384300e-01
-9.430606067483009447e-01
3.303653381069342476e-01
-5.639730017667354822e-02
-6.555751843157375802e-01
2.930570685248947704e-01
-9.776358085393979103e-01
-1.199902513924913094e-01
-8.231859131663066265e-02
-8.923365245848602356e-02
-8.455420369858510643e-01
-6.155916580433786756e-01
-7.465167029751700323e-01
-4.452429364630758890e-01
9.826700001316757138e-02
-6.972066622190566942e-01
-3.077052497214285420e-01
6.405739544043667077e-01
-4.510688457978595522e-01
-9.860264199344959124e-01
8.655700821590393002e-01
6.091778469174142785e-01
3.558435459052484706e-01
5.831303600342621074e-01
1.538752277472517083e-01
-1.318224973176693737e-01
1.828532838789040937e-01
-9.190567928809556530e-01
-3.613943483825288183e-01
-2.530207256200107668e-01
-2.313019742757902453e-01
-2.370940126592289143e-01
-9.657960558109177640e-01
8.465490507926505259e-01
3.860556063613345135e-01
9.961235705381124017e-01
-7.769904994223695294e-01
4.355217149178713942e-01
8.896169102051358912e-01
-1.357358027890609442e-02
-3.182718201200638308e-01
-3.595007673345054222e-01
-4.037993157794244059e-01
-4.032640780241052436e-01
-9.470295677402473800e-01
-8.630789434420846895e-01
-3.141378436184736334e-01
-9.711631696574536399e-01
-1.540975032043816473e-01
9.504390377145162105e-01
1.809898329593260247e-01
3.601909097170619134e-03
6.412100563365443762e-01
4.256349320493935107e-01
8.127453222110925246e-01
-5.018017922634192551e-01
-7.269030355259173959e-01
-2.200865391036950225e-01
7.744309227877350654e-01
-1.696597301223667920e-01
7.221344907836217963e-01
6.404015263339113417e-01
7.461569932687424078e-01
-9.063058859272177248e-01
1.433673454405521852e-01
3.989535159925206020e-01
4.954267084142758293e-01
2.407307395177293863e-02
-8.147500934225997415e-01
-2.747667246972953503e-01
-8.689995517536046599e-01
-9.241210388189022851e-01
1.800920459908132987e-01
8.058278217877745675e-01
8.583247892971546111e-01
-6.817974288343018330e-01
-2.502975997539702568e-02
-3.505440336974259274e-01
8.807127888244403735e-01
-7.806583702851770390e-01
4.858369759038696500e-01
2.562222380093939211e-01
3.799265641899918222e-02
9.087420177145193456e-01
-2.052026708312837400e-01
-4.156593015632898958e-01
2.451548673992220984e-03
4.400289610717393884e-01
7.215122623866621066e-01
-5.211074894637557353e-01
-9.804751198448671268e-01
4.945981491477167147e-01
9.536760322283490687e-01
6.908712756069592675e-01
3.948938026219794839e-01
-3.677917457680768276e-01
-7.350877617354669713e-01
-1.570089123454909696e-02
-5.735579884249388805e-01
1.538431578798915567e-01
-8.138820206252832534e-01
6.932095009782168749e-01
-2.435568580043494524e-01
-9.263246525529489350e-01
-7.219209228677816448e-01
-6.468985040789110297e-01
-6.975684259148970945e-01
2.713249435180957736e-01
-7.386738101463226069e-01
-7.573120419923433655e-01
-5.206697938955189287e-01
-4.015892015850113239e-01
-9.681910827950088727e-01
6.750456941037488168e-01
-4.671955878169060661e-01
-4.220949007918883833e-01
3.194465534831074649e-01
7.013016156602969176e-01
2.937071996911688743e-01
3.756526692780965959e-01
-8.274434504480920882e-01
-5.521432609190326524e-01
6.232493962615766048e-01
-7.195370202702500162e-01
5.864539219785029900e-01
-4.923610526283830335e-01
-9.589048053670568006e-01
3.567976089693680741e-02
-9.524986782574340616e-01
9.911679735744529651e-01
5.182304491858384932e-01
-5.463640074742577291e-01
-4.715482135975974654e-01
-2.066768793274498250e-03
-5.044291183509841403e-01
8.585182476526214135e-01
8.392547154543119614e-01
4.523217017778404792e-01
-8.893719548858149970e-01
-5.080868396294297984e-01
6.119875188002221744e-01
-2.129776781388417195e-01
1.957491951940675268e-01
3.722558193183722608e-01
5.382697104955862510e-01
-3.337963330389701611e-01
9.901635996428792552e-01
6.028804203659385852e-01
-3.373616409149173823e-01
6.962371095720287784e-02
4.499055935785223337e-01
9.494135150897684561e-01
2.176795297087701364e-01
-3.475030377959889005e-01
-4.050509952578693618e-01
-5.341834931783062679e-01
-8.261303141899798419e-01
-6.829224313927693135e-01
-4.868410280095787357e-01
-7.571727334995204117e-01
-1.425497503868398130e-01
-2.534024703606840845e-01
7.469495767348175441e-01
2.130464945858729919e-01
-3.654932215258104300e-01
6.327204780701183306e-01
1.220078830902513456e-01
-5.261772514836509096e-01
-7.412501531524873233e-01
6.840347649737885671e-01
7.141073078731574597e-01
-5.016242729907438580e-02
1.712133655190077874e-01
-6.568563913759710715e-01
-9.200941886649380841e-01
1.044167804831186430e-03
2.472560474614673431e-01
6.605188975487525926e-01
5.182717716371614269e-01
8.934744412466821828e-01
3.496735748735775307e-01
3.545271741848834424e-01
-5.892853887067603935e-01
4.228497946869396173e-01
-9.460838506612441190e-01
7.838827541888209183e-01
8.955969763743445444e-01
6.497016922333731515e-01
1.977341484081578393e-01
-8.407798323211366220e-01
-1.704102274344903023e-01
-2.509990737521703430e-01
-5.282100124847779465e-01
1.890593614245694720e-01
-8.421890141564185583e-01
6.274580057095511254e-01
-3.839066905365122739e-01
2.812649690845900885e-01
6.866297374021355093e-01
5.541118708507724033e-01
7.795534512603836674e-01
-1.148970511646074666e-01
5.934494448346270268e-01
-4.242787437892925340e-01
7.545870217649357503e-01
-7.685992886107475552e-01
2.028177875653265350e-01
-2.280813701971180496e-01
-8.952336583065356734e-02
-3.220608861629219444e-01
-4.788399798142028985e-02
4.416845012033550066e-01
5.216952465534097083e-01
-8.015299176439796280e-01
5.274099954832780490e-01
1.475113635294937886e-01
-2.171658542862227037e-01
-2.085056934868254608e-01
-6.476152056068926743e-01
9.721378826021591646e-01
-9.550598565285339792e-01
2.143960414269909798e-01
-2.182491467102658511e-01
-7.855374886983068627e-02
-6.716430705097844456e-01
1.470166614762462576e-01
7.011500574639117911e-01
-1.280094895916064068e-01
9.858893924804408293e-01
-7.996893383805177002e-01
-2.985369483650406330e-01
-1.808655610069820341e-01
9.465735899198475245e-01
5.230106669821692478e-01
5.416482113149552191e-01
-4.951082090641980571e-01
5.582318668690615660e-01
-1.884955616577761450e-01
-5.246075092056496914e-01
9.047873279137075286e-01
-1.960229881305608490e-01
7.555883234290943218e-01
2.578491223146648359e-01
-7.442100226940007168e-01
1.644469111540076689e-01
6.723082424470760987e-01
-2.880259379557426058e-01
7.441752247854978020e-01
-9.543725788055743564e-01
4.548103305497273041e-01
2.092713153569292217e-03
-5.814455634864499345e-01
-6.396704392701801911e-01
8.683741986253545875e-03
6.795141574965866127e-01
1.411536468765126617e-01
8.409376214554868945e-01
-1.420122968192267798e-01
-9.648751858061845876e-01
-7.009806641172373620e-01
-7.349073427926491320e-01
-3.569451121561890705e-01
8.108018394131177864e-01
1.100556275914537085e-01
8.635336990151416536e-01
6.869340474963165910e-01
-5.976911367072637038e-01
-4.023224620562748655e-02
4.818720560898070993e-02
9.454571848172417248e-01
8.545729587350485712e-01
2.751738703920405538e-01
-7.323163474550022922e-01
5.361734690689343719e-01
8.294802104444405355e-01
9.924803971954394566e-01
-3.467571669542492963e-01
6.306991324773258967e-02
-8.905541672771486450e-01
8.066316529941899294e-01
-6.808746173089019749e-02
7.922462695006375899e-01
-4.466766981716663309e-04
-2.476497266982868872e-01
5.583211779801602326e-01
-4.040720646381057435e-04
6.436793576479671319e-01
-8.435044285422170773e-01
-4.920100918956091807e-01
-1.616145207603960632e-01
-1.044267496735122869e-01
1.505193256508239319e-01
-8.449604523592728622e-01
3.875081067004264579e-01
9.736687369869301278e-01
9.007765471020556802e-01
4.704132384056547433e-01
4.008248965358811589e-01
6.061924159554408220e-01
-1.963137112259234485e-01
-2.222302011842260949e-01
-7.781912152548289274e-01
3.634875865128781580e-01
1.416019123069434116e-02
4.728742174041362656e-01
4.254770559556297904e-01
-7.007031701572963289e-01
9.886830585436243712e-01
-3.942462061941449658e-01
-3.052526624923355136e-01
8.069133040277371993e-01
-7.689755099320445542e-01
8.134410842288506416e-01
-2.406247797704990088e-01
-3.484462751495669419e-01
-7.371609560948924056e-01
-7.415775719549995149e-01
8.031967341260559667e-01
-4.601129217252819537e-01
4.283428895684635584e-01
7.414057473782165175e-01
2.841703304333267344e-01
7.493135077224819529e-01
-4.896987000616781494e-01
5.307489837328704940e-01
-3.911504139276118508e-01
-6.169317054042200432e-02
3.553634753782968225e-01
-7.258506894774743312e-01
-1.301547679533892055e-01
5.634032508750936863e-01
8.470728997227261470e-01
-5.908621621077778663e-01
-7.703120028625258797e-01
3.631972001759864455e-02
7.713938999600955526e-01
-4.142914181615200420e-01
5.385420464912993310e-01
6.337001629193756980e-01
-6.144444797742609765e-02
6.821819607689956211e-01
-1.690555143256520232e-01
2.440665862160318333e-01
9.529095813412689076e-01
6.548108768064644369e-01
9.451312245001830536e-01
-9.476274540334179708e-01
-2.839763787047888677e-01
-6.477514823265235755e-01
-9.556577987924534945e-01
6.999930251437616047e-01
-8.136846723139363746e-01
-9.700563948490024124e-01
3.880717333584389195e-01
5.518129063011458779e-01
-3.849939808933289243e-02
-4.081275296049959866e-01
-3.279606122853460093e-01
-2.299582673923461495e-01
7.690560043363361409e-01
-4.877608880774551015e-01
-5.442672046427674548e-01
1.390369421791950444e-01
9.769165873017957580e-01
4.948477479273278856e-01
-1.823244189115613700e-02
7.500879891459208970e-01
3.068874615364511893e-01
-7.080718390141758078e-01
-4.196520755674333358e-01
-2.359437124108012540e-01
6.342236230193520896e-02
-3.487852909087476583e-01
-3.410803607223720224e-01
-6.340831575619003679e-01
-8.426891963328053681e-01
5.873711781825323719e-01
5.610140257691640375e-01
4.810427364959297680e-01
2.441209091348450766e-01
-4.542961789271631190e-01
-6.144615356388736238e-01
7.625705298807494703e-01
-9.029254731060458727e-01
3.181742680986785476e-01
5.421642776198454250e-01
8.592802817000828597e-01
-8.906917205111550828e-01
9.211698990252257246e-01
-5.812924968812518411e-01
-3.724187332742883161e-01
6.222702309002352550e-01
-8.304728949143551642e-01
2.346513070459357309e-01
-8.102128432846835704e-01
-1.622536440234940702e-01
-9.980106464422642265e-01
-7.530316519187836288e-01
5.708080467622247411e-01
2.181333851584490446e-01
-9.839142895494461527e-01
6.100497644715758838e-01
7.800001557865332558e-02
9.082376853272537964e-01
-4.945760432347690028e-02
-7.263662534713088981e-01
-3.816358206515471085e-01
-2.867669878375189718e-02
-2.098570190953421566e-01
-4.139827391134054402e-01
-5.654257076546573835e-01
3.822217367643025998e-01
-6.681982394297198979e-01
-5.278668536601560657e-01
9.440666896694984711e-01
-8.761143378989215691e-01
-4.185439376036186321e-01
-4.114002265827927385e-01
9.169470995492494669e-01
4.253206624637355660e-01
-7.352366646513086579e-02
8.680319302673185078e-01
1.192395770150078693e-01
3.820120805462419167e-01
4.936987909137517949e-01
7.245929639424508739e-01
-4.200526196653566746e-01
-9.003296382528320763e-01
5.850770694403455430e-01
7.116597308428707080e-02
-2.626075017872151474e-01
7.010559978067543163e-01
-4.308540717775657392e-01
-6.851384739351420450e-01
4.918950942794733106e-01
9.383527311760135881e-01
4.608821144865584696e-01
9.780000065019094357e-01
7.028252759976316710e-03
-1.789685354782504234e-01
4.519039563176763252e-02
8.091164152949006372e-01
1.669781711644207078e-01
-2.774366233840068752e-01
-9.619036012490862486e-01
-3.935749303621878248e-01
-1.657051239744240512e-01
6.782196799516753138e-01
4.043662793302251757e-01
-3.677850207986170794e-01
-6.822487840041449036e-01
4.362855177080091629e-01
6.510819188155991810e-03
-5.121841142817176173e-01
9.535721781485748672e-01
-3.868799935123128364e-01
2.643893614667014447e-01
-8.913002366639719565e-01
-2.901214404961702797e-01
-6.614145649971783225e-01
9.761367912952765291e-01
-3.353800226117784611e-01
-9.652416402266392748e-01
4.366130778978631888e-01
-7.023125972529653538e-01
-2.398623341328829373e-01
-4.287254196664145312e-01
4.914145522857666926e-01
-4.392025212344141671e-02
-2.587678028344564396e-02
3.659290178560834494e-01
2.323291052781268906e-01
2.164710474023838760e-01
5.312367754163860312e-01
7.495720161381944635e-01
-5.056136915273634624e-01
-3.925642875568513546e-01
-3.791020968606952923e-01
-1.219825542386687722e-02
4.938633258694085093e-01
2.580322785484199244e-01
-5.539778675067477121e-01
-6.723824293183886525e-01
-7.566898773348982310e-01
9.021117164935505972e-01
9.889172530348353529e-01
2.062981897078031146e-01
8.526147569510267310e-02
7.868924269162209661e-01
2.518978135597704782e-01
7.137350792229029128e-01
-3.127894338026169230e-01
-4.233834842465298287e-01
-5.708055373682816569e-01
-1.526532968604430440e-01
2.945173243738534730e-01
-3.096063070316290577e-01
8.888592909783219476e-01
-5.491463016539965825e-01
-5.827712991018312305e-01
-1.146579267684573189e-01
5.497683460726701110e-01
9.104521157671048304e-01
1.696671004894811929e-01
-3.709823545653161414e-01
-4.332123086491779240e-02
-7.883496368043219071e-01
-8.713130250435707769e-01
6.650567532688087535e-01
-7.358535642592678450e-01
-3.954141262278432212e-01
7.878272810742235066e-01
2.230698576640932629e-02
-1.495532319609269578e-01
4.464506226698383706e-02
2.763513130060608614e-01
-2.591405546313587660e-01
6.888161482097958643e-01
-4.217452474067033830e-01
-8.073502876447520293e-01
-6.255493243359406819e-01
-1.035877780814353777e-02
-9.398255325454993869e-01
-8.740144645288590031e-01
-8.305754959640860857e-01
-9.510683562845985151e-01
9.079941020500115201e-01
1.879095455120609603e-01
7.085304594522849886e-01
-7.314682212462428890e-01
4.440335236681347553e-02
-7.234485291083139202e-01
9.696504016461826581e-02
-3.584831213296590935e-01
-7.295899174289299793e-01
4.612847430143396377e-01
6.207494217067908160e-01
9.718436197628439466e-01
8.799144332924717649e-01
-6.162387889484597370e-01
-8.463251363063353239e-01
9.231203544717001552e-01
3.971501548781943836e-01
3.912925679032470683e-01
9.328231448544335169e-01
-7.305521025202805774e-01
-3.162113075580437194e-01
8.688685885008304854e-01
-6.577296396856557870e-02
3.318818381456183353e-01
1.326036383185202894e-01
3.714832928059137451e-01
-7.952561688512760352e-01
-5.569439539772769177e-01
-2.503798015615847916e-01
5.261903162405081602e-01
9.317355713458046473e-01
-6.694592677187376495e-01
3.268942280321083249e-01
1.187746006656007491e-01
8.772602889758278621e-01
-3.281440411247240618e-01
-9.469432317723327497e-01
2.070068841369507862e-01
9.807708717688463640e-01
6.288230403792289813e-01
-6.566381051164027483e-02
1.743465079799986217e-01
6.513069474589556762e-01
-7.697388135985330226e-01
7.043090616058667042e-01
-8.552760287838270248e-01
-5.678202140022834410e-01
-4.488718635329227435e-01
8.316654221996435670e-01
-8.203906303126951016e-02
1.520346537921384300e-01
-9.430606067483009447e-01
3.303653381069342476e-01
-5.639730017667354822e-02
-6.555751843157375802e-01
2.930570685248947704e-01
-9.776358085393979103e-01
-1.199902513924913094e-01
-8.231859131663066265e-02
-8.923365245848602356e-02
-8.455420369858510643e-01
-6.155916580433786756e-01
-7.465167029751700323e-01
-4.452429364630758890e-01
9.826700001316757138e-02
-6.972066622190566942e-01
-3.077052497214285420e-01
6.405739544043667077e-01
-4.510688457978595522e-01
-9.860264199344959124e-01
8.655700821590393002e-01
6.091778469174142785e-01
3.558435459052484706e-01
5.831303600342621074e-01
1.538752277472517083e-01
-1.318224973176693737e-01
1.828532838789040937e-01
-9.190567928809556530e-01
-3.613943483825288183e-01
-2.530207256200107668e-01
-2.313019742757902453e-01
-2.370940126592289143e-01
-9.657960558109177640e-01
8.465490507926505259e-01
3.860556063613345135e-01
9.961235705381124017e-01
-7.769904994223695294e-01
4.355217149178713942e-01
8.896169102051358912e-01
-1.357358027890609442e-02
-3.182718201200638308e-01
-3.595007673345054222e-01
-4.037993157794244059e-01
-4.032640780241052436e-01
-9.470295677402473800e-01
-8.630789434420846895e-01
-3.141378436184736334e-01
-9.711631696574536399e-01
-1.540975032043816473e-01
9.504390377145162105e-01
1.809898329593260247e-01
3.601909097170619134e-03
6.412100563365443762e-01
4.256349320493935107e-01
8.127453222110925246e-01
-5.018017922634192551e-01
-7.269030355259173959e-01
-2.200865391036950225e-01
7.744309227877350654e-01
-1.696597301223667920e-01
7.221344907836217963e-01
6.404015263339113417e-01
7.461569932687424078e-01
-9.063058859272177248e-01
2.727015673866381995e-01
-1.768490672947597986e-02
-2.717649791492784406e-01
3.246059674442458576e-01
-8.045934226199662476e-01
-3.477094171696530900e-01
-7.186789255589109970e-01
4.722965433367058985e-01
9.460367860571765597e-01
-1.620559481360706044e-01
-8.752498260732590740e-01
6.007742685295440754e-01
-1.746716471592086872e-01
3.186644595521428425e-01
-1.367232044693766913e-01
-6.500588865488574619e-01
-6.321930529598884796e-02
5.999745466189863041e-01
3.799265641899918222e-02
9.087420177145193456e-01
-2.052026708312837400e-01
-4.156593015632898958e-01
2.451548673992220984e-03
4.400289610717393884e-01
7.215122623866621066e-01
-5.211074894637557353e-01
-9.804751198448671268e-01
4.945981491477167147e-01
9.536760322283490687e-01
6.908712756069592675e-01
3.948938026219794839e-01
-3.677917457680768276e-01
-7.350877617354669713e-01
-1.570089123454909696e-02
-5.735579884249388805e-01
1.538431578798915567e-01
-8.138820206252832534e-01
6.932095009782168749e-01
-2.435568580043494524e-01
-9.263246525529489350e-01
-7.219209228677816448e-01
-6.468985040789110297e-01
-6.975684259148970945e-01
2.713249435180957736e-01
-7.386738101463226069e-01
-7.573120419923433655e-01
-5.206697938955189287e-01
-4.015892015850113239e-01
-9.681910827950088727e-01
6.750456941037488168e-01
-4.671955878169060661e-01
-4.220949007918883833e-01
3.194465534831074649e-01
7.013016156602969176e-01
2.937071996911688743e-01
3.756526692780965959e-01
-8.274434504480920882e-01
-5.521432609190326524e-01
6.232493962615766048e-01
-7.195370202702500162e-01
5.864539219785029900e-01
-4.923610526283830335e-01
-9.589048053670568006e-01
3.567976089693680741e-02
-9.524986782574340616e-01
9.911679735744529651e-01
5.182304491858384932e-01
-5.463640074742577291e-01
-4.715482135975974654e-01
-2.066768793274498250e-03
-5.044291183509841403e-01
8.585182476526214135e-01
-1.502403996488443916e-02
-9.517689921822836130e-01
-7.355685659646806762e-01
-8.864286902404439061e-02
-7.495232988742632774e-01
-4.781902588862572134e-01
6.938454913221865361e-01
6.674261460107449029e-01
3.652288655005266893e-01
5.848334977613518504e-01
-4.089740693679333461e-01
3.524051918088588753e-01
5.353691432766503056e-01
-6.167303456673196571e-01
-3.599718034699859182e-01
1.893383093357343672e-01
9.617481686335531688e-01
8.391231376592327429e-01
-4.050509952578693618e-01
-5.341834931783062679e-01
-8.261303141899798419e-01
-6.829224313927693135e-01
-4.868410280095787357e-01
-7.571727334995204117e-01
-1.425497503868398130e-01
-2.534024703606840845e-01
7.469495767348175441e-01
2.130464945858729919e-01
-3.654932215258104300e-01
6.327204780701183306e-01
1.220078830902513456e-01
-5.261772514836509096e-01
-7.412501531524873233e-01
6.840347649737885671e-01
7.141073078731574597e-01
-5.016242729907438580e-02
1.712133655190077874e-01
-6.568563913759710715e-01
-9.200941886649380841e-01
1.044167804831186430e-03
2.472560474614673431e-01
6.605188975487525926e-01
5.182717716371614269e-01
8.934744412466821828e-01
3.496735748735775307e-01
3.545271741848834424e-01
-5.892853887067603935e-01
4.228497946869396173e-01
-9.460838506612441190e-01
7.838827541888209183e-01
8.955969763743445444e-01
6.497016922333731515e-01
1.977341484081578393e-01
-8.407798323211366220e-01
-1.704102274344903023e-01
-2.509990737521703430e-01
-5.282100124847779465e-01
1.890593614245694720e-01
-8.421890141564185583e-01
6.274580057095511254e-01
-3.839066905365122739e-01
2.812649690845900885e-01
6.866297374021355093e-01
5.541118708507724033e-01
7.795534512603836674e-01
-1.148970511646074666e-01
5.934494448346270268e-01
-4.242787437892925340e-01
7.545870217649357503e-01
-7.685992886107475552e-01
2.028177875653265350e-01
-2.280813701971180496e-01
-8.952336583065356734e-02
-3.220608861629219444e-01
-4.788399798142028985e-02
4.416845012033550066e-01
5.216952465534097083e-01
-8.015299176439796280e-01
5.274099954832780490e-01
1.475113635294937886e-01
-2.171658542862227037e-01
-2.085056934868254608e-01
-6.476152056068926743e-01
9.721378826021591646e-01
-9.550598565285339792e-01
2.143960414269909798e-01
-2.182491467102658511e-01
-7.855374886983068627e-02
-6.716430705097844456e-01
1.470166614762462576e-01
7.011500574639117911e-01
-1.280094895916064068e-01
9.858893924804408293e-01
-7.996893383805177002e-01
-2.985369483650406330e-01
-1.808655610069820341e-01
9.465735899198475245e-01
5.230106669821692478e-01
5.416482113149552191e-01
-4.951082090641980571e-01
5.582318668690615660e-01
-1.884955616577761450e-01
-5.246075092056496914e-01
9.047873279137075286e-01
-1.960229881305608490e-01
7.555883234290943218e-01
2.578491223146648359e-01
-7.442100226940007168e-01
1.644469111540076689e-01
6.723082424470760987e-01
-2.880259379557426058e-01
7.441752247854978020e-01
-9.543725788055743564e-01
4.548103305497273041e-01
2.092713153569292217e-03
-5.814455634864499345e-01
-6.396704392701801911e-01
8.683741986253545875e-03
6.795141574965866127e-01
1.411536468765126617e-01
8.409376214554868945e-01
-1.420122968192267798e-01
-9.648751858061845876e-01
-7.009806641172373620e-01
-7.349073427926491320e-01
-3.569451121561890705e-01
8.108018394131177864e-01
1.100556275914537085e-01
8.635336990151416536e-01
6.869340474963165910e-01
-5.976911367072637038e-01
-4.023224620562748655e-02
4.818720560898070993e-02
9.454571848172417248e-01
8.545729587350485712e-01
2.751738703920405538e-01
-7.323163474550022922e-01
5.361734690689343719e-01
8.294802104444405355e-01
9.924803971954394566e-01
-3.467571669542492963e-01
6.306991324773258967e-02
-8.905541672771486450e-01
8.066316529941899294e-01
-6.808746173089019749e-02
7.922462695006375899e-01
-4.466766981716663309e-04
-2.476497266982868872e-01
5.583211779801602326e-01
-4.040720646381057435e-04
6.436793576479671319e-01
-8.435044285422170773e-01
-4.920100918956091807e-01
-1.616145207603960632e-01
-1.044267496735122869e-01
1.505193256508239319e-01
-8.449604523592728622e-01
3.875081067004264579e-01
9.736687369869301278e-01
9.007765471020556802e-01
4.704132384056547433e-01
4.008248965358811589e-01
6.061924159554408220e-01
-1.963137112259234485e-01
-2.222302011842260949e-01
-7.781912152548289274e-01
3.634875865128781580e-01
1.416019123069434116e-02
4.728742174041362656e-01
4.254770559556297904e-01
-7.007031701572963289e-01
9.886830585436243712e-01
-3.942462061941449658e-01
-3.052526624923355136e-01
8.069133040277371993e-01
-7.689755099320445542e-01
8.134410842288506416e-01
-2.406247797704990088e-01
-3.484462751495669419e-01
-7.371609560948924056e-01
-7.415775719549995149e-01
8.031967341260559667e-01
-4.601129217252819537e-01
4.283428895684635584e-01
7.414057473782165175e-01
2.841703304333267344e-01
7.493135077224819529e-01
-4.896987000616781494e-01
5.307489837328704940e-01
-3.911504139276118508e-01
-6.169317054042200432e-02
3.553634753782968225e-01
-7.258506894774743312e-01
-1.301547679533892055e-01
5.634032508750936863e-01
8.470728997227261470e-01
-5.908621621077778663e-01
-7.703120028625258797e-01
3.631972001759864455e-02
7.713938999600955526e-01
-4.142914181615200420e-01
5.385420464912993310e-01
6.337001629193756980e-01
-6.144444797742609765e-02
6.821819607689956211e-01
-1.690555143256520232e-01
2.440665862160318333e-01
9.529095813412689076e-01
6.548108768064644369e-01
9.451312245001830536e-01
-9.476274540334179708e-01
-2.839763787047888677e-01
-6.477514823265235755e-01
-9.556577987924534945e-01
6.999930251437616047e-01
-8.136846723139363746e-01
-9.700563948490024124e-01
3.880717333584389195e-01
5.518129063011458779e-01
-3.849939808933289243e-02
-4.081275296049959866e-01
-3.279606122853460093e-01
-2.299582673923461495e-01
7.690560043363361409e-01
-4.877608880774551015e-01
-5.442672046427674548e-01
1.390369421791950444e-01
9.769165873017957580e-01
4.948477479273278856e-01
-1.823244189115613700e-02
7.500879891459208970e-01
3.068874615364511893e-01
-7.080718390141758078e-01
-4.196520755674333358e-01
-2.359437124108012540e-01
6.342236230193520896e-02
-3.487852909087476583e-01
-3.410803607223720224e-01
-6.340831575619003679e-01
-8.426891963328053681e-01
5.873711781825323719e-01
5.610140257691640375e-01
4.810427364959297680e-01
2.441209091348450766e-01
-4.542961789271631190e-01
-6.144615356388736238e-01
7.625705298807494703e-01
-9.029254731060458727e-01
3.181742680986785476e-01
5.421642776198454250e-01
8.592802817000828597e-01
-8.906917205111550828e-01
9.211698990252257246e-01
-5.812924968812518411e-01
-3.724187332742883161e-01
6.222702309002352550e-01
-8.304728949143551642e-01
2.346513070459357309e-01
-8.102128432846835704e-01
-1.622536440234940702e-01
-9.980106464422642265e-01
-7.530316519187836288e-01
5.708080467622247411e-01
2.181333851584490446e-01
-9.839142895494461527e-01
6.100497644715758838e-01
7.800001557865332558e-02
9.082376853272537964e-01
-4.945760432347690028e-02
-7.263662534713088981e-01
-3.816358206515471085e-01
-2.867669878375189718e-02
-2.098570190953421566e-01
-4.139827391134054402e-01
-5.654257076546573835e-01
3.822217367643025998e-01
-6.681982394297198979e-01
-5.278668536601560657e-01
9.440666896694984711e-01
-8.761143378989215691e-01
-4.185439376036186321e-01
-4.114002265827927385e-01
9.169470995492494669e-01
4.253206624637355660e-01
-7.352366646513086579e-02
8.680319302673185078e-01
1.192395770150078693e-01
3.820120805462419167e-01
4.936987909137517949e-01
7.245929639424508739e-01
-4.200526196653566746e-01
-9.003296382528320763e-01
5.850770694403455430e-01
7.116597308428707080e-02
-2.626075017872151474e-01
7.010559978067543163e-01
-4.308540717775657392e-01
-6.851384739351420450e-01
4.918950942794733106e-01
9.383527311760135881e-01
4.608821144865584696e-01
9.780000065019094357e-01
7.028252759976316710e-03
-1.789685354782504234e-01
4.519039563176763252e-02
8.091164152949006372e-01
1.669781711644207078e-01
-2.774366233840068752e-01
-9.619036012490862486e-01
-3.935749303621878248e-01
-1.657051239744240512e-01
6.782196799516753138e-01
4.043662793302251757e-01
-3.677850207986170794e-01
-6.822487840041449036e-01
4.362855177080091629e-01
6.510819188155991810e-03
-5.121841142817176173e-01
9.535721781485748672e-01
-3.868799935123128364e-01
2.643893614667014447e-01
-8.913002366639719565e-01
-2.901214404961702797e-01
-6.614145649971783225e-01
9.761367912952765291e-01
-3.353800226117784611e-01
-9.652416402266392748e-01
4.366130778978631888e-01
-7.023125972529653538e-01
-2.398623341328829373e-01
-4.287254196664145312e-01
4.914145522857666926e-01
-4.392025212344141671e-02
-2.587678028344564396e-02
3.659290178560834494e-01
2.323291052781268906e-01
2.164710474023838760e-01
5.312367754163860312e-01
7.495720161381944635e-01
-5.056136915273634624e-01
-3.925642875568513546e-01
-3.791020968606952923e-01
-1.219825542386687722e-02
4.938633258694085093e-01
2.580322785484199244e-01
-5.539778675067477121e-01
-6.723824293183886525e-01
-7.566898773348982310e-01
9.021117164935505972e-01
9.889172530348353529e-01
2.062981897078031146e-01
8.526147569510267310e-02
7.868924269162209661e-01
2.518978135597704782e-01
7.137350792229029128e-01
-3.127894338026169230e-01
-4.233834842465298287e-01
-5.708055373682816569e-01
-1.526532968604430440e-01
2.945173243738534730e-01
-3.096063070316290577e-01
8.888592909783219476e-01
-5.491463016539965825e-01
-5.827712991018312305e-01
-1.146579267684573189e-01
5.497683460726701110e-01
9.104521157671048304e-01
1.696671004894811929e-01
-3.709823545653161414e-01
-4.332123086491779240e-02
-7.883496368043219071e-01
-8.713130250435707769e-01
6.650567532688087535e-01
-7.358535642592678450e-01
-3.954141262278432212e-01
7.878272810742235066e-01
2.230698576640932629e-02
-1.495532319609269578e-01
4.464506226698383706e-02
2.763513130060608614e-01
-2.591405546313587660e-01
6.888161482097958643e-01
-4.217452474067033830e-01
-8.073502876447520293e-01
-6.255493243359406819e-01
-1.035877780814353777e-02
-9.398255325454993869e-01
-8.740144645288590031e-01
-8.305754959640860857e-01
-9.510683562845985151e-01
9.079941020500115201e-01
1.879095455120609603e-01
7.085304594522849886e-01
-7.314682212462428890e-01
4.440335236681347553e-02
-7.234485291083139202e-01
9.696504016461826581e-02
-3.584831213296590935e-01
-7.295899174289299793e-01
4.612847430143396377e-01
6.207494217067908160e-01
9.718436197628439466e-01
8.799144332924717649e-01
-6.162387889484597370e-01
-8.463251363063353239e-01
9.231203544717001552e-01
3.971501548781943836e-01
3.912925679032470683e-01
9.328231448544335169e-01
-7.305521025202805774e-01
-3.162113075580437194e-01
8.688685885008304854e-01
-6.577296396856557870e-02
3.318818381456183353e-01
1.326036383185202894e-01
3.714832928059137451e-01
-7.952561688512760352e-01
-5.569439539772769177e-01
-2.503798015615847916e-01
5.261903162405081602e-01
9.317355713458046473e-01
-6.694592677187376495e-01
3.268942280321083249e-01
1.187746006656007491e-01
8.772602889758278621e-01
-3.281440411247240618e-01
-9.469432317723327497e-01
2.070068841369507862e-01
9.807708717688463640e-01
6.288230403792289813e-01
-6.566381051164027483e-02
1.743465079799986217e-01
6.513069474589556762e-01
-7.697388135985330226e-01
7.043090616058667042e-01
-8.552760287838270248e-01
-5.678202140022834410e-01
-4.488718635329227435e-01
8.316654221996435670e-01
-8.203906303126951016e-02
1.520346537921384300e-01
-9.430606067483009447e-01
3.303653381069342476e-01
-5.639730017667354822e-02
-6.555751843157375802e-01
2.930570685248947704e-01
-9.776358085393979103e-01
-1.199902513924913094e-01
-8.231859131663066265e-02
-8.923365245848602356e-02
-8.455420369858510643e-01
-6.155916580433786756e-01
-7.465167029751700323e-01
-4.452429364630758890e-01
9.826700001316757138e-02
-6.972066622190566942e-01
-3.077052497214285420e-01
6.405739544043667077e-01
-4.510688457978595522e-01
-9.860264199344959124e-01
8.655700821590393002e-01
6.091778469174142785e-01
3.558435459052484706e-01
5.831303600342621074e-01
1.538752277472517083e-01
-1.318224973176693737e-01
1.828532838789040937e-01
-9.190567928809556530e-01
-3.613943483825288183e-01
-2.530207256200107668e-01
-2.313019742757902453e-01
-2.370940126592289143e-01
-9.657960558109177640e-01
8.465490507926505259e-01
3.860556063613345135e-01
9.961235705381124017e-01
-7.769904994223695294e-01
4.355217149178713942e-01
8.896169102051358912e-01
-1.357358027890609442e-02
-3.182718201200638308e-01
-3.595007673345054222e-01
-4.037993157794244059e-01
-4.032640780241052436e-01
-9.470295677402473800e-01
-8.630789434420846895e-01
-3.141378436184736334e-01
-9.711631696574536399e-01
-1.540975032043816473e-01
9.504390377145162105e-01
1.809898329593260247e-01
3.601909097170619134e-03
6.412100563365443762e-01
4.256349320493935107e-01
8.127453222110925246e-01
-5.018017922634192551e-01
-7.269030355259173959e-01
-2.200865391036950225e-01
7.744309227877350654e-01
-1.696597301223667920e-01
7.221344907836217963e-01
6.404015263339113417e-01
7.461569932687424078e-01
-9.063058859272177248e-01
1.433673454405521852e-01
3.989535159925206020e-01
4.954267084142758293e-01
2.407307395177293863e-02
-8.147500934225997415e-01
-2.747667246972953503e-01
-8.689995517536046599e-01
-9.241210388189022851e-01
1.800920459908132987e-01
8.058278217877745675e-01
8.583247892971546111e-01
-6.817974288343018330e-01
-2.502975997539702568e-02
-3.505440336974259274e-01
8.807127888244403735e-01
-7.806583702851770390e-01
4.858369759038696500e-01
2.562222380093939211e-01
3.799265641899918222e-02
9.087420177145193456e-01
-2.052026708312837400e-01
-4.156593015632898958e-01
2.451548673992220984e-03
4.400289610717393884e-01
7.215122623866621066e-01
-5.211074894637557353e-01
-9.804751198448671268e-01
4.945981491477167147e-01
9.536760322283490687e-01
6.908712756069592675e-01
3.948938026219794839e-01
-3.677917457680768276e-01
-7.350877617354669713e-01
-1.570089123454909696e-02
-5.735579884249388805e-01
1.538431578798915567e-01
-8.138820206252832534e-01
6.932095009782168749e-01
-2.435568580043494524e-01
-9.263246525529489350e-01
-7.219209228677816448e-01
-6.468985040789110297e-01
-6.975684259148970945e-01
2.713249435180957736e-01
-7.386738101463226069e-01
-7.573120419923433655e-01
-5.206697938955189287e-01
-4.015892015850113239e-01
-9.681910827950088727e-01
6.750456941037488168e-01
-4.671955878169060661e-01
-4.220949007918883833e-01
3.194465534831074649e-01
7.013016156602969176e-01
2.937071996911688743e-01
3.756526692780965959e-01
-8.274434504480920882e-01
-5.521432609190326524e-01
6.232493962615766048e-01
-7.195370202702500162e-01
5.864539219785029900e-01
-4.923610526283830335e-01
-9.589048053670568006e-01
3.567976089693680741e-02
-9.524986782574340616e-01
9.911679735744529651e-01
5.182304491858384932e-01
-5.463640074742577291e-01
-4.715482135975974654e-01
-2.066768793274498250e-03
-5.044291183509841403e-01
8.585182476526214135e-01
-1.502403996488443916e-02
-9.517689921822836130e-01
-7.355685659646806762e-01
-8.864286902404439061e-02
-7.495232988742632774e-01
-4.781902588862572134e-01
6.938454913221865361e-01
6.674261460107449029e-01
3.652288655005266893e-01
5.848334977613518504e-01
-4.089740693679333461e-01
3.524051918088588753e-01
5.353691432766503056e-01
-6.167303456673196571e-01
-3.599718034699859182e-01
1.893383093357343672e-01
9.617481686335531688e-01
8.391231376592327429e-01
-4.050509952578693618e-01
-5.341834931783062679e-01
-8.261303141899798419e-01
-6.829224313927693135e-01
-4.868410280095787357e-01
-7.571727334995204117e-01
-1.425497503868398130e-01
-2.534024703606840845e-01
7.469495767348175441e-01
2.130464945858729919e-01
-3.654932215258104300e-01
6.327204780701183306e-01
1.220078830902513456e-01
-5.261772514836509096e-01
-7.412501531524873233e-01
6.840347649737885671e-01
7.141073078731574597e-01
-5.016242729907438580e-02
1.712133655190077874e-01
-6.568563913759710715e-01
-9.200941886649380841e-01
1.044167804831186430e-03
2.472560474614673431e-01
6.605188975487525926e-01
5.182717716371614269e-01
8.934744412466821828e-01
3.496735748735775307e-01
3.545271741848834424e-01
-5.892853887067603935e-01
4.228497946869396173e-01
-9.460838506612441190e-01
7.838827541888209183e-01
8.955969763743445444e-01
6.497016922333731515e-01
1.977341484081578393e-01
-8.407798323211366220e-01
-1.704102274344903023e-01
-2.509990737521703430e-01
-5.282100124847779465e-01
1.890593614245694720e-01
-8.421890141564185583e-01
6.274580057095511254e-01
-3.839066905365122739e-01
2.812649690845900885e-01
6.866297374021355093e-01
5.541118708507724033e-01
7.795534512603836674e-01
-1.148970511646074666e-01
5.934494448346270268e-01
-4.242787437892925340e-01
7.545870217649357503e-01
-7.685992886107475552e-01
2.028177875653265350e-01
-2.280813701971180496e-01
-8.952336583065356734e-02
-3.220608861629219444e-01
-4.788399798142028985e-02
4.416845012033550066e-01
5.216952465534097083e-01
-8.015299176439796280e-01
5.274099954832780490e-01
1.475113635294937886e-01
-2.171658542862227037e-01
-2.085056934868254608e-01
-6.476152056068926743e-01
9.721378826021591646e-01
-9.550598565285339792e-01
2.143960414269909798e-01
-2.182491467102658511e-01
-7.855374886983068627e-02
-6.716430705097844456e-01
1.470166614762462576e-01
7.011500574639117911e-01
-1.280094895916064068e-01
9.858893924804408293e-01
-7.996893383805177002e-01
-2.985369483650406330e-01
-1.808655610069820341e-01
9.465735899198475245e-01
5.230106669821692478e-01
5.416482113149552191e-01
-4.951082090641980571e-01
5.582318668690615660e-01
-1.884955616577761450e-01
-5.246075092056496914e-01
9.047873279137075286e-01
-1.960229881305608490e-01
7.555883234290943218e-01
2.578491223146648359e-01
-7.442100226940007168e-01
1.644469111540076689e-01
6.723082424470760987e-01
-2.880259379557426058e-01
7.441752247854978020e-01
-9.543725788055743564e-01
4.548103305497273041e-01
2.092713153569292217e-03
-5.814455634864499345e-01
-6.396704392701801911e-01
8.683741986253545875e-03
6.795141574965866127e-01
1.411536468765126617e-01
8.409376214554868945e-01
-1.420122968192267798e-01
-9.648751858061845876e-01
-7.009806641172373620e-01
-7.349073427926491320e-01
-3.569451121561890705e-01
8.108018394131177864e-01
1.100556275914537085e-01
8.635336990151416536e-01
6.869340474963165910e-01
-5.976911367072637038e-01
-4.023224620562748655e-02
4.818720560898070993e-02
9.454571848172417248e-01
8.545729587350485712e-01
2.751738703920405538e-01
-7.323163474550022922e-01
5.361734690689343719e-01
8.294802104444405355e-01
9.924803971954394566e-01
-3.467571669542492963e-01
6.306991324773258967e-02
-8.905541672771486450e-01
8.066316529941899294e-01
-6.808746173089019749e-02
7.922462695006375899e-01
-4.466766981716663309e-04
-2.476497266982868872e-01
5.583211779801602326e-01
-4.040720646381057435e-04
6.436793576479671319e-01
-8.435044285422170773e-01
-4.920100918956091807e-01
-1.616145207603960632e-01
-1.044267496735122869e-01
1.505193256508239319e-01
-8.449604523592728622e-01
3.875081067004264579e-01
9.736687369869301278e-01
9.007765471020556802e-01
4.704132384056547433e-01
4.008248965358811589e-01
6.061924159554408220e-01
-1.963137112259234485e-01
-2.222302011842260949e-01
-7.781912152548289274e-01
3.634875865128781580e-01
1.416019123069434116e-02
4.728742174041362656e-01
4.254770559556297904e-01
-7.007031701572963289e-01
9.886830585436243712e-01
-3.942462061941449658e-01
-3.052526624923355136e-01
8.069133040277371993e-01
-7.689755099320445542e-01
8.134410842288506416e-01
-2.406247797704990088e-01
-3.484462751495669419e-01
-7.371609560948924056e-01
-7.415775719549995149e-01
8.031967341260559667e-01
-4.601129217252819537e-01
4.283428895684635584e-01
7.414057473782165175e-01
2.841703304333267344e-01
7.493135077224819529e-01
-4.896987000616781494e-01
5.307489837328704940e-01
-3.911504139276118508e-01
-6.169317054042200432e-02
3.553634753782968225e-01
-7.258506894774743312e-01
-1.301547679533892055e-01
5.634032508750936863e-01
8.470728997227261470e-01
-5.908621621077778663e-01
-7.703120028625258797e-01
3.631972001759864455e-02
7.713938999600955526e-01
-4.142914181615200420e-01
5.385420464912993310e-01
6.337001629193756980e-01
-6.144444797742609765e-02
6.821819607689956211e-01
-1.690555143256520232e-01
2.440665862160318333e-01
9.529095813412689076e-01
6.548108768064644369e-01
9.451312245001830536e-01
-9.476274540334179708e-01
-2.839763787047888677e-01
-6.477514823265235755e-01
-9.556577987924534945e-01
6.999930251437616047e-01
-8.670248964256164204e-01
-9.517244310106232064e-01
-4.544205648990018442e-01
7.378467561690575938e-01
-3.876426086011006689e-01
-4.081275296049959866e-01
-3.279606122853460093e-01
-2.299582673923461495e-01
7.690560043363361409e-01
-4.877608880774551015e-01
-5.442672046427674548e-01
1.390369421791950444e-01
9.769165873017957580e-01
4.948477479273278856e-01
-1.823244189115613700e-02
7.500879891459208970e-01
3.068874615364511893e-01
-7.080718390141758078e-01
-4.196520755674333358e-01
-2.359437124108012540e-01
-1.565254384963539191e-01
8.056290015855200881e-01
-2.021817413257609442e-01
8.846715623526624217e-01
7.297796583134321668e-01
5.873711781825323719e-01
5.610140257691640375e-01
4.810427364959297680e-01
2.441209091348450766e-01
-4.542961789271631190e-01
-6.144615356388736238e-01
7.625705298807494703e-01
-9.029254731060458727e-01
3.181742680986785476e-01
5.421642776198454250e-01
8.592802817000828597e-01
-8.906917205111550828e-01
9.211698990252257246e-01
-5.812924968812518411e-01
-3.724187332742883161e-01
6.222702309002352550e-01
-8.304728949143551642e-01
2.346513070459357309e-01
-8.102128432846835704e-01
-1.622536440234940702e-01
-9.980106464422642265e-01
-7.530316519187836288e-01
5.708080467622247411e-01
2.181333851584490446e-01
-9.839142895494461527e-01
6.100497644715758838e-01
7.800001557865332558e-02
9.082376853272537964e-01
-4.945760432347690028e-02
-7.263662534713088981e-01
-3.816358206515471085e-01
-2.867669878375189718e-02
-2.098570190953421566e-01
-4.139827391134054402e-01
-5.654257076546573835e-01
3.822217367643025998e-01
-6.681982394297198979e-01
-5.278668536601560657e-01
9.440666896694984711e-01
-8.761143378989215691e-01
-4.185439376036186321e-01
-4.114002265827927385e-01
9.169470995492494669e-01
4.253206624637355660e-01
-7.352366646513086579e-02
8.680319302673185078e-01
1.192395770150078693e-01
3.820120805462419167e-01
4.936987909137517949e-01
7.245929639424508739e-01
-4.200526196653566746e-01
-9.003296382528320763e-01
5.850770694403455430e-01
7.116597308428707080e-02
-2.626075017872151474e-01
7.010559978067543163e-01
-4.308540717775657392e-01
-6.851384739351420450e-01
4.918950942794733106e-01
9.383527311760135881e-01
4.608821144865584696e-01
9.780000065019094357e-01
7.028252759976316710e-03
-1.789685354782504234e-01
4.519039563176763252e-02
8.091164152949006372e-01
1.669781711644207078e-01
-2.774366233840068752e-01
-9.619036012490862486e-01
-3.935749303621878248e-01
-1.657051239744240512e-01
6.782196799516753138e-01
4.043662793302251757e-01
-3.677850207986170794e-01
-6.822487840041449036e-01
4.362855177080091629e-01
6.510819188155991810e-03
-5.121841142817176173e-01
9.535721781485748672e-01
-3.868799935123128364e-01
2.643893614667014447e-01
-8.913002366639719565e-01
-2.901214404961702797e-01
-6.614145649971783225e-01
9.761367912952765291e-01
-3.353800226117784611e-01
-9.652416402266392748e-01
4.366130778978631888e-01
-7.023125972529653538e-01
-2.398623341328829373e-01
-4.287254196664145312e-01
4.914145522857666926e-01
-4.392025212344141671e-02
-2.587678028344564396e-02
3.659290178560834494e-01
2.323291052781268906e-01
2.164710474023838760e-01
5.312367754163860312e-01
7.495720161381944635e-01
-5.056136915273634624e-01
-3.925642875568513546e-01
-3.791020968606952923e-01
-1.219825542386687722e-02
4.938633258694085093e-01
2.580322785484199244e-01
-5.539778675067477121e-01
-6.723824293183886525e-01
-7.566898773348982310e-01
9.021117164935505972e-01
9.889172530348353529e-01
2.062981897078031146e-01
8.526147569510267310e-02
7.868924269162209661e-01
2.518978135597704782e-01
7.137350792229029128e-01
-3.127894338026169230e-01
-4.233834842465298287e-01
-5.708055373682816569e-01
-1.526532968604430440e-01
2.945173243738534730e-01
-3.096063070316290577e-01
8.888592909783219476e-01
-5.491463016539965825e-01
-5.827712991018312305e-01
-1.146579267684573189e-01
5.497683460726701110e-01
9.104521157671048304e-01
1.696671004894811929e-01
-3.709823545653161414e-01
-4.332123086491779240e-02
-7.883496368043219071e-01
-8.713130250435707769e-01
6.650567532688087535e-01
-7.358535642592678450e-01
-3.954141262278432212e-01
7.878272810742235066e-01
2.230698576640932629e-02
-1.495532319609269578e-01
4.464506226698383706e-02
2.763513130060608614e-01
-2.591405546313587660e-01
6.888161482097958643e-01
-4.217452474067033830e-01
-8.073502876447520293e-01
-6.255493243359406819e-01
-1.035877780814353777e-02
-9.398255325454993869e-01
-8.740144645288590031e-01
-8.305754959640860857e-01
-9.510683562845985151e-01
9.079941020500115201e-01
1.879095455120609603e-01
7.085304594522849886e-01
-7.314682212462428890e-01
4.440335236681347553e-02
-7.234485291083139202e-01
9.696504016461826581e-02
-3.584831213296590935e-01
-7.295899174289299793e-01
4.612847430143396377e-01
6.207494217067908160e-01
9.718436197628439466e-01
8.799144332924717649e-01
-6.162387889484597370e-01
-8.463251363063353239e-01
9.231203544717001552e-01
3.971501548781943836e-01
3.912925679032470683e-01
9.328231448544335169e-01
-7.305521025202805774e-01
-3.162113075580437194e-01
8.688685885008304854e-01
-6.577296396856557870e-02
3.318818381456183353e-01
1.326036383185202894e-01
3.714832928059137451e-01
-7.952561688512760352e-01
-5.569439539772769177e-01
-2.503798015615847916e-01
5.261903162405081602e-01
9.317355713458046473e-01
-6.694592677187376495e-01
3.268942280321083249e-01
1.187746006656007491e-01
8.772602889758278621e-01
-3.281440411247240618e-01
-9.469432317723327497e-01
2.070068841369507862e-01
9.807708717688463640e-01
6.288230403792289813e-01
-6.566381051164027483e-02
1.743465079799986217e-01
6.513069474589556762e-01
-7.697388135985330226e-01
7.043090616058667042e-01
-8.552760287838270248e-01
-5.678202140022834410e-01
-4.488718635329227435e-01
8.316654221996435670e-01
-8.203906303126951016e-02
1.520346537921384300e-01
-9.430606067483009447e-01
3.303653381069342476e-01
-5.639730017667354822e-02
-6.555751843157375802e-01
2.930570685248947704e-01
-9.776358085393979103e-01
-1.199902513924913094e-01
-8.231859131663066265e-02
-8.923365245848602356e-02
-8.455420369858510643e-01
-6.155916580433786756e-01
-7.465167029751700323e-01
-4.452429364630758890e-01
9.826700001316757138e-02
-6.972066622190566942e-01
-3.077052497214285420e-01
6.405739544043667077e-01
-4.510688457978595522e-01
-9.860264199344959124e-01
8.655700821590393002e-01
6.091778469174142785e-01
3.558435459052484706e-01
5.831303600342621074e-01
1.538752277472517083e-01
-1.318224973176693737e-01
1.828532838789040937e-01
-9.190567928809556530e-01
-3.613943483825288183e-01
-2.530207256200107668e-01
-2.313019742757902453e-01
-2.370940126592289143e-01
-9.657960558109177640e-01
8.465490507926505259e-01
3.860556063613345135e-01
9.961235705381124017e-01
-7.769904994223695294e-01
4.355217149178713942e-01
8.896169102051358912e-01
-1.357358027890609442e-02
-3.182718201200638308e-01
-3.595007673345054222e-01
-4.037993157794244059e-01
-4.032640780241052436e-01
-9.470295677402473800e-01
-8.630789434420846895e-01
-3.141378436184736334e-01
-9.711631696574536399e-01
-1.540975032043816473e-01
9.504390377145162105e-01
1.809898329593260247e-01
3.601909097170619134e-03
6.412100563365443762e-01
4.256349320493935107e-01
8.127453222110925246e-01
-5.018017922634192551e-01
-7.269030355259173959e-01
-2.200865391036950225e-01
7.744309227877350654e-01
-1.696597301223667920e-01
7.221344907836217963e-01
6.404015263339113417e-01
7.461569932687424078e-01
-9.063058859272177248e-01
1.433673454405521852e-01
3.989535159925206020e-01
4.954267084142758293e-01
2.407307395177293863e-02
-8.147500934225997415e-01
-2.747667246972953503e-01
-8.689995517536046599e-01
-9.241210388189022851e-01
1.800920459908132987e-01
8.058278217877745675e-01
8.583247892971546111e-01
-6.817974288343018330e-01
-2.502975997539702568e-02
-3.505440336974259274e-01
8.807127888244403735e-01
-7.806583702851770390e-01
4.858369759038696500e-01
2.562222380093939211e-01
3.799265641899918222e-02
9.087420177145193456e-01
-2.052026708312837400e-01
-4.156593015632898958e-01
2.451548673992220984e-03
4.400289610717393884e-01
7.215122623866621066e-01
-5.211074894637557353e-01
-9.804751198448671268e-01
4.945981491477167147e-01
9.536760322283490687e-01
6.908712756069592675e-01
3.948938026219794839e-01
-3.677917457680768276e-01
-7.350877617354669713e-01
-1.570089123454909696e-02
-5.735579884249388805e-01
1.538431578798915567e-01
-8.138820206252832534e-01
6.932095009782168749e-01
-2.435568580043494524e-01
-9.263246525529489350e-01
-7.219209228677816448e-01
-6.468985040789110297e-01
-6.975684259148970945e-01
2.713249435180957736e-01
-7.386738101463226069e-01
-7.573120419923433655e-01
-5.206697938955189287e-01
-4.015892015850113239e-01
-9.681910827950088727e-01
6.750456941037488168e-01
-4.671955878169060661e-01
-4.220949007918883833e-01
3.194465534831074649e-01
7.013016156602969176e-01
2.937071996911688743e-01
3.756526692780965959e-01
-8.274434504480920882e-01
-5.521432609190326524e-01
6.232493962615766048e-01
-7.195370202702500162e-01
5.864539219785029900e-01
-4.923610526283830335e-01
-9.589048053670568006e-01
3.567976089693680741e-02
-9.524986782574340616e-01
9.911679735744529651e-01
5.182304491858384932e-01
-5.463640074742577291e-01
-4.715482135975974654e-01
-2.066768793274498250e-03
-5.044291183509841403e-01
8.585182476526214135e-01
-1.502403996488443916e-02
-9.517689921822836130e-01
-7.355685659646806762e-01
-8.864286902404439061e-02
-7.495232988742632774e-01
-4.781902588862572134e-01
6.938454913221865361e-01
6.674261460107449029e-01
3.652288655005266893e-01
5.848334977613518504e-01
-4.089740693679333461e-01
3.524051918088588753e-01
5.353691432766503056e-01
-6.167303456673196571e-01
-3.599718034699859182e-01
1.893383093357343672e-01
9.617481686335531688e-01
8.391231376592327429e-01
-4.050509952578693618e-01
-5.341834931783062679e-01
-8.261303141899798419e-01
-6.829224313927693135e-01
-4.868410280095787357e-01
-7.571727334995204117e-01
-1.425497503868398130e-01
-2.534024703606840845e-01
7.469495767348175441e-01
2.130464945858729919e-01
-3.654932215258104300e-01
6.327204780701183306e-01
1.220078830902513456e-01
-5.261772514836509096e-01
-7.412501531524873233e-01
6.840347649737885671e-01
7.141073078731574597e-01
-5.016242729907438580e-02
1.712133655190077874e-01
-6.568563913759710715e-01
-9.200941886649380841e-01
1.044167804831186430e-03
2.472560474614673431e-01
6.605188975487525926e-01
5.182717716371614269e-01
8.934744412466821828e-01
3.496735748735775307e-01
3.545271741848834424e-01
-5.892853887067603935e-01
4.228497946869396173e-01
-9.460838506612441190e-01
7.838827541888209183e-01
8.955969763743445444e-01
6.497016922333731515e-01
1.977341484081578393e-01
-8.407798323211366220e-01
-1.704102274344903023e-01
-2.509990737521703430e-01
-5.282100124847779465e-01
1.890593614245694720e-01
-8.421890141564185583e-01
6.274580057095511254e-01
-3.839066905365122739e-01
2.812649690845900885e-01
6.866297374021355093e-01
5.541118708507724033e-01
7.795534512603836674e-01
-1.148970511646074666e-01
5.934494448346270268e-01
-4.242787437892925340e-01
7.545870217649357503e-01
-7.685992886107475552e-01
2.028177875653265350e-01
-2.280813701971180496e-01
-8.952336583065356734e-02
-3.220608861629219444e-01
-4.788399798142028985e-02
4.416845012033550066e-01
5.216952465534097083e-01
-8.015299176439796280e-01
5.274099954832780490e-01
1.475113635294937886e-01
-2.171658542862227037e-01
-2.085056934868254608e-01
-6.476152056068926743e-01
9.721378826021591646e-01
-9.550598565285339792e-01
2.143960414269909798e-01
-2.182491467102658511e-01
-7.855374886983068627e-02
-6.716430705097844456e-01
1.470166614762462576e-01
7.011500574639117911e-01
-1.280094895916064068e-01
9.858893924804408293e-01
-7.996893383805177002e-01
-2.985369483650406330e-01
-1.808655610069820341e-01
9.465735899198475245e-01
5.230106669821692478e-01
5.416482113149552191e-01
-4.951082090641980571e-01
5.582318668690615660e-01
-1.884955616577761450e-01
-5.246075092056496914e-01
9.047873279137075286e-01
-1.960229881305608490e-01
7.555883234290943218e-01
2.578491223146648359e-01
-7.442100226940007168e-01
1.644469111540076689e-01
6.723082424470760987e-01
-2.880259379557426058e-01
7.441752247854978020e-01
-9.543725788055743564e-01
4.548103305497273041e-01
2.092713153569292217e-03
-5.814455634864499345e-01
-6.396704392701801911e-01
8.683741986253545875e-03
6.795141574965866127e-01
1.411536468765126617e-01
8.409376214554868945e-01
-1.420122968192267798e-01
-9.648751858061845876e-01
-7.009806641172373620e-01
-7.349073427926491320e-01
-3.569451121561890705e-01
8.108018394131177864e-01
1.100556275914537085e-01
8.635336990151416536e-01
6.869340474963165910e-01
-5.976911367072637038e-01
-4.023224620562748655e-02
4.818720560898070993e-02
9.454571848172417248e-01
8.545729587350485712e-01
2.751738703920405538e-01
-7.323163474550022922e-01
5.361734690689343719e-01
8.294802104444405355e-01
9.924803971954394566e-01
-3.467571669542492963e-01
6.306991324773258967e-02
-8.905541672771486450e-01
8.066316529941899294e-01
-6.808746173089019749e-02
7.922462695006375899e-01
-4.466766981716663309e-04
-2.476497266982868872e-01
5.583211779801602326e-01
-4.040720646381057435e-04
6.436793576479671319e-01
-8.435044285422170773e-01
-4.920100918956091807e-01
-1.616145207603960632e-01
-1.044267496735122869e-01
1.505193256508239319e-01
-8.449604523592728622e-01
3.875081067004264579e-01
9.736687369869301278e-01
9.007765471020556802e-01
4.704132384056547433e-01
4.008248965358811589e-01
6.061924159554408220e-01
-1.963137112259234485e-01
-2.222302011842260949e-01
-7.781912152548289274e-01
3.634875865128781580e-01
1.416019123069434116e-02
4.728742174041362656e-01
4.254770559556297904e-01
-7.007031701572963289e-01
9.886830585436243712e-01
-3.942462061941449658e-01
-3.052526624923355136e-01
8.069133040277371993e-01
-7.689755099320445542e-01
8.134410842288506416e-01
-2.406247797704990088e-01
-3.484462751495669419e-01
-7.371609560948924056e-01
-7.415775719549995149e-01
8.031967341260559667e-01
-4.601129217252819537e-01
4.283428895684635584e-01
7.414057473782165175e-01
2.841703304333267344e-01
7.493135077224819529e-01
-4.896987000616781494e-01
5.307489837328704940e-01
-3.911504139276118508e-01
-6.169317054042200432e-02
3.553634753782968225e-01
-7.258506894774743312e-01
-1.301547679533892055e-01
5.634032508750936863e-01
8.470728997227261470e-01
-5.908621621077778663e-01
-7.703120028625258797e-01
3.631972001759864455e-02
7.713938999600955526e-01
-4.142914181615200420e-01
5.385420464912993310e-01
6.337001629193756980e-01
-6.144444797742609765e-02
6.821819607689956211e-01
-1.690555143256520232e-01
2.440665862160318333e-01
9.529095813412689076e-01
6.548108768064644369e-01
9.451312245001830536e-01
-9.476274540334179708e-01
-2.839763787047888677e-01
-6.477514823265235755e-01
-9.556577987924534945e-01
6.999930251437616047e-01
-8.136846723139363746e-01
-9.700563948490024124e-01
3.880717333584389195e-01
5.518129063011458779e-01
-3.849939808933289243e-02
-4.081275296049959866e-01
-3.279606122853460093e-01
-2.299582673923461495e-01
7.690560043363361409e-01
-4.877608880774551015e-01
-5.442672046427674548e-01
1.390369421791950444e-01
9.769165873017957580e-01
4.948477479273278856e-01
-1.823244189115613700e-02
7.500879891459208970e-01
3.068874615364511893e-01
-7.080718390141758078e-01
-4.196520755674333358e-01
-2.359437124108012540e-01
6.342236230193520896e-02
-3.487852909087476583e-01
-3.410803607223720224e-01
-6.340831575619003679e-01
-8.426891963328053681e-01
5.873711781825323719e-01
5.610140257691640375e-01
4.810427364959297680e-01
2.441209091348450766e-01
-4.542961789271631190e-01
-6.144615356388736238e-01
7.625705298807494703e-01
-9.029254731060458727e-01
3.181742680986785476e-01
5.421642776198454250e-01
8.592802817000828597e-01
-8.906917205111550828e-01
9.211698990252257246e-01
-5.812924968812518411e-01
-3.724187332742883161e-01
6.222702309002352550e-01
-8.304728949143551642e-01
2.346513070459357309e-01
-8.102128432846835704e-01
-1.622536440234940702e-01
-9.980106464422642265e-01
-7.530316519187836288e-01
5.708080467622247411e-01
2.181333851584490446e-01
-9.839142895494461527e-01
6.100497644715758838e-01
7.800001557865332558e-02
9.082376853272537964e-01
-4.945760432347690028e-02
-7.263662534713088981e-01
-3.816358206515471085e-01
-2.867669878375189718e-02
-2.098570190953421566e-01
-4.139827391134054402e-01
-5.654257076546573835e-01
3.822217367643025998e-01
-6.681982394297198979e-01
-5.278668536601560657e-01
9.440666896694984711e-01
-8.761143378989215691e-01
-4.185439376036186321e-01
-4.114002265827927385e-01
9.169470995492494669e-01
4.253206624637355660e-01
-7.352366646513086579e-02
8.680319302673185078e-01
1.192395770150078693e-01
3.820120805462419167e-01
4.936987909137517949e-01
7.245929639424508739e-01
-4.200526196653566746e-01
-9.003296382528320763e-01
5.850770694403455430e-01
7.116597308428707080e-02
-2.626075017872151474e-01
7.010559978067543163e-01
-4.308540717775657392e-01
-6.851384739351420450e-01
4.918950942794733106e-01
9.383527311760135881e-01
4.608821144865584696e-01
9.780000065019094357e-01
7.028252759976316710e-03
-1.789685354782504234e-01
4.519039563176763252e-02
8.091164152949006372e-01
1.669781711644207078e-01
-2.774366233840068752e-01
-9.619036012490862486e-01
-3.935749303621878248e-01
-1.657051239744240512e-01
6.782196799516753138e-01
4.043662793302251757e-01
-3.677850207986170794e-01
-6.822487840041449036e-01
4.362855177080091629e-01
6.510819188155991810e-03
-5.121841142817176173e-01
9.535721781485748672e-01
-3.868799935123128364e-01
2.643893614667014447e-01
-8.913002366639719565e-01
-2.901214404961702797e-01
-6.614145649971783225e-01
9.761367912952765291e-01
-3.353800226117784611e-01
-9.652416402266392748e-01
4.366130778978631888e-01
-7.023125972529653538e-01
-2.398623341328829373e-01
-4.287254196664145312e-01
4.914145522857666926e-01
-4.392025212344141671e-02
-2.587678028344564396e-02
3.659290178560834494e-01
2.323291052781268906e-01
2.164710474023838760e-01
5.312367754163860312e-01
7.495720161381944635e-01
-5.056136915273634624e-01
-3.925642875568513546e-01
-3.791020968606952923e-01
-1.219825542386687722e-02
4.938633258694085093e-01
2.580322785484199244e-01
-5.539778675067477121e-01
-6.723824293183886525e-01
-7.566898773348982310e-01
9.021117164935505972e-01
9.889172530348353529e-01
2.062981897078031146e-01
8.526147569510267310e-02
7.868924269162209661e-01
2.518978135597704782e-01
7.137350792229029128e-01
-3.127894338026169230e-01
-4.233834842465298287e-01
-5.708055373682816569e-01
-1.526532968604430440e-01
2.945173243738534730e-01
-3.096063070316290577e-01
8.888592909783219476e-01
-5.491463016539965825e-01
-5.827712991018312305e-01
-1.146579267684573189e-01
5.497683460726701110e-01
9.104521157671048304e-01
1.696671004894811929e-01
-3.709823545653161414e-01
-4.332123086491779240e-02
-7.883496368043219071e-01
-8.713130250435707769e-01
6.650567532688087535e-01
-7.358535642592678450e-01
-3.954141262278432212e-01
7.878272810742235066e-01
2.230698576640932629e-02
-1.495532319609269578e-01
4.464506226698383706e-02
2.763513130060608614e-01
-2.591405546313587660e-01
6.888161482097958643e-01
-4.217452474067033830e-01
-8.073502876447520293e-01
-6.255493243359406819e-01
-1.035877780814353777e-02
-9.398255325454993869e-01
-8.740144645288590031e-01
-8.305754959640860857e-01
-9.510683562845985151e-01
9.079941020500115201e-01
1.879095455120609603e-01
7.085304594522849886e-01
-7.314682212462428890e-01
4.440335236681347553e-02
-7.234485291083139202e-01
9.696504016461826581e-02
-3.584831213296590935e-01
-7.295899174289299793e-01
4.612847430143396377e-01
6.207494217067908160e-01
9.718436197628439466e-01
8.799144332924717649e-01
-6.162387889484597370e-01
-8.463251363063353239e-01
9.231203544717001552e-01
3.971501548781943836e-01
3.912925679032470683e-01
9.328231448544335169e-01
-7.305521025202805774e-01
-3.162113075580437194e-01
8.688685885008304854e-01
-6.577296396856557870e-02
3.318818381456183353e-01
1.326036383185202894e-01
3.714832928059137451e-01
-7.952561688512760352e-01
-5.569439539772769177e-01
-2.503798015615847916e-01
5.261903162405081602e-01
9.317355713458046473e-01
-6.694592677187376495e-01
3.268942280321083249e-01
1.187746006656007491e-01
8.772602889758278621e-01
-3.281440411247240618e-01
-9.469432317723327497e-01
2.070068841369507862e-01
9.807708717688463640e-01
6.288230403792289813e-01
-6.566381051164027483e-02
1.743465079799986217e-01
6.513069474589556762e-01
-7.697388135985330226e-01
7.043090616058667042e-01
-8.552760287838270248e-01
-5.678202140022834410e-01
-4.488718635329227435e-01
8.316654221996435670e-01
-8.203906303126951016e-02
1.520346537921384300e-01
-9.430606067483009447e-01
3.303653381069342476e-01
-5.639730017667354822e-02
-6.555751843157375802e-01
2.930570685248947704e-01
-9.776358085393979103e-01
-1.199902513924913094e-01
-8.231859131663066265e-02
-8.923365245848602356e-02
-8.455420369858510643e-01
-6.155916580433786756e-01
-7.465167029751700323e-01
-4.452429364630758890e-01
9.826700001316757138e-02
-6.972066622190566942e-01
-3.077052497214285420e-01
6.405739544043667077e-01
-4.510688457978595522e-01
-9.860264199344959124e-01
8.655700821590393002e-01
6.091778469174142785e-01
3.558435459052484706e-01
5.831303600342621074e-01
1.538752277472517083e-01
-1.318224973176693737e-01
1.828532838789040937e-01
-9.190567928809556530e-01
-3.613943483825288183e-01
-2.530207256200107668e-01
-2.313019742757902453e-01
-2.370940126592289143e-01
-9.657960558109177640e-01
8.465490507926505259e-01
3.860556063613345135e-01
9.961235705381124017e-01
-7.769904994223695294e-01
4.355217149178713942e-01
8.896169102051358912e-01
-1.357358027890609442e-02
-3.182718201200638308e-01
-3.595007673345054222e-01
-4.037993157794244059e-01
-4.032640780241052436e-01
-9.470295677402473800e-01
-8.630789434420846895e-01
-3.141378436184736334e-01
-9.711631696574536399e-01
-1.540975032043816473e-01
9.504390377145162105e-01
1.809898329593260247e-01
3.601909097170619134e-03
6.412100563365443762e-01
4.256349320493935107e-01
8.127453222110925246e-01
-5.018017922634192551e-01
-7.269030355259173959e-01
-2.200865391036950225e-01
7.744309227877350654e-01
-1.696597301223667920e-01
7.221344907836217963e-01
6.404015263339113417e-01
7.461569932687424078e-01
-9.063058859272177248e-01
1.433673454405521852e-01
3.989535159925206020e-01
4.954267084142758293e-01
2.407307395177293863e-02
-8.147500934225997415e-01
-2.747667246972953503e-01
-8.689995517536046599e-01
-9.241210388189022851e-01
1.800920459908132987e-01
8.058278217877745675e-01
8.583247892971546111e-01
-6.817974288343018330e-01
-2.502975997539702568e-02
-3.505440336974259274e-01
8.807127888244403735e-01
-7.806583702851770390e-01
4.858369759038696500e-01
2.562222380093939211e-01
3.799265641899918222e-02
9.087420177145193456e-01
-2.052026708312837400e-01
-4.156593015632898958e-01
2.451548673992220984e-03
4.400289610717393884e-01
7.215122623866621066e-01
-5.211074894637557353e-01
-9.804751198448671268e-01
4.945981491477167147e-01
9.536760322283490687e-01
6.908712756069592675e-01
3.948938026219794839e-01
-3.677917457680768276e-01
-7.350877617354669713e-01
-1.570089123454909696e-02
-5.735579884249388805e-01
1.538431578798915567e-01
-8.138820206252832534e-01
6.932095009782168749e-01
-2.435568580043494524e-01
-9.263246525529489350e-01
-7.219209228677816448e-01
-6.468985040789110297e-01
-6.975684259148970945e-01
2.713249435180957736e-01
-7.386738101463226069e-01
-7.573120419923433655e-01
-5.206697938955189287e-01
-4.015892015850113239e-01
-9.681910827950088727e-01
6.750456941037488168e-01
-4.671955878169060661e-01
-4.220949007918883833e-01
3.194465534831074649e-01
7.013016156602969176e-01
2.937071996911688743e-01
3.756526692780965959e-01
-8.274434504480920882e-01
-5.521432609190326524e-01
6.232493962615766048e-01
-7.195370202702500162e-01
5.864539219785029900e-01
-4.923610526283830335e-01
-9.589048053670568006e-01
3.567976089693680741e-02
-9.524986782574340616e-01
9.911679735744529651e-01
5.182304491858384932e-01
-5.463640074742577291e-01
-4.715482135975974654e-01
-2.066768793274498250e-03
-5.044291183509841403e-01
8.585182476526214135e-01
-1.502403996488443916e-02
-9.517689921822836130e-01
-7.355685659646806762e-01
-8.864286902404439061e-02
-7.495232988742632774e-01
-4.781902588862572134e-01
6.938454913221865361e-01
6.674261460107449029e-01
3.652288655005266893e-01
5.848334977613518504e-01
-4.089740693679333461e-01
3.524051918088588753e-01
5.353691432766503056e-01
-6.167303456673196571e-01
-3.599718034699859182e-01
1.893383093357343672e-01
9.617481686335531688e-01
8.391231376592327429e-01
-4.050509952578693618e-01
-5.341834931783062679e-01
-8.261303141899798419e-01
-6.829224313927693135e-01
-4.868410280095787357e-01
-7.571727334995204117e-01
-1.425497503868398130e-01
-2.534024703606840845e-01
7.469495767348175441e-01
2.130464945858729919e-01
-3.654932215258104300e-01
6.327204780701183306e-01
1.220078830902513456e-01
-5.261772514836509096e-01
-7.412501531524873233e-01
6.840347649737885671e-01
7.141073078731574597e-01
-5.016242729907438580e-02
1.712133655190077874e-01
-6.568563913759710715e-01
-9.200941886649380841e-01
1.044167804831186430e-03
2.472560474614673431e-01
6.605188975487525926e-01
5.182717716371614269e-01
8.934744412466821828e-01
3.496735748735775307e-01
3.545271741848834424e-01
-5.892853887067603935e-01
4.228497946869396173e-01
-9.460838506612441190e-01
7.838827541888209183e-01
8.955969763743445444e-01
6.497016922333731515e-01
1.977341484081578393e-01
-8.407798323211366220e-01
-1.704102274344903023e-01
-2.509990737521703430e-01
-5.282100124847779465e-01
1.890593614245694720e-01
-8.421890141564185583e-01
6.274580057095511254e-01
-3.839066905365122739e-01
2.812649690845900885e-01
6.866297374021355093e-01
5.541118708507724033e-01
7.795534512603836674e-01
-1.148970511646074666e-01
5.934494448346270268e-01
-4.242787437892925340e-01
7.545870217649357503e-01
-7.685992886107475552e-01
2.028177875653265350e-01
-2.280813701971180496e-01
-8.952336583065356734e-02
-3.220608861629219444e-01
-4.788399798142028985e-02
4.416845012033550066e-01
5.216952465534097083e-01
-8.015299176439796280e-01
5.274099954832780490e-01
1.475113635294937886e-01
-2.171658542862227037e-01
-2.085056934868254608e-01
-6.476152056068926743e-01
9.721378826021591646e-01
-9.550598565285339792e-01
2.143960414269909798e-01
-2.182491467102658511e-01
-7.855374886983068627e-02
-6.716430705097844456e-01
1.470166614762462576e-01
7.011500574639117911e-01
-1.280094895916064068e-01
9.858893924804408293e-01
-7.996893383805177002e-01
-2.985369483650406330e-01
-1.808655610069820341e-01
9.465735899198475245e-01
5.230106669821692478e-01
5.416482113149552191e-01
-4.951082090641980571e-01
5.582318668690615660e-01
-1.884955616577761450e-01
-5.246075092056496914e-01
9.047873279137075286e-01
-1.960229881305608490e-01
7.555883234290943218e-01
2.578491223146648359e-01
-7.442100226940007168e-01
-8.506181111669648409e-01
-4.918275431353218430e-01
9.701163541897939169e-02
1.607449341610727167e-01
-4.006085507152248315e-01
7.354305021304312628e-01
-3.421173616917760896e-02
-9.106779831990732266e-01
4.288692674841005914e-01
9.226542242621056378e-01
7.337945016147424671e-01
1.283274410450689906e-01
1.902813008019674790e-01
-9.322179864518411740e-01
-5.364698646783647717e-01
-6.251426085406728284e-01
6.591591903504137040e-01
8.093783104740290835e-01
8.108018394131177864e-01
1.100556275914537085e-01
8.635336990151416536e-01
6.869340474963165910e-01
-5.976911367072637038e-01
-4.023224620562748655e-02
4.818720560898070993e-02
9.454571848172417248e-01
8.545729587350485712e-01
2.751738703920405538e-01
-7.323163474550022922e-01
5.361734690689343719e-01
8.294802104444405355e-01
9.924803971954394566e-01
-3.467571669542492963e-01
6.306991324773258967e-02
-8.905541672771486450e-01
8.066316529941899294e-01
-6.808746173089019749e-02
7.922462695006375899e-01
-4.466766981716663309e-04
-2.476497266982868872e-01
5.583211779801602326e-01
-4.040720646381057435e-04
6.436793576479671319e-01
-8.435044285422170773e-01
-4.920100918956091807e-01
-1.616145207603960632e-01
-1.044267496735122869e-01
1.505193256508239319e-01
-8.449604523592728622e-01
3.875081067004264579e-01
9.736687369869301278e-01
9.007765471020556802e-01
4.704132384056547433e-01
4.008248965358811589e-01
6.061924159554408220e-01
-1.963137112259234485e-01
-2.222302011842260949e-01
-7.781912152548289274e-01
3.634875865128781580e-01
1.416019123069434116e-02
4.728742174041362656e-01
4.254770559556297904e-01
-7.007031701572963289e-01
9.886830585436243712e-01
-3.942462061941449658e-01
-3.052526624923355136e-01
8.069133040277371993e-01
-7.689755099320445542e-01
8.134410842288506416e-01
-2.406247797704990088e-01
-3.484462751495669419e-01
-7.371609560948924056e-01
-7.415775719549995149e-01
8.031967341260559667e-01
-4.601129217252819537e-01
4.283428895684635584e-01
7.414057473782165175e-01
2.841703304333267344e-01
7.493135077224819529e-01
-4.896987000616781494e-01
5.307489837328704940e-01
-3.911504139276118508e-01
-6.169317054042200432e-02
3.553634753782968225e-01
-7.258506894774743312e-01
-1.301547679533892055e-01
5.634032508750936863e-01
8.470728997227261470e-01
-5.908621621077778663e-01
-7.703120028625258797e-01
3.631972001759864455e-02
7.713938999600955526e-01
-4.142914181615200420e-01
5.385420464912993310e-01
6.337001629193756980e-01
-6.144444797742609765e-02
6.821819607689956211e-01
-1.690555143256520232e-01
2.440665862160318333e-01
9.529095813412689076e-01
6.548108768064644369e-01
9.451312245001830536e-01
-9.476274540334179708e-01
-2.839763787047888677e-01
-6.477514823265235755e-01
-9.556577987924534945e-01
6.999930251437616047e-01
-8.136846723139363746e-01
-9.700563948490024124e-01
3.880717333584389195e-01
5.518129063011458779e-01
-3.849939808933289243e-02
-4.081275296049959866e-01
-3.279606122853460093e-01
-2.299582673923461495e-01
7.690560043363361409e-01
-4.877608880774551015e-01
-5.442672046427674548e-01
1.390369421791950444e-01
9.769165873017957580e-01
4.948477479273278856e-01
-1.823244189115613700e-02
7.500879891459208970e-01
3.068874615364511893e-01
-7.080718390141758078e-01
-4.196520755674333358e-01
-2.359437124108012540e-01
6.342236230193520896e-02
-3.487852909087476583e-01
-3.410803607223720224e-01
-6.340831575619003679e-01
-8.426891963328053681e-01
5.873711781825323719e-01
5.610140257691640375e-01
4.810427364959297680e-01
2.441209091348450766e-01
-4.542961789271631190e-01
-6.144615356388736238e-01
7.625705298807494703e-01
-9.029254731060458727e-01
3.181742680986785476e-01
5.421642776198454250e-01
8.592802817000828597e-01
-8.906917205111550828e-01
9.211698990252257246e-01
-5.812924968812518411e-01
-3.724187332742883161e-01
6.222702309002352550e-01
-8.304728949143551642e-01
2.346513070459357309e-01
-8.102128432846835704e-01
-1.622536440234940702e-01
-9.980106464422642265e-01
-7.530316519187836288e-01
5.708080467622247411e-01
2.181333851584490446e-01
-9.839142895494461527e-01
6.100497644715758838e-01
7.800001557865332558e-02
9.082376853272537964e-01
-4.945760432347690028e-02
-7.263662534713088981e-01
-3.816358206515471085e-01
-2.867669878375189718e-02
-2.098570190953421566e-01
-4.139827391134054402e-01
-5.654257076546573835e-01
3.822217367643025998e-01
-6.681982394297198979e-01
-5.278668536601560657e-01
9.440666896694984711e-01
-8.761143378989215691e-01
-4.185439376036186321e-01
-4.114002265827927385e-01
9.169470995492494669e-01
4.253206624637355660e-01
-7.352366646513086579e-02
8.680319302673185078e-01
1.192395770150078693e-01
3.820120805462419167e-01
4.936987909137517949e-01
7.245929639424508739e-01
-4.200526196653566746e-01
-9.003296382528320763e-01
5.850770694403455430e-01
7.116597308428707080e-02
-2.626075017872151474e-01
7.010559978067543163e-01
-4.308540717775657392e-01
-6.851384739351420450e-01
4.918950942794733106e-01
9.383527311760135881e-01
4.608821144865584696e-01
9.780000065019094357e-01
7.028252759976316710e-03
-1.789685354782504234e-01
4.519039563176763252e-02
8.091164152949006372e-01
1.669781711644207078e-01
-2.774366233840068752e-01
-9.619036012490862486e-01
-3.935749303621878248e-01
-1.657051239744240512e-01
6.782196799516753138e-01
4.043662793302251757e-01
-3.677850207986170794e-01
-6.822487840041449036e-01
4.362855177080091629e-01
6.510819188155991810e-03
-5.121841142817176173e-01
9.535721781485748672e-01
-3.868799935123128364e-01
2.643893614667014447e-01
-8.913002366639719565e-01
-2.901214404961702797e-01
-6.614145649971783225e-01
9.761367912952765291e-01
-3.353800226117784611e-01
-9.652416402266392748e-01
4.366130778978631888e-01
-7.023125972529653538e-01
-2.398623341328829373e-01
-4.287254196664145312e-01
4.914145522857666926e-01
-4.392025212344141671e-02
-2.587678028344564396e-02
3.659290178560834494e-01
2.323291052781268906e-01
2.164710474023838760e-01
5.312367754163860312e-01
7.495720161381944635e-01
-5.056136915273634624e-01
-3.925642875568513546e-01
-3.791020968606952923e-01
-1.219825542386687722e-02
4.938633258694085093e-01
2.580322785484199244e-01
-5.539778675067477121e-01
-6.723824293183886525e-01
-7.566898773348982310e-01
9.021117164935505972e-01
9.889172530348353529e-01
2.062981897078031146e-01
8.526147569510267310e-02
7.868924269162209661e-01
2.518978135597704782e-01
7.137350792229029128e-01
-3.127894338026169230e-01
-4.233834842465298287e-01
-5.708055373682816569e-01
-1.526532968604430440e-01
2.945173243738534730e-01
-3.096063070316290577e-01
8.888592909783219476e-01
-5.491463016539965825e-01
-5.827712991018312305e-01
-1.146579267684573189e-01
5.497683460726701110e-01
9.104521157671048304e-01
1.696671004894811929e-01
-3.709823545653161414e-01
-4.332123086491779240e-02
-7.883496368043219071e-01
-8.713130250435707769e-01
6.650567532688087535e-01
-7.358535642592678450e-01
-3.954141262278432212e-01
7.878272810742235066e-01
2.230698576640932629e-02
-1.495532319609269578e-01
4.464506226698383706e-02
2.763513130060608614e-01
-2.591405546313587660e-01
6.888161482097958643e-01
-4.217452474067033830e-01
-8.073502876447520293e-01
-6.255493243359406819e-01
-1.035877780814353777e-02
-9.398255325454993869e-01
-8.740144645288590031e-01
-8.305754959640860857e-01
-9.510683562845985151e-01
9.079941020500115201e-01
1.879095455120609603e-01
7.085304594522849886e-01
-7.314682212462428890e-01
4.440335236681347553e-02
-7.234485291083139202e-01
9.696504016461826581e-02
-3.584831213296590935e-01
-7.295899174289299793e-01
4.612847430143396377e-01
6.207494217067908160e-01
9.718436197628439466e-01
8.799144332924717649e-01
-6.162387889484597370e-01
-8.463251363063353239e-01
9.231203544717001552e-01
3.971501548781943836e-01
3.912925679032470683e-01
9.328231448544335169e-01
-7.305521025202805774e-01
-3.162113075580437194e-01
8.688685885008304854e-01
-6.577296396856557870e-02
3.318818381456183353e-01
1.326036383185202894e-01
3.714832928059137451e-01
-7.952561688512760352e-01
-5.569439539772769177e-01
-2.503798015615847916e-01
5.261903162405081602e-01
9.317355713458046473e-01
-6.694592677187376495e-01
3.268942280321083249e-01
1.187746006656007491e-01
8.772602889758278621e-01
-3.281440411247240618e-01
-9.469432317723327497e-01
2.070068841369507862e-01
9.807708717688463640e-01
6.288230403792289813e-01
-6.566381051164027483e-02
1.743465079799986217e-01
6.513069474589556762e-01
-7.697388135985330226e-01
7.043090616058667042e-01
-8.552760287838270248e-01
-5.678202140022834410e-01
-4.488718635329227435e-01
8.316654221996435670e-01
-8.203906303126951016e-02
1.520346537921384300e-01
-9.430606067483009447e-01
3.303653381069342476e-01
-5.639730017667354822e-02
-6.555751843157375802e-01
2.930570685248947704e-01
-9.776358085393979103e-01
-1.199902513924913094e-01
-8.231859131663066265e-02
-8.923365245848602356e-02
-8.455420369858510643e-01
-6.155916580433786756e-01
-7.465167029751700323e-01
-4.452429364630758890e-01
9.826700001316757138e-02
-6.972066622190566942e-01
-3.077052497214285420e-01
6.405739544043667077e-01
-4.510688457978595522e-01
-9.860264199344959124e-01
8.655700821590393002e-01
6.091778469174142785e-01
3.558435459052484706e-01
5.831303600342621074e-01
1.538752277472517083e-01
-1.318224973176693737e-01
1.828532838789040937e-01
-9.190567928809556530e-01
-3.613943483825288183e-01
-2.530207256200107668e-01
-2.313019742757902453e-01
-2.370940126592289143e-01
-9.657960558109177640e-01
8.465490507926505259e-01
3.860556063613345135e-01
9.961235705381124017e-01
-7.769904994223695294e-01
4.355217149178713942e-01
8.896169102051358912e-01
-1.357358027890609442e-02
-3.182718201200638308e-01
-3.595007673345054222e-01
-4.037993157794244059e-01
-4.032640780241052436e-01
-9.470295677402473800e-01
-8.630789434420846895e-01
-3.141378436184736334e-01
-9.711631696574536399e-01
-1.540975032043816473e-01
9.504390377145162105e-01
1.809898329593260247e-01
3.601909097170619134e-03
6.412100563365443762e-01
4.256349320493935107e-01
8.127453222110925246e-01
-5.018017922634192551e-01
-7.269030355259173959e-01
-2.200865391036950225e-01
7.744309227877350654e-01
-1.696597301223667920e-01
7.221344907836217963e-01
6.404015263339113417e-01
7.461569932687424078e-01
-9.063058859272177248e-01
1.433673454405521852e-01
3.989535159925206020e-01
4.954267084142758293e-01
2.407307395177293863e-02
-8.147500934225997415e-01
-2.747667246972953503e-01
-8.689995517536046599e-01
-9.241210388189022851e-01
1.800920459908132987e-01
8.058278217877745675e-01
8.583247892971546111e-01
-6.817974288343018330e-01
-2.502975997539702568e-02
-3.505440336974259274e-01
8.807127888244403735e-01
-7.806583702851770390e-01
4.858369759038696500e-01
2.562222380093939211e-01
3.799265641899918222e-02
9.087420177145193456e-01
-2.052026708312837400e-01
-4.156593015632898958e-01
2.451548673992220984e-03
4.400289610717393884e-01
7.215122623866621066e-01
-5.211074894637557353e-01
-9.804751198448671268e-01
4.945981491477167147e-01
9.536760322283490687e-01
6.908712756069592675e-01
3.948938026219794839e-01
-3.677917457680768276e-01
-7.350877617354669713e-01
-1.570089123454909696e-02
-5.735579884249388805e-01
1.538431578798915567e-01
-8.138820206252832534e-01
6.932095009782168749e-01
-2.435568580043494524e-01
-9.263246525529489350e-01
-7.219209228677816448e-01
-6.468985040789110297e-01
-6.975684259148970945e-01
2.713249435180957736e-01
-7.386738101463226069e-01
-7.573120419923433655e-01
-5.206697938955189287e-01
-4.015892015850113239e-01
-9.681910827950088727e-01
6.750456941037488168e-01
-4.671955878169060661e-01
-4.220949007918883833e-01
3.194465534831074649e-01
7.013016156602969176e-01
2.937071996911688743e-01
3.756526692780965959e-01
-8.274434504480920882e-01
-5.521432609190326524e-01
6.232493962615766048e-01
-7.195370202702500162e-01
5.864539219785029900e-01
-4.923610526283830335e-01
-9.589048053670568006e-01
3.567976089693680741e-02
-9.524986782574340616e-01
9.911679735744529651e-01
5.182304491858384932e-01
-5.463640074742577291e-01
-4.715482135975974654e-01
-2.066768793274498250e-03
-5.044291183509841403e-01
8.585182476526214135e-01
8.392547154543119614e-01
4.523217017778404792e-01
-8.893719548858149970e-01
-5.080868396294297984e-01
6.119875188002221744e-01
-2.129776781388417195e-01
1.957491951940675268e-01
3.722558193183722608e-01
5.382697104955862510e-01
-3.337963330389701611e-01
9.901635996428792552e-01
6.028804203659385852e-01
-3.373616409149173823e-01
6.962371095720287784e-02
4.499055935785223337e-01
9.494135150897684561e-01
2.176795297087701364e-01
-3.475030377959889005e-01
-4.050509952578693618e-01
-5.341834931783062679e-01
-8.261303141899798419e-01
-6.829224313927693135e-01
-4.868410280095787357e-01
-7.571727334995204117e-01
-1.425497503868398130e-01
-2.534024703606840845e-01
7.469495767348175441e-01
2.130464945858729919e-01
-3.654932215258104300e-01
6.327204780701183306e-01
1.220078830902513456e-01
-5.261772514836509096e-01
-7.412501531524873233e-01
6.840347649737885671e-01
7.141073078731574597e-01
-5.016242729907438580e-02
1.712133655190077874e-01
-6.568563913759710715e-01
-9.200941886649380841e-01
1.044167804831186430e-03
2.472560474614673431e-01
6.605188975487525926e-01
5.182717716371614269e-01
8.934744412466821828e-01
3.496735748735775307e-01
3.545271741848834424e-01
-5.892853887067603935e-01
4.228497946869396173e-01
-9.460838506612441190e-01
7.838827541888209183e-01
8.955969763743445444e-01
6.497016922333731515e-01
1.977341484081578393e-01
-8.407798323211366220e-01
-1.704102274344903023e-01
-2.509990737521703430e-01
-5.282100124847779465e-01
1.890593614245694720e-01
-8.421890141564185583e-01
6.274580057095511254e-01
-3.839066905365122739e-01
2.812649690845900885e-01
6.866297374021355093e-01
5.541118708507724033e-01
7.795534512603836674e-01
-1.148970511646074666e-01
5.934494448346270268e-01
-4.242787437892925340e-01
7.545870217649357503e-01
-7.685992886107475552e-01
2.028177875653265350e-01
-2.280813701971180496e-01
-8.952336583065356734e-02
-3.220608861629219444e-01
-4.788399798142028985e-02
4.416845012033550066e-01
5.216952465534097083e-01
-8.015299176439796280e-01
5.274099954832780490e-01
1.475113635294937886e-01
-2.171658542862227037e-01
-2.085056934868254608e-01
-6.476152056068926743e-01
9.721378826021591646e-01
-9.550598565285339792e-01
2.143960414269909798e-01
-2.182491467102658511e-01
-7.855374886983068627e-02
-6.716430705097844456e-01
1.470166614762462576e-01
7.011500574639117911e-01
-1.280094895916064068e-01
9.858893924804408293e-01
-7.996893383805177002e-01
-2.985369483650406330e-01
-1.808655610069820341e-01
9.465735899198475245e-01
5.230106669821692478e-01
5.416482113149552191e-01
-4.951082090641980571e-01
5.582318668690615660e-01
-1.884955616577761450e-01
-5.246075092056496914e-01
9.047873279137075286e-01
-1.960229881305608490e-01
7.555883234290943218e-01
2.578491223146648359e-01
-7.442100226940007168e-01
1.644469111540076689e-01
6.723082424470760987e-01
-2.880259379557426058e-01
7.441752247854978020e-01
-9.543725788055743564e-01
4.548103305497273041e-01
2.092713153569292217e-03
-5.814455634864499345e-01
-6.396704392701801911e-01
8.683741986253545875e-03
6.795141574965866127e-01
1.411536468765126617e-01
8.409376214554868945e-01
-1.420122968192267798e-01
-9.648751858061845876e-01
-7.009806641172373620e-01
-7.349073427926491320e-01
-3.569451121561890705e-01
8.108018394131177864e-01
1.100556275914537085e-01
8.635336990151416536e-01
6.869340474963165910e-01
-5.976911367072637038e-01
-4.023224620562748655e-02
4.818720560898070993e-02
9.454571848172417248e-01
8.545729587350485712e-01
2.751738703920405538e-01
-7.323163474550022922e-01
5.361734690689343719e-01
8.294802104444405355e-01
9.924803971954394566e-01
-3.467571669542492963e-01
6.306991324773258967e-02
-8.905541672771486450e-01
8.066316529941899294e-01
-6.808746173089019749e-02
7.922462695006375899e-01
-4.466766981716663309e-04
-2.476497266982868872e-01
5.583211779801602326e-01
-4.040720646381057435e-04
6.436793576479671319e-01
-8.435044285422170773e-01
-4.920100918956091807e-01
-1.616145207603960632e-01
-1.044267496735122869e-01
1.505193256508239319e-01
-8.449604523592728622e-01
3.875081067004264579e-01
9.736687369869301278e-01
9.007765471020556802e-01
4.704132384056547433e-01
4.008248965358811589e-01
6.061924159554408220e-01
-1.963137112259234485e-01
-2.222302011842260949e-01
-7.781912152548289274e-01
3.634875865128781580e-01
1.416019123069434116e-02
4.728742174041362656e-01
4.254770559556297904e-01
-7.007031701572963289e-01
9.886830585436243712e-01
-3.942462061941449658e-01
-3.052526624923355136e-01
8.069133040277371993e-01
-7.689755099320445542e-01
8.134410842288506416e-01
-2.406247797704990088e-01
-3.484462751495669419e-01
-7.371609560948924056e-01
-7.415775719549995149e-01
8.031967341260559667e-01
-4.601129217252819537e-01
4.283428895684635584e-01
7.414057473782165175e-01
2.841703304333267344e-01
7.493135077224819529e-01
-4.896987000616781494e-01
5.307489837328704940e-01
-3.911504139276118508e-01
-6.169317054042200432e-02
3.553634753782968225e-01
-7.258506894774743312e-01
-1.301547679533892055e-01
5.634032508750936863e-01
8.470728997227261470e-01
-5.908621621077778663e-01
-7.703120028625258797e-01
3.631972001759864455e-02
7.713938999600955526e-01
-4.142914181615200420e-01
5.385420464912993310e-01
6.337001629193756980e-01
-6.144444797742609765e-02
6.821819607689956211e-01
-1.690555143256520232e-01
2.440665862160318333e-01
9.529095813412689076e-01
6.548108768064644369e-01
9.451312245001830536e-01
-9.476274540334179708e-01
-2.839763787047888677e-01
-6.477514823265235755e-01
-9.556577987924534945e-01
6.999930251437616047e-01
-8.136846723139363746e-01
-9.700563948490024124e-01
3.880717333584389195e-01
5.518129063011458779e-01
-3.849939808933289243e-02
-4.081275296049959866e-01
-3.279606122853460093e-01
-2.299582673923461495e-01
7.690560043363361409e-01
-4.877608880774551015e-01
-5.442672046427674548e-01
1.390369421791950444e-01
9.769165873017957580e-01
4.948477479273278856e-01
-1.823244189115613700e-02
7.500879891459208970e-01
3.068874615364511893e-01
-7.080718390141758078e-01
-4.196520755674333358e-01
-2.359437124108012540e-01
6.342236230193520896e-02
-3.487852909087476583e-01
-3.410803607223720224e-01
-6.340831575619003679e-01
-8.426891963328053681e-01
5.873711781825323719e-01
5.610140257691640375e-01
4.810427364959297680e-01
2.441209091348450766e-01
-4.542961789271631190e-01
-6.144615356388736238e-01
7.625705298807494703e-01
-9.029254731060458727e-01
3.181742680986785476e-01
5.421642776198454250e-01
8.592802817000828597e-01
-8.906917205111550828e-01
9.211698990252257246e-01
-5.812924968812518411e-01
-3.724187332742883161e-01
6.222702309002352550e-01
-8.304728949143551642e-01
2.346513070459357309e-01
-8.102128432846835704e-01
-1.622536440234940702e-01
-9.980106464422642265e-01
-7.530316519187836288e-01
5.708080467622247411e-01
2.181333851584490446e-01
-9.839142895494461527e-01
6.100497644715758838e-01
7.800001557865332558e-02
9.082376853272537964e-01
-4.945760432347690028e-02
-7.263662534713088981e-01
-3.816358206515471085e-01
-2.867669878375189718e-02
-2.098570190953421566e-01
-4.139827391134054402e-01
-5.654257076546573835e-01
3.822217367643025998e-01
-6.681982394297198979e-01
-5.278668536601560657e-01
9.440666896694984711e-01
-8.761143378989215691e-01
-4.185439376036186321e-01
-4.114002265827927385e-01
9.169470995492494669e-01
4.253206624637355660e-01
-7.352366646513086579e-02
8.680319302673185078e-01
1.192395770150078693e-01
3.820120805462419167e-01
4.936987909137517949e-01
7.245929639424508739e-01
-4.200526196653566746e-01
-9.003296382528320763e-01
5.850770694403455430e-01
7.116597308428707080e-02
-2.626075017872151474e-01
7.010559978067543163e-01
-4.308540717775657392e-01
-6.851384739351420450e-01
4.918950942794733106e-01
9.383527311760135881e-01
4.608821144865584696e-01
9.780000065019094357e-01
7.028252759976316710e-03
-1.789685354782504234e-01
4.519039563176763252e-02
8.091164152949006372e-01
1.669781711644207078e-01
-2.774366233840068752e-01
-9.619036012490862486e-01
-3.935749303621878248e-01
-1.657051239744240512e-01
6.782196799516753138e-01
4.043662793302251757e-01
-3.677850207986170794e-01
-6.822487840041449036e-01
4.362855177080091629e-01
6.510819188155991810e-03
-5.121841142817176173e-01
9.535721781485748672e-01
-3.868799935123128364e-01
2.643893614667014447e-01
-8.913002366639719565e-01
-2.901214404961702797e-01
-6.614145649971783225e-01
9.761367912952765291e-01
-3.353800226117784611e-01
-9.652416402266392748e-01
4.366130778978631888e-01
-7.023125972529653538e-01
-2.398623341328829373e-01
-4.287254196664145312e-01
4.914145522857666926e-01
-4.392025212344141671e-02
-2.587678028344564396e-02
3.659290178560834494e-01
2.323291052781268906e-01
2.164710474023838760e-01
5.312367754163860312e-01
7.495720161381944635e-01
-5.056136915273634624e-01
-3.925642875568513546e-01
-3.791020968606952923e-01
-1.219825542386687722e-02
4.938633258694085093e-01
2.580322785484199244e-01
-5.539778675067477121e-01
-6.723824293183886525e-01
-7.566898773348982310e-01
9.021117164935505972e-01
9.889172530348353529e-01
2.062981897078031146e-01
8.526147569510267310e-02
7.868924269162209661e-01
2.518978135597704782e-01
7.137350792229029128e-01
-3.127894338026169230e-01
-4.233834842465298287e-01
-5.708055373682816569e-01
-1.526532968604430440e-01
2.945173243738534730e-01
-3.096063070316290577e-01
8.888592909783219476e-01
-5.491463016539965825e-01
-5.827712991018312305e-01
-1.146579267684573189e-01
5.497683460726701110e-01
9.104521157671048304e-01
1.696671004894811929e-01
-3.709823545653161414e-01
-4.332123086491779240e-02
-7.883496368043219071e-01
-8.713130250435707769e-01
6.650567532688087535e-01
-7.358535642592678450e-01
-3.954141262278432212e-01
7.878272810742235066e-01
2.230698576640932629e-02
-1.495532319609269578e-01
4.464506226698383706e-02
2.763513130060608614e-01
-2.591405546313587660e-01
6.888161482097958643e-01
-4.217452474067033830e-01
-8.073502876447520293e-01
-6.255493243359406819e-01
-1.035877780814353777e-02
-9.398255325454993869e-01
-8.740144645288590031e-01
-8.305754959640860857e-01
-9.510683562845985151e-01
9.079941020500115201e-01
1.879095455120609603e-01
7.085304594522849886e-01
-7.314682212462428890e-01
4.440335236681347553e-02
-7.234485291083139202e-01
9.696504016461826581e-02
-3.584831213296590935e-01
-7.295899174289299793e-01
4.612847430143396377e-01
6.207494217067908160e-01
9.718436197628439466e-01
8.799144332924717649e-01
-6.162387889484597370e-01
-8.463251363063353239e-01
9.231203544717001552e-01
3.971501548781943836e-01
3.912925679032470683e-01
9.328231448544335169e-01
-7.305521025202805774e-01
-3.162113075580437194e-01
8.688685885008304854e-01
-6.577296396856557870e-02
3.318818381456183353e-01
1.326036383185202894e-01
3.714832928059137451e-01
-7.952561688512760352e-01
-5.569439539772769177e-01
-2.503798015615847916e-01
5.261903162405081602e-01
9.317355713458046473e-01
-6.694592677187376495e-01
3.268942280321083249e-01
1.187746006656007491e-01
8.772602889758278621e-01
-3.281440411247240618e-01
-9.469432317723327497e-01
2.070068841369507862e-01
9.807708717688463640e-01
6.288230403792289813e-01
-6.566381051164027483e-02
1.743465079799986217e-01
6.513069474589556762e-01
-7.697388135985330226e-01
7.043090616058667042e-01
-8.552760287838270248e-01
-5.678202140022834410e-01
-4.488718635329227435e-01
8.316654221996435670e-01
-8.203906303126951016e-02
1.520346537921384300e-01
-9.430606067483009447e-01
3.303653381069342476e-01
-5.639730017667354822e-02
-6.555751843157375802e-01
2.930570685248947704e-01
-9.776358085393979103e-01
-1.199902513924913094e-01
-8.231859131663066265e-02
-8.923365245848602356e-02
-8.455420369858510643e-01
-6.155916580433786756e-01
-7.465167029751700323e-01
-4.452429364630758890e-01
9.826700001316757138e-02
-6.972066622190566942e-01
-3.077052497214285420e-01
6.405739544043667077e-01
-4.510688457978595522e-01
-9.860264199344959124e-01
8.655700821590393002e-01
6.091778469174142785e-01
3.558435459052484706e-01
5.831303600342621074e-01
1.538752277472517083e-01
-1.318224973176693737e-01
1.828532838789040937e-01
-9.190567928809556530e-01
-3.613943483825288183e-01
-2.530207256200107668e-01
-2.313019742757902453e-01
-2.370940126592289143e-01
-9.657960558109177640e-01
8.465490507926505259e-01
3.860556063613345135e-01
9.961235705381124017e-01
-7.769904994223695294e-01
4.355217149178713942e-01
8.896169102051358912e-01
-1.357358027890609442e-02
-3.182718201200638308e-01
-3.595007673345054222e-01
-4.037993157794244059e-01
-4.032640780241052436e-01
-9.470295677402473800e-01
-8.630789434420846895e-01
-3.141378436184736334e-01
-9.711631696574536399e-01
-1.540975032043816473e-01
9.504390377145162105e-01
1.809898329593260247e-01
3.601909097170619134e-03
6.412100563365443762e-01
4.256349320493935107e-01
8.127453222110925246e-01
-5.018017922634192551e-01
-7.269030355259173959e-01
-2.200865391036950225e-01
7.744309227877350654e-01
-1.696597301223667920e-01
7.221344907836217963e-01
6.404015263339113417e-01
7.461569932687424078e-01
-9.063058859272177248e-01
1.433673454405521852e-01
3.989535159925206020e-01
4.954267084142758293e-01
2.407307395177293863e-02
-8.147500934225997415e-01
-2.747667246972953503e-01
-8.689995517536046599e-01
-9.241210388189022851e-01
1.800920459908132987e-01
8.058278217877745675e-01
8.583247892971546111e-01
-6.817974288343018330e-01
-2.502975997539702568e-02
-3.505440336974259274e-01
8.807127888244403735e-01
-7.806583702851770390e-01
4.858369759038696500e-01
2.562222380093939211e-01
3.799265641899918222e-02
9.087420177145193456e-01
-2.052026708312837400e-01
-4.156593015632898958e-01
2.451548673992220984e-03
4.400289610717393884e-01
7.215122623866621066e-01
-5.211074894637557353e-01
-9.804751198448671268e-01
4.945981491477167147e-01
9.536760322283490687e-01
6.908712756069592675e-01
3.948938026219794839e-01
-3.677917457680768276e-01
-7.350877617354669713e-01
-1.570089123454909696e-02
-5.735579884249388805e-01
1.538431578798915567e-01
-8.138820206252832534e-01
6.932095009782168749e-01
-2.435568580043494524e-01
-9.263246525529489350e-01
-7.219209228677816448e-01
-6.468985040789110297e-01
-6.975684259148970945e-01
2.713249435180957736e-01
-7.386738101463226069e-01
-7.573120419923433655e-01
-5.206697938955189287e-01
-4.015892015850113239e-01
-9.681910827950088727e-01
6.750456941037488168e-01
-4.671955878169060661e-01
-4.220949007918883833e-01
3.194465534831074649e-01
7.013016156602969176e-01
2.937071996911688743e-01
3.756526692780965959e-01
-8.274434504480920882e-01
-5.521432609190326524e-01
6.232493962615766048e-01
-7.195370202702500162e-01
5.864539219785029900e-01
-4.923610526283830335e-01
-9.589048053670568006e-01
3.567976089693680741e-02
-9.524986782574340616e-01
9.911679735744529651e-01
5.182304491858384932e-01
-5.463640074742577291e-01
-4.715482135975974654e-01
-2.066768793274498250e-03
-5.044291183509841403e-01
8.585182476526214135e-01
-1.502403996488443916e-02
-9.517689921822836130e-01
-7.355685659646806762e-01
-8.864286902404439061e-02
-7.495232988742632774e-01
-4.781902588862572134e-01
6.938454913221865361e-01
6.674261460107449029e-01
3.652288655005266893e-01
5.848334977613518504e-01
-4.089740693679333461e-01
3.524051918088588753e-01
5.353691432766503056e-01
-6.167303456673196571e-01
-3.599718034699859182e-01
1.893383093357343672e-01
9.617481686335531688e-01
8.391231376592327429e-01
-4.050509952578693618e-01
-5.341834931783062679e-01
-8.261303141899798419e-01
-6.829224313927693135e-01
-4.868410280095787357e-01
-7.571727334995204117e-01
-1.425497503868398130e-01
-2.534024703606840845e-01
7.469495767348175441e-01
2.130464945858729919e-01
-3.654932215258104300e-01
6.327204780701183306e-01
1.220078830902513456e-01
-5.261772514836509096e-01
-7.412501531524873233e-01
6.840347649737885671e-01
7.141073078731574597e-01
-5.016242729907438580e-02
1.712133655190077874e-01
-6.568563913759710715e-01
-9.200941886649380841e-01
1.044167804831186430e-03
2.472560474614673431e-01
6.605188975487525926e-01
5.182717716371614269e-01
8.934744412466821828e-01
3.496735748735775307e-01
3.545271741848834424e-01
-5.892853887067603935e-01
4.228497946869396173e-01
-9.460838506612441190e-01
7.838827541888209183e-01
8.955969763743445444e-01
6.497016922333731515e-01
1.977341484081578393e-01
-8.407798323211366220e-01
-1.704102274344903023e-01
-2.509990737521703430e-01
-5.282100124847779465e-01
1.890593614245694720e-01
-8.421890141564185583e-01
6.274580057095511254e-01
-3.839066905365122739e-01
2.812649690845900885e-01
6.866297374021355093e-01
5.541118708507724033e-01
7.795534512603836674e-01
-1.148970511646074666e-01
5.934494448346270268e-01
-4.242787437892925340e-01
7.545870217649357503e-01
-7.685992886107475552e-01
2.028177875653265350e-01
-2.280813701971180496e-01
-8.952336583065356734e-02
-3.220608861629219444e-01
-4.788399798142028985e-02
4.416845012033550066e-01
5.216952465534097083e-01
-8.015299176439796280e-01
5.274099954832780490e-01
1.475113635294937886e-01
-2.171658542862227037e-01
-2.085056934868254608e-01
-6.476152056068926743e-01
9.721378826021591646e-01
-9.550598565285339792e-01
2.143960414269909798e-01
-2.182491467102658511e-01
-7.855374886983068627e-02
-6.716430705097844456e-01
1.470166614762462576e-01
7.011500574639117911e-01
-1.280094895916064068e-01
9.858893924804408293e-01
-7.996893383805177002e-01
-2.985369483650406330e-01
-1.808655610069820341e-01
9.465735899198475245e-01
5.230106669821692478e-01
5.416482113149552191e-01
-4.951082090641980571e-01
5.582318668690615660e-01
-1.884955616577761450e-01
-5.246075092056496914e-01
9.047873279137075286e-01
-1.960229881305608490e-01
7.555883234290943218e-01
2.578491223146648359e-01
-7.442100226940007168e-01
1.644469111540076689e-01
6.723082424470760987e-01
-2.880259379557426058e-01
7.441752247854978020e-01
-9.543725788055743564e-01
4.548103305497273041e-01
2.092713153569292217e-03
-5.814455634864499345e-01
-6.396704392701801911e-01
8.683741986253545875e-03
6.795141574965866127e-01
1.411536468765126617e-01
8.409376214554868945e-01
-1.420122968192267798e-01
-9.648751858061845876e-01
-7.009806641172373620e-01
-7.349073427926491320e-01
-3.569451121561890705e-01
8.108018394131177864e-01
1.100556275914537085e-01
8.635336990151416536e-01
6.869340474963165910e-01
-5.976911367072637038e-01
-4.023224620562748655e-02
4.818720560898070993e-02
9.454571848172417248e-01
8.545729587350485712e-01
2.751738703920405538e-01
-7.323163474550022922e-01
5.361734690689343719e-01
8.294802104444405355e-01
9.924803971954394566e-01
-3.467571669542492963e-01
6.306991324773258967e-02
-8.905541672771486450e-01
8.066316529941899294e-01
-6.808746173089019749e-02
7.922462695006375899e-01
-4.466766981716663309e-04
-2.476497266982868872e-01
5.583211779801602326e-01
-4.040720646381057435e-04
6.436793576479671319e-01
-8.435044285422170773e-01
-4.920100918956091807e-01
-1.616145207603960632e-01
-1.044267496735122869e-01
1.505193256508239319e-01
