-1.985223315380928444e-01
-6.113600862726809027e-01
-9.211099277299159560e-01
-2.609797970350526963e-01
-1.467203323609018728e-01
7.060965901604112638e-01
7.103604216742303024e-01
4.285559424458311728e-01
5.498058264787806237e-01
-1.995573314158363143e-01
9.138989925640244039e-01
-4.606301341542997640e-01
-6.998752414913722575e-02
-6.986309171676541308e-01
-4.211884700737522635e-03
8.969293605948247539e-01
-2.867995788078867569e-01
-9.646479903749303197e-01
6.165106715227717249e-01
3.078770655865039618e-01
-1.131488687436357221e-01
4.894794510958291323e-01
7.197667076135607633e-01
1.950563031760066401e-02
1.581585692014200184e-01
2.036388958245824998e-01
-1.208890441865775323e-01
-9.682186135879473632e-01
-4.734847650160034505e-01
7.724496363779520536e-02
-5.415377690033780222e-01
-4.469546872478298294e-01
-9.037485033770653597e-01
-2.227597738994369081e-01
-4.681769667135500246e-01
3.243446363533983856e-01
3.462460497402759518e-01
8.819998162855680057e-02
3.550934814604644885e-02
-8.627947687321730896e-01
4.629710575271177575e-01
1.740841559246091297e-01
2.631713503555066502e-01
-8.869385909856484229e-01
-4.232075360355165294e-01
-3.267287323996213022e-01
-4.983261318358453984e-01
-2.127854556490751392e-01
-8.573294884271689398e-01
-8.607270300117433326e-01
1.457956057846909736e-02
-8.662029151900818569e-02
-6.468737164797904171e-01
4.522764342098193335e-01
5.518260761362694389e-01
-1.075456625577642100e-02
8.631933675535889972e-01
-1.458217579978235978e-01
7.439177748961618430e-01
6.008509750033261820e-01
-9.676518963870459622e-01
5.313831034684730614e-01
-2.623337091972459678e-01
-1.006239928787227011e-01
6.377066118912000370e-01
-1.446933382089274911e-01
2.034446297247702873e-01
7.838940688153515080e-01
8.061940021036366755e-01
-7.002373161508776978e-01
-2.225230366851889130e-01
-4.207544811356020986e-01
-3.757716118576019948e-01
-3.965385615611878301e-01
3.786009571347406233e-01
4.918243247859237499e-01
6.540293386950146726e-01
-1.610536050055513257e-01
6.405720254038631545e-01
-7.489331254153082096e-01
8.333728543170091374e-01
9.029352510628041451e-02
8.027702373633616162e-02
6.877156116706066857e-01
3.002212120061948930e-01
1.915013510811478525e-01
7.824332968699232449e-01
1.780750824278805045e-01
-5.901878915560969663e-01
2.421800849858022353e-01
-1.467765504970430790e-01
6.386949625463542723e-01
2.473649725150992573e-01
-5.968608432391182550e-01
-2.037322550806515142e-01
1.388501200118799073e-01
-1.173553857090616770e-01
-3.551852190042572577e-01
-4.700393388146013596e-01
-5.548318699615018001e-01
-9.311481284412947979e-02
-3.042731971026690907e-01
-4.904353349303234300e-01
-7.915962342660094464e-01
9.770150254518972233e-01
6.709529810419090357e-01
-2.983343334109771483e-01
1.322742062739401536e-01
3.964128705523728424e-01
7.294963784456660605e-01
-4.963243040807083784e-01
8.481502306909343147e-01
6.564125009095456154e-01
7.398750697293388079e-02
-7.329486877504778342e-01
1.262261449573625072e-01
5.211384256428062134e-01
-6.342912424162896468e-01
-3.206865793595250480e-01
-3.276437718462548165e-01
-6.610458540912833580e-01
5.072568454800283622e-01
-8.405889292478563313e-01
-9.050048757422848311e-01
-4.377370056417084765e-01
2.936116268253208261e-01
-6.748543612950628212e-01
3.224895884220380093e-01
9.364755213576743120e-01
-5.494464372894689586e-01
8.690403290269932413e-02
2.004254355686903022e-01
-1.178991958105441995e-01
5.789478926031066397e-01
-1.660605298605890567e-01
-7.113340354436823443e-01
-1.926004053788468173e-01
4.231026743291019798e-01
9.226859475297395363e-01
-6.659478363406114987e-01
3.034712490763191717e-01
2.863289318940096528e-01
6.443768346622598120e-01
-7.289314242299407276e-01
-7.009568168708932845e-01
-4.993870641327315951e-01
-4.736187167389562802e-01
5.079401641449878824e-01
5.011405806085633685e-01
6.046412700969669984e-01
-9.846729395197073575e-01
-6.535028597813725693e-01
2.757061833525873418e-01
-7.403124886816956352e-01
-7.241328775233075721e-01
-2.802172106344464897e-01
6.061102560996938227e-01
-2.339284526473284220e-01
7.277091114249656378e-02
3.570327968014943565e-01
3.498178374236160515e-02
-4.969155582804039017e-01
-9.421233246785647442e-01
-3.307668545901361057e-01
-8.916583000512534607e-01
6.269290969216989584e-01
9.610970840061809906e-01
4.543129894050497164e-01
-2.790965360845552024e-01
2.536396498950268530e-01
3.221400525174522578e-02
5.111631819922857201e-01
7.051519872474900641e-01
-7.511082484988997887e-01
3.684117317235588995e-01
1.460771029672505161e-01
1.329244992746796417e-01
-5.176600156627633176e-01
-2.126772888814976170e-01
-8.647930616798786829e-01
4.913589313581903095e-01
6.283368852150374995e-01
4.101272588796429641e-01
-8.632006655597794786e-01
1.851682930028939467e-01
9.883968506577098800e-01
-4.763047992990276924e-02
6.774023476932182763e-01
-4.131684900380161451e-02
1.101771828921023211e-01
-2.605413091791959346e-01
-6.222087499077770811e-01
-2.584289578127749731e-01
-6.165788468449495685e-01
-3.832275693450517551e-01
7.880042487975189580e-01
-9.902253684924677835e-02
-5.542783700624247523e-01
-3.087917847742396305e-01
-1.079340082938768930e-01
-4.106750198453794631e-01
9.628691378586846650e-01
-7.007520129331614722e-01
2.101383149708038189e-01
-2.047688771387234929e-01
-6.561005922862919171e-01
-7.281037512710648585e-01
-7.395635363790871164e-01
-4.714893415861067805e-01
-1.066097842827071762e-01
-6.531155579244194431e-01
7.832129362391282434e-01
-6.997103551895289542e-01
8.202854707301030501e-01
-6.102605228441244645e-01
-2.339730743974695049e-01
-4.110700720871154346e-01
7.913509507622409345e-01
7.500696631243042312e-01
5.168948490298803655e-01
2.469876898660816611e-01
3.944591103186436687e-01
1.826281551943411685e-01
-1.556346103151120541e-01
3.326549182269871174e-01
6.719480522999052852e-01
2.573948087621831249e-01
-4.014423747566422396e-01
4.257190659065894778e-01
-7.446013153277131202e-01
-2.390531604636536578e-02
-8.781115723389885108e-01
1.725720400460106774e-01
-4.746601685830975637e-01
2.390953303896552473e-01
9.050577383747460125e-02
6.829597720856808163e-01
7.295128993716175625e-01
-5.231257128003981016e-01
-8.494978143220259792e-01
4.442150345108393239e-01
-9.450872056569670221e-02
3.006019701977471481e-01
-7.858202494920303316e-01
-3.734998819793191593e-01
-9.215975911924114694e-01
2.436233826530571633e-01
9.218902118114458144e-01
-2.988250744528797576e-01
-9.516356777503216513e-01
-2.725193897090938400e-02
5.004582503700332197e-01
-3.610548045493593428e-01
8.422555449472002298e-01
-7.768403384663269406e-02
5.115805516273614906e-01
6.360482690363531422e-01
-8.707459178728038651e-02
9.120492003421665217e-01
-3.663712786215422845e-02
8.153922106320687924e-01
-4.530183246731833702e-01
4.454328748469056354e-01
7.974110291509399762e-01
-3.958509573055168929e-02
3.651967098059993866e-01
-6.280086835164302439e-01
4.040240315185565922e-01
-1.707413828839106085e-01
2.328403405098784518e-01
7.095084527090600446e-02
-6.924498939800383113e-01
3.579533869124484902e-02
8.238719453008034321e-01
-9.094513821613849913e-01
-6.038637895662013477e-02
-1.730193288423085285e-01
2.067966009544539574e-01
-3.774579486451234978e-01
2.624985338021583736e-01
1.997100156436288909e-01
2.470408986132448526e-01
8.822542351198461308e-01
-8.471222337576886918e-01
9.811088932990494893e-01
9.343791268864465316e-02
-2.717123264433598528e-01
-3.422594125766202922e-01
3.364159939562918478e-01
-3.517049820560191886e-01
5.068413101663371556e-02
-6.382019638575391340e-01
-7.642845250316241401e-01
5.824059695183638752e-01
-9.987855606508209139e-01
5.055093455447579043e-01
-7.009508548101230918e-01
-7.943567792251200466e-01
-1.727074001087214317e-01
-5.317430521719914704e-01
6.415218361926953161e-01
-3.143273357133158363e-01
4.743035727315880745e-01
-1.250158501305231873e-01
9.928850847653998279e-01
-1.157789405075448919e-02
1.229207510142329429e-01
-5.804895493854613786e-01
3.955569419827298372e-01
7.014891017346180924e-02
-3.600387888549803073e-01
5.954776287605478835e-01
8.202114042836752272e-01
9.068531991399571002e-01
-9.270817665370481020e-01
-1.530068765127226005e-01
-7.634544433982859424e-01
-1.557483799960412973e-02
4.908382816791758696e-01
9.200109712938604467e-01
5.016322847520393591e-01
9.745195839093241386e-01
-9.060553315382597894e-01
-7.910183770654235502e-01
9.599085371530526878e-01
-3.070535429911902536e-01
7.183628298659745504e-01
-4.178692576776104062e-01
-4.287551527031858711e-01
-1.606891711376576826e-01
-9.449651638736171755e-01
3.142621213923131318e-01
5.129684967201457724e-01
-6.262113684727885765e-01
-8.116911109555804416e-01
2.811284143720493844e-02
-4.177246113771198033e-01
-2.895872334262361569e-02
7.336676565739157496e-01
1.111196631382740385e-01
4.893847201637355759e-01
9.392050484495235718e-01
-8.154162817184398282e-01
6.563229310762386248e-01
3.695432746771654120e-01
4.953205188602451958e-01
5.426721826711919938e-01
2.365793532576563329e-01
-1.623231525084101179e-01
-6.918155650878976548e-01
-2.490229327120783154e-01
-4.112254252352236517e-01
-7.030590573539710064e-01
-2.537155424523482861e-01
-1.167460520061642804e-01
8.104233514763037327e-02
-2.355731795729898437e-01
9.539685244462088320e-01
-2.753149868068738293e-01
8.132731247564901622e-01
-7.141840164297883486e-01
-9.225371438846032834e-01
3.857549978444652083e-01
9.983163760851925250e-01
-4.230641268918264863e-01
2.554682270837951297e-01
-9.775393022846075031e-01
-3.532451667364762127e-01
5.505848626437885862e-01
4.799308436843403580e-01
-7.011351460824744031e-01
-4.418888971372523233e-01
5.509811051419548633e-01
-9.999178654802922672e-01
-4.599055408962327007e-01
-6.799914154180415338e-01
-6.539116933043713775e-01
6.873140866080544864e-01
9.885441635575284991e-01
-9.882803007766782777e-01
-1.300920650777095400e-01
5.727323508994119905e-02
6.959403072246896915e-01
8.469156335383301037e-01
-6.444938569651086357e-01
-1.590986151765567680e-01
-8.641966583966282922e-01
4.693784259953286409e-01
-3.061341594675088817e-01
3.121545772526375107e-01
-1.930739208065701540e-01
4.935998179460796553e-01
-8.621794998379881392e-01
7.244013119775396525e-01
6.808125546859509214e-01
9.988938444024462182e-01
4.058286348833581858e-01
9.060317266073880660e-01
-4.539397497274522131e-01
-6.245209926063723938e-01
-2.717662568965431014e-01
1.791846214489438704e-01
-8.950477385617128245e-01
-7.397458035350814587e-01
-8.160955852337272720e-01
1.229439491191899325e-01
5.162764768306327134e-02
-9.182816071054311635e-02
7.422229207801556150e-02
6.356105471907245175e-01
-8.415209193295591916e-01
-9.041532616178609150e-01
-9.657900025263859156e-01
3.055775384446008935e-01
-3.164339754514451375e-01
-7.648974346588723883e-01
7.630575346178327667e-01
-7.105853484357527172e-02
6.689677347140643437e-01
-6.891782017303782482e-02
7.950132183313463052e-02
1.479341550443367126e-01
5.028004254258624517e-01
-7.932982223105491393e-01
-8.966721720542767393e-01
-6.352191571628873490e-02
-6.936557693289688853e-01
-4.747679691761033105e-01
-5.873414254855573446e-01
-1.438028803311035553e-01
3.171078640885682809e-02
6.010943103227859297e-01
-1.277431627989609186e-01
-4.915242150546328403e-02
7.680052161181860626e-01
-5.790303541727894743e-01
4.575226674348709111e-02
-9.164769815960536192e-01
8.940341443952120049e-01
7.188590862791066627e-01
9.901481940831080575e-01
-6.278108761921530334e-01
6.751818841760415246e-01
-7.443624336692129528e-01
-2.453393038213700361e-01
9.005461766947757685e-01
5.715379107140161619e-01
-1.769136092895409185e-01
2.335352811718831578e-01
3.570650941765107778e-01
8.998368142996020502e-01
8.639409089581613355e-01
1.757678485819289538e-01
-4.497418974485716259e-01
6.478329820418620155e-01
1.777016350896485353e-01
2.691553262542392133e-01
1.817944350264915077e-01
-6.550404705230805646e-01
1.878666270792241910e-01
-3.514733187996104125e-01
-8.567209346492965505e-01
4.451416988872767266e-01
6.299884346776853938e-01
9.818350001148852257e-01
-4.686731600943936371e-01
3.821576330326079685e-01
-4.302814541032029538e-01
4.783428511480332102e-01
-1.418451084969429843e-02
-1.106214711576252174e-01
-2.634499059581472125e-01
8.157402670417512880e-01
1.655985522131400156e-01
4.716468002281297700e-01
3.969452226324210464e-02
-9.006368870738068466e-01
6.142789229547362950e-02
-3.592885073892759795e-01
-5.298791966321529934e-01
-1.736349365902285502e-01
-7.900151938958988040e-01
-2.182693405405378151e-01
-3.833357799833858603e-01
5.473747935766291040e-01
6.977712795954271741e-01
-3.517209745476261862e-01
7.621510433510405580e-01
7.534156750295077920e-01
-5.512756218993386526e-03
-1.685683013108800754e-01
-8.227410993864809896e-01
2.593304923946850860e-01
-3.823093946337086102e-01
-9.256760207262635376e-01
-4.352538616171135466e-01
8.451355410371408361e-02
-5.898200432164355522e-01
-4.989803649049449064e-01
-8.713708225809133623e-01
-8.605767564608872711e-01
-2.442091727346029639e-01
8.671026035930675668e-01
-2.939880288772760419e-01
-1.056677272441426396e-01
-9.082716669153774181e-01
9.557435444894435417e-01
-8.695847528322744324e-01
-5.175717855323491712e-02
9.621396103450368109e-01
6.822414890508372576e-01
5.043140302563908772e-01
-2.612116404947555370e-01
1.712627701347222420e-01
9.992150511010855496e-02
-8.196787388708348665e-01
-2.893746480340126936e-01
2.887175831297588147e-01
7.435481555575154111e-01
-2.837547607447317155e-01
8.013332264628303392e-01
-6.257779367678055760e-01
6.296071160691694146e-01
-9.878300868693239423e-01
-3.362535388516005863e-01
9.788375372748070458e-01
1.353626038409856402e-01
-2.049760122195547485e-01
1.250336868863961559e-01
-9.900447499032081211e-01
4.460184567076257434e-01
-4.492044007407898221e-01
7.770580978155221530e-01
3.623222413671365327e-01
-2.643796063301420141e-01
7.374598628970763237e-01
4.496543756863677910e-01
4.690132296556226432e-01
5.541780230993873513e-01
2.541941249213812704e-01
1.637117828990715118e-01
3.329756083347914508e-01
5.134051519891946747e-02
2.500509178010157374e-01
3.272628421424559342e-01
-9.792600141987843898e-01
-1.688909862010854468e-01
6.230963858549722900e-01
-8.872414103866335111e-01
-3.764194268308889146e-01
9.458215437424661864e-01
-3.019463520209240137e-01
9.574465697933813857e-01
4.374880588525054126e-01
-8.127292267403691817e-01
-4.553802716846602205e-01
-8.613887331913281376e-01
6.072020759612273277e-01
2.904900810386190635e-01
-5.734976803466818041e-01
-8.619988658129962289e-01
7.019347660640198328e-01
5.622378750420280458e-01
-4.160932203817204744e-01
-8.186836177221412658e-01
-2.625281247546098484e-01
-9.393017374154684074e-01
-4.901117165083856975e-01
-4.029741179244754612e-01
8.332823578363168782e-01
7.973567901145706127e-01
4.618695387623814597e-01
9.415218544216541474e-01
6.101273822990316287e-01
-3.172299729792540379e-01
-6.105306429904855392e-01
-2.357191910791189837e-01
-1.243812147679572711e-01
4.643356815516450631e-01
-6.288271302952310737e-01
-6.733838153214204425e-01
1.743245913015236681e-01
-7.127175503351643737e-01
-4.396383775584542519e-01
-6.349123293353735598e-01
1.118911654411243184e-01
8.606531088217250769e-01
8.237510609657008320e-01
4.362948205799075385e-01
5.072829464250772080e-01
-8.046548462381928335e-01
-7.960422570378249407e-01
3.725866765696317362e-01
6.737292562155443587e-01
-6.989045185504969560e-01
1.308394422956522529e-01
-3.880457745045449158e-01
-6.272451828931713269e-01
2.017628326939637784e-01
7.912374231750771703e-01
-8.637480157624910504e-01
-9.947181395507476154e-01
9.847846430129103545e-02
3.714501808136265737e-01
6.399290263742838381e-01
-8.179385123677911373e-01
2.872204456547486906e-01
3.190633157730471403e-02
3.280870251197454124e-02
3.769275904304358882e-02
9.820319755067501433e-01
4.513746462095362677e-01
-5.254966287265754321e-01
3.377886242886514179e-01
5.806389374483611476e-01
-7.607884894530103637e-01
-4.129567328724255137e-01
-5.264157648114498045e-02
6.770766994794712446e-01
6.158349233579323290e-01
-3.377742272518968747e-02
-1.922872713354999430e-01
-3.122950787674472206e-01
8.874249479139135754e-01
8.987373118539387917e-02
8.379130761904782787e-01
-7.168427999138629048e-01
1.849970473069932897e-01
-4.909576991342046171e-01
-7.396142746725471451e-01
-6.038128844122896410e-01
-2.826274725719812864e-01
6.888976293653275018e-01
8.465326892077751353e-02
-3.491336328203880068e-01
-2.586180971059079958e-01
9.805074873060171115e-01
-7.978181329832929602e-01
-1.136746952175338166e-01
-9.048674977791379970e-01
2.093715351053082596e-01
-1.820033164071510612e-02
1.940460959989809275e-02
-9.288396319420690883e-01
-3.116912149002684096e-01
5.531320460557531682e-01
3.120987241502020115e-01
-3.698091671404988290e-01
1.240933486069173419e-01
8.261766838374500210e-01
7.187019916119112839e-01
-5.905789385950783732e-01
-2.911410049167488800e-01
-9.212585343437029728e-02
2.906900264819789470e-01
-1.652218969132728255e-01
-5.194726734589127926e-01
-4.622683765030843883e-01
-5.306281027186376953e-02
1.906152478427260988e-01
-7.339351153865638633e-01
9.783290862798701415e-01
-9.738412366969639855e-01
1.564736510888597998e-01
-2.650554928961013079e-01
8.833647947957683488e-01
9.143271038915501414e-02
-8.064504807886607729e-02
-5.219923801601240587e-01
9.034665840009969973e-01
-8.778207685121253157e-01
-2.255647018255313441e-01
6.726900166025118200e-01
-5.790212538508310303e-02
3.161312495030015324e-01
-6.885075222734933220e-01
8.039305486310976967e-02
-3.578535497922918918e-01
-1.972771521260343608e-01
2.125891194012261565e-01
-9.121891889095945505e-01
9.682101613646802996e-01
-9.359981457841128893e-01
9.805124524183383983e-01
-8.765286633041329267e-01
-7.303566974620026020e-01
-3.941928098163813843e-01
1.236922260515540550e-01
-3.531148457727761869e-01
-8.423584370170196234e-01
8.743615652044283149e-01
-4.361967832855653260e-01
-2.536169895536999341e-01
8.961433117975849960e-01
-2.609424004766189853e-01
6.669469097539182378e-01
7.300207965616583028e-01
1.738753918446900304e-01
4.418038006655078398e-02
8.208480959847423986e-01
7.403652991701936692e-02
-9.762798233162810480e-01
-9.194495451275690456e-01
7.821738927313179879e-01
-7.202633727243230588e-01
4.666795903929312761e-01
-7.162916125464804384e-01
7.526135855279481035e-01
-4.938586152256747575e-01
-8.055226852761532275e-01
-2.468404032282951466e-01
7.982847999301676545e-01
-5.494146884958464039e-01
7.280359738592308005e-01
-6.318041663704048183e-01
-7.471025441322916016e-01
-9.050290005015320105e-01
-7.683434308841465832e-01
9.567107818737188296e-01
7.125614976214535989e-01
4.091333743833451830e-01
-3.331893415194069341e-01
6.800854277117422964e-01
-3.012233717875800743e-02
-9.800038763561831345e-01
-7.791877026024256470e-01
-6.981287921587364664e-02
8.108432788416806147e-01
3.442232296570524319e-02
7.886132003910353294e-01
7.942868765605681780e-01
6.530584505587810895e-02
-5.594398269578924054e-01
2.075964886530339282e-01
2.871595079026088015e-01
-8.991988078588522004e-01
-4.373150169377064689e-01
-3.121713951501339235e-01
-8.196222275209561481e-01
2.507937517685165929e-01
9.733292240437956266e-01
-1.021172910516365828e-01
-7.765356600638373408e-02
5.713895803363053805e-01
-3.578169034013696237e-01
2.168964572682070546e-01
4.096008143813747449e-01
-7.769473406642102287e-01
7.675229901796158938e-01
-4.278779298831725253e-01
9.153090672650616710e-01
-9.848379526170132348e-01
-5.850886488802489183e-01
5.045464208799412820e-01
-3.315434246327571000e-01
2.256516676871389571e-02
5.800872558801879464e-01
-2.165027371059591310e-02
-3.479242493051297735e-01
-8.110313716447095089e-01
-3.858484890862603489e-01
1.688179445302711024e-01
-7.370425106717313213e-01
3.513092367123107351e-01
-4.581749264310688297e-01
4.842413187776430927e-01
3.669898641946924833e-01
-7.393125873895873834e-01
1.933829935073048123e-01
4.852576307163334324e-01
5.213532116970265307e-02
-9.875141674091199029e-01
8.167232170599210139e-01
-8.186932884878306282e-01
-3.965713630655740563e-01
4.006696460736696164e-01
5.547667993190765756e-01
-5.081677522542276115e-01
4.995776592959795259e-01
-5.341202352024687627e-02
-5.084652670225573434e-01
8.450343141066516406e-01
1.724417624292029494e-01
2.154983590546066807e-02
9.185097482994641904e-01
5.902760380509874949e-02
4.593110876612711557e-01
8.169484681328369469e-01
6.389897742978576378e-01
-8.972368607650773598e-01
-9.516742384387915088e-01
1.935921427727309574e-01
9.243509830079135181e-01
-3.105807507996318773e-01
-3.645089035518878084e-02
-6.143031219219161621e-01
-1.251338400988479815e-01
9.770319735701382680e-01
6.663337525595525168e-01
-6.848413667511972225e-01
-8.693052323964645112e-02
9.456662712171579610e-01
8.250759925584751908e-01
-4.295156004198079636e-01
-4.025711264781282051e-01
8.304232600514942497e-01
2.168497243219598136e-01
6.168795887504348041e-01
7.372442344683254323e-01
-3.240274088490679993e-01
4.007385188421961342e-01
-4.014627782728334981e-01
2.213201575049950076e-01
-5.592227322493226183e-02
-5.600966111593994601e-01
5.750166600631485547e-01
-2.798339447766418076e-01
-3.116807128521863479e-01
-6.354461447827408627e-01
-5.671167033563406790e-03
4.889837437919151153e-01
-1.688539549928893546e-01
5.207423860851241315e-01
9.999400039646544336e-01
7.396639836453553496e-01
-9.943126880066741613e-01
-7.226024228713805453e-01
-2.566065808771267331e-01
-1.237898437342057623e-01
1.796159485508648235e-01
2.139055951841521974e-01
-9.956614007309538827e-02
4.132727426099622736e-01
-9.797647367737796209e-01
-5.058828811081683696e-01
-3.082517787417611288e-01
5.557572793019029955e-01
3.796086446040285445e-01
-3.221651147968085382e-01
-2.491434007595862976e-01
-5.689009312776176497e-01
2.355183200863424364e-01
3.882338516339236545e-01
-5.784747954692037730e-01
9.223061221351280814e-02
8.398709849344687672e-01
1.884029418469854722e-01
8.753317224988208523e-01
4.900919023484562320e-01
-3.860802304017048048e-01
-5.511063273461425105e-02
-5.350776584071570419e-02
-4.291568851184646149e-03
-2.908775722926295604e-01
-1.922317118522318680e-01
-2.445291330011130082e-01
-9.992587240912496060e-01
-5.536677553897950688e-02
-2.190519906662258265e-01
3.566663163575882756e-01
5.463676075149861422e-01
-3.742225244585450916e-02
-1.788281390304660157e-01
-1.860932926571430279e-01
2.693693854702647883e-01
-4.132135303279893535e-01
-7.945809867634248125e-01
-8.313882603652713588e-01
7.803469096856894271e-01
6.581091120057802613e-02
4.307524956224995094e-03
-4.988317499583423409e-01
-2.365818159508428220e-01
-7.328009867523688214e-01
-5.821953055800777044e-02
-5.671574543352906339e-01
5.454936361290658731e-01
5.198447919119921767e-01
4.684453074947185769e-01
-5.633092867700855155e-01
7.855896622841873622e-01
6.332749497127712068e-01
4.383490705255743691e-01
5.986479571252645293e-01
-9.492115319953511321e-01
-7.927234574090680219e-01
3.733314943145957798e-01
-7.484724296803486610e-01
2.041373448377854505e-01
-6.905993296409951299e-03
-9.018328975156928440e-01
-5.284035108315472407e-01
-9.477492900141404331e-01
4.983730619418507146e-01
9.627654161664485066e-01
7.401791540425384230e-01
1.449843708939146936e-02
5.474231127429740607e-01
2.739576955055755825e-02
6.953222132715259907e-01
-7.414812712917460136e-01
-1.741906739389871284e-01
5.252365416088502492e-01
-3.638701098761758512e-01
-6.634777155149460537e-01
-7.893268265319397514e-02
-9.384102007088812591e-01
7.391363484237463144e-01
3.040396453520872733e-01
7.000440307042656851e-01
7.067949393741315145e-01
-1.388993724911724570e-02
4.858669025565456323e-01
5.973198672509338891e-03
1.291127618611842554e-01
-4.606063048976842822e-01
-7.109111938315637591e-01
-1.654930378855248296e-01
6.202628525771425316e-01
-1.110090256276750065e-01
-6.891149837392438471e-01
2.937961797860817459e-01
-9.122469957050483025e-01
7.026876301997293517e-01
2.735983279538447555e-01
9.092071323278827499e-02
3.801937070768812710e-01
8.333580237094690979e-01
5.809718420264482486e-01
2.194260939264278676e-01
4.130918625096713370e-02
5.924189281423957176e-01
-1.515940493704373004e-01
3.240717203834446725e-01
5.877710070776560602e-01
-3.246022843941671621e-01
-5.051595507602959501e-01
-5.298915466972513588e-01
9.035102465178734832e-02
3.163248074828735046e-01
-7.904267325329783489e-01
-6.138680029739431721e-01
-7.168897276936092577e-01
-5.394325674058462194e-01
2.764325892559333919e-01
7.374170740903933652e-01
-2.118509740396044005e-01
4.968642297300893684e-01
6.051776894170195487e-01
7.861403453152371323e-01
6.895929792471502395e-01
3.954702572473329791e-01
5.338091847149373237e-01
-2.750772257096967266e-02
-9.653859170788767763e-01
9.670393756890023340e-01
-8.535646252354287533e-01
9.003351756030171238e-01
1.522465029231581113e-01
7.176744715755687398e-01
-1.353787717546421909e-01
-6.202137581490465568e-01
-8.002701195985628679e-02
1.463070096450542756e-01
2.591209182512814735e-01
-8.431557140142098561e-03
8.033198763374707063e-01
-7.890058710483569548e-01
9.300567000461379408e-02
8.750128754095540806e-01
3.514885089198691581e-01
8.154899112929325788e-01
3.290756229047291370e-01
9.270398585906707289e-01
3.703032642851986633e-01
-8.725526107646008889e-02
5.681367146579541227e-02
-1.701552088393507578e-01
-2.595395326364617894e-01
3.028761734306482101e-01
4.183220073674487338e-02
-5.949437397231882585e-01
-1.479857642040987020e-01
-5.973158074303166476e-01
-7.549064343101949959e-01
9.145087603065551463e-01
-1.451306479787584092e-01
-6.246614673331689627e-01
-1.087567241180558142e-01
-8.039935063189702635e-01
5.002254686469420619e-02
9.594071947722362381e-01
2.510921119360354226e-03
-2.943284676023110169e-01
7.578339950299020078e-01
3.243302783006962731e-01
-3.287765820874550826e-01
1.320132834823857237e-01
-6.349983239946861424e-01
-6.019967134551165167e-01
6.041319653147598778e-01
6.270907186516208043e-01
8.930024069666999686e-01
-3.084106377027948653e-01
-1.525238215316122581e-01
-2.559978252537571386e-01
-8.508923968474113586e-01
-7.108216989622850868e-01
7.083366568593740809e-01
2.108959672559123089e-01
-9.665082826515365433e-01
9.855267094901130065e-01
-8.482296055397273715e-01
-8.714665190194574862e-01
5.599768028958651556e-01
3.851275097770463507e-01
-3.730003627463820415e-01
-4.063579390862899210e-01
5.517714134110229818e-01
7.439523685992710522e-01
-7.057052141424529079e-01
-2.288422733305013335e-01
-2.088696008937516169e-01
9.628746661445197752e-01
-5.224006859746737064e-01
-9.129220513417246607e-02
-4.864452772374323608e-01
-5.862796383068746842e-01
5.959650955132240746e-01
3.024708256220189906e-01
9.473518987998903462e-01
4.074643385660712269e-01
-6.206556237682634425e-01
-9.799158271388601626e-01
2.647526862595470654e-01
-7.296621436990320397e-01
-4.147204486116842226e-01
9.746479325071344402e-01
-2.809452591253758236e-02
-1.849180674205976871e-01
2.058045797146197398e-01
2.427982933567018886e-01
-6.545332693971483984e-02
-7.919340675471888691e-01
4.773684504671680262e-01
-9.379369522069063159e-01
7.276611541192394839e-01
3.729656186958663078e-02
6.185095690188626705e-01
9.084196752701241273e-01
-7.442015712135086059e-01
-5.393124870614751654e-01
-6.421841198021269737e-01
6.331962055440121251e-01
-9.086795641692355652e-01
-2.765177703128778308e-01
-3.245620601129561855e-02
2.473356863161162433e-01
6.772233729355103815e-01
5.925997175984587528e-01
9.633012879266711348e-01
7.726022082051338113e-01
-5.695664881755901909e-02
-8.198503143317403818e-02
-9.277845178627173173e-01
-7.969224013922306948e-01
-4.869672401348783541e-01
5.006755370206346090e-01
-9.167441668819398259e-01
1.283278764419359952e-02
5.752818415321558909e-02
-2.086299628470833500e-01
-8.214098620946601592e-01
-4.740815668589075660e-01
7.174970334144159523e-01
3.960380591905354741e-02
7.331331765253972232e-01
6.007309769787805287e-02
6.743822661149483366e-01
-2.844217798063437552e-01
8.960485686374031200e-01
-9.454709082743031345e-01
7.965609275972007630e-02
2.957535971412534881e-01
1.082504883123496242e-01
3.476586997867185946e-01
2.482325077904070643e-01
-7.840478006176447856e-01
3.550797723003751294e-02
-3.129091325356805342e-01
4.959074739343105609e-01
6.939492550607038179e-01
-4.531774277245419480e-01
-2.477424927585138992e-01
7.925656125101905314e-01
4.491667715914884340e-01
6.449637725036942992e-01
-7.265169550885410832e-01
-1.666994859333736922e-01
-3.466424575457149881e-01
7.911415349045602952e-01
-5.839944908087821851e-01
-7.010988257777608368e-01
-4.259942137987506872e-01
4.888436401703919465e-01
-1.908963977132651646e-01
4.383593363788329533e-01
-3.261187401254661555e-01
-3.533916849631657531e-01
-9.492711727945934985e-01
7.966390993430125800e-01
4.186931444452972606e-01
-3.980668890733880527e-01
-6.887143995247475559e-01
9.238033845274415956e-01
4.246011641092635180e-01
7.011692245965741588e-01
5.344855484230803810e-01
-9.268422960070592520e-01
-4.521621084930282919e-01
9.206638563681148746e-01
9.551045341048263193e-01
4.875105854625332302e-01
-9.442908291916651820e-02
-7.999362289907274715e-02
5.407180484737896808e-01
-1.214314858146432474e-01
2.974780738853541884e-01
-5.882464400130467119e-01
9.950206593177073344e-01
-5.227473588771340829e-01
5.869790504501937178e-01
-2.217084617421838377e-01
8.728237466043275994e-01
-7.000328223639407099e-01
5.765952896288528695e-01
1.132604604184002106e-01
-7.559438609521533792e-01
9.284210756882327331e-02
-4.427905213053160427e-01
-3.430695999389683504e-01
7.479295059708390703e-01
3.487560216068543717e-01
1.690836177160985887e-01
-7.774445967954517478e-01
-4.921169552872108888e-01
-4.047402360785514741e-01
-7.921032697118437493e-01
3.424231122947691830e-01
4.679139935319369670e-01
-8.278601172629385108e-01
-2.453830005005006587e-01
-6.467789349728694237e-01
-7.664310179171944792e-01
4.572689907688989308e-01
-8.964979262964487550e-01
4.404534636231427491e-01
7.153398855363486408e-01
5.981207587053625208e-01
6.335869264655686894e-01
-8.868351276452823839e-01
-3.244589328861606781e-01
-1.489180004319590189e-02
-9.759260285166500015e-01
-8.335368641153231284e-01
8.024379950498106151e-01
6.158220090089889798e-01
2.964316220850498063e-01
-3.051673830826016065e-01
-8.274787256741586994e-01
8.704314412805669310e-01
5.091421154444808472e-01
-5.549950396597624902e-01
-9.570403070581059435e-01
4.481475951285349701e-01
9.278752635388647363e-01
7.605760114438298025e-01
-2.305131663208801474e-01
9.975422244235307989e-01
-6.559426645521799770e-01
6.393425182122596251e-01
-2.482593357688192004e-01
-8.355136314237481265e-01
-9.945684519976198956e-01
1.980693697411357590e-01
8.990378716848883567e-01
-9.708173223734068991e-01
-6.085777770027560596e-01
5.843098933230577163e-01
5.921842914854222872e-01
2.818820918994733304e-01
-6.447850927918150621e-01
-9.269124623652817974e-01
-8.112313949159384308e-01
-6.309745512986153493e-02
-5.411009178068946213e-01
-6.603822105837073853e-01
3.946300232864321522e-01
4.645630708827734878e-01
-7.251221211033411773e-01
-6.724152743851190550e-01
8.036168966704717587e-01
8.127565972621131341e-01
8.619988308563668600e-01
-7.026934373175741655e-02
1.945714447188384710e-02
9.246318498205785552e-01
6.546284828096060604e-01
3.951412093854815843e-01
-6.104362814889603417e-01
-2.818543460380058541e-01
-7.664574125815153405e-01
3.509636365258110846e-01
-9.074170202414881814e-01
-6.111828868963498085e-01
9.063770926353726942e-01
3.776394030907468391e-01
1.013270288559753318e-01
6.278258873054518574e-01
-1.246312431279417154e-02
-1.664994374128327959e-01
3.949753927063042180e-01
-9.035504945095957918e-01
-3.427687232376024351e-01
-6.055511578763597136e-01
-6.559857192046194552e-01
-9.230024890326629095e-01
-2.885479701040343237e-01
2.679748281662517329e-01
2.292581249137777277e-01
3.167006038502198084e-01
-4.040788555774863511e-01
-9.362645652178942512e-01
-7.066457361092244316e-01
1.645480014386957457e-01
5.391193350072738255e-01
-2.589630127158035755e-01
-7.532951332862511951e-01
-5.497088909044292038e-01
-5.366413918954477946e-01
-4.039321107779847431e-02
6.400968026724556115e-01
-5.600825516272649462e-01
5.218573459357978006e-01
-9.132164280379628796e-01
9.006170358233978046e-01
3.372212985133535845e-01
-9.544418435567474379e-01
-2.363570319255530183e-01
7.752572086052700318e-01
-3.761866625255854135e-01
-4.374906423647340059e-01
8.329769271980038692e-01
8.128190895703135688e-02
-7.189282901845592821e-01
-5.789730793190084324e-01
-7.445518515467597354e-03
-8.003342394452706010e-02
-9.877813914400610518e-01
-2.380067921838318057e-01
3.706676007016154184e-01
5.617513597373624545e-01
-8.799496078268191912e-01
8.736259869776112907e-01
-6.349997370119691009e-01
3.741179365936682100e-01
5.718902786958766082e-01
4.915028658846494203e-01
3.996543568378696509e-01
-7.121166607549598293e-01
-3.755991357075163517e-01
8.134779375456950845e-01
-5.611095595396535796e-01
-4.907462176829755496e-01
8.720286737379059350e-01
-9.729789409928408794e-01
-7.104025945301764011e-01
8.279174096679922101e-01
5.433045194635550690e-01
8.804978927255475707e-01
-6.538181842002415145e-01
3.970797127482768030e-01
-6.977341947392623478e-01
-9.199602382885747609e-01
5.646045295523143270e-01
-7.520230282640905095e-02
8.951623952094085457e-01
-6.553190807719335709e-01
-3.128844637639982551e-02
4.421849499908254710e-01
2.288701388640175249e-01
-3.025928512483360144e-01
2.233007295785127688e-02
-6.583562288074358282e-01
-3.214360407429164290e-01
-3.578505861451064529e-01
-1.756299797570259891e-02
-1.020823400634409683e-01
-2.936945876450114401e-01
9.495114455627193806e-01
-4.016397560468272232e-01
4.972464679954933242e-01
5.777680665842697127e-01
3.165584011569244627e-01
-8.267584949771178415e-02
-5.458548844030097769e-02
-7.039241078510365401e-01
-2.063617306908973603e-01
-6.318551301522090657e-01
-5.521235890354776465e-01
2.938771702155278387e-01
6.102630131402246860e-01
9.949625396443990688e-01
5.062909007681852813e-01
5.059472538801830233e-01
-9.940670052813733726e-01
-8.877284945579637654e-01
7.448342171093826902e-01
3.517781552448819848e-01
9.519209761354467947e-01
-4.720296202655154261e-01
5.821493823859118510e-01
-1.561522396671808366e-01
4.638749089236855472e-01
5.828594279992322935e-01
-6.186656928554652435e-01
-2.267661563603871056e-01
5.670850276280370306e-01
-2.576921440166834998e-02
-5.055411666370068779e-02
9.605505260520663668e-01
2.264301840577682690e-01
-7.349735142034852231e-03
8.132402291975568964e-01
-3.969867641723290319e-02
-5.901119771453582352e-01
-1.211561687007489674e-02
-1.414717648890730928e-01
-1.916321772529931966e-01
-9.568512924361032290e-01
1.730870048391550675e-01
7.026192706967351320e-01
-2.928360165891381595e-01
-7.336461579118669363e-02
-3.388020029946918754e-01
-4.387719984172187004e-01
4.980343129333730801e-02
-3.484459426919912506e-01
-1.512364171259441559e-01
1.640418805687247072e-01
-8.643368509444429026e-01
6.193715132402382029e-01
7.459077000694005477e-01
-2.098992118165523557e-01
-2.100480209213211324e-01
2.672412794611924713e-01
2.376222396261280512e-01
3.658370001386006543e-01
-7.693847009247265500e-01
8.527392418411341435e-01
3.000097676438870931e-01
8.590965513954247346e-01
5.589114868447548901e-01
8.298158637676589233e-01
-8.770921340999637827e-02
1.148188777736400823e-01
-9.663182260260001488e-01
1.695111543753502481e-02
-3.753307042884492795e-01
-4.294672784560971124e-01
4.625244395179473056e-01
8.033650472514393126e-01
-1.777915388086108717e-01
-3.159244112532544335e-01
8.669067223875324135e-01
8.232957548041373030e-01
-2.782786801535195309e-01
-2.521449563339417388e-01
-7.559724629809509988e-01
6.322576164727380377e-01
-9.711374029858403922e-01
-4.634862894114508691e-01
2.372900287462271773e-01
-5.393424168757865456e-01
3.713107764388514642e-01
8.564695033807367963e-01
-3.638304938928804688e-03
8.910960304850277236e-01
1.106147818795291116e-01
-7.159971985393291938e-01
9.516182420206720227e-01
-8.997456899796929530e-01
3.297887837899660113e-01
-4.816036313919231926e-01
1.580841577943092879e-02
7.439843582745371275e-01
-1.975778479980994096e-01
-7.559503019916025135e-01
-2.115613665858957493e-01
-2.145591518501621664e-01
5.639810088787062803e-01
-8.108495366908747837e-01
-2.213984061818059512e-01
1.838053762918325784e-01
-8.320344569830726567e-01
-7.118774663518210311e-01
7.668937167515104125e-01
-4.945269948255390791e-01
6.896287673622469860e-01
-9.234473373239595606e-01
-9.679527727406831428e-01
3.560776904318521119e-01
-5.286739576711374511e-02
-1.897441688332492937e-01
-1.687007735102339367e-01
-2.945464023459072322e-01
2.066359081457795899e-01
-1.740727541129734046e-01
5.769841559705060074e-01
-5.751691283769453378e-01
-1.989919614271455917e-01
-9.879319714804362107e-01
-2.706882645242372210e-01
5.645780161480622450e-01
4.465349950097030618e-01
6.302166004897171714e-01
3.616093380919549460e-02
5.162888300173980038e-01
-3.995046489082165753e-01
6.873463362518783537e-01
4.573054047211577711e-01
3.539358365117808436e-01
3.469809585064980162e-01
-6.545649643978856957e-01
7.058722861474999721e-01
-3.695830489194991131e-01
4.154468862864562073e-01
-3.664671901390699205e-01
6.679138653209715226e-01
-1.586744080645556831e-01
7.614805675756115555e-01
-6.555012740526775517e-01
4.918562834140680629e-01
-8.046576973594172788e-01
7.416390894554969471e-02
9.658168526322667979e-01
4.313493901148324206e-01
9.263533715577865202e-02
4.735257043258798149e-01
7.108591860436368481e-01
9.521868553394385870e-02
8.932114045308601202e-01
-6.943948451495638441e-01
-6.227572022652574368e-01
-5.886061301558032088e-01
-2.571056239106126462e-01
9.386790487890595003e-01
9.952405903373406915e-02
9.465902548111793102e-02
-9.460314777012266418e-01
9.705599322472728829e-01
-9.620131634597577364e-01
-4.074972817484563414e-01
9.719901320050057247e-01
5.334645061641927200e-01
1.953202252513586146e-02
-5.739973469088255342e-01
4.871701302747111217e-01
-8.867561674703487995e-01
1.749829102714492990e-01
6.105196545809021824e-01
5.991535908453620163e-01
-7.235610906843861212e-01
-1.883859503705762606e-01
6.828645536599851074e-01
9.017433915616768214e-01
6.021363355482318713e-01
-7.167851202177486503e-01
2.389549482934720803e-01
-1.056561152004229509e-01
-3.028940523950471864e-01
-9.190942463300397769e-01
-8.262610172264195363e-02
-9.194197691816432538e-01
-4.016354595649282988e-01
-1.212892931897524562e-01
-6.372295578661892890e-01
8.946643290033144957e-01
7.910113865729699878e-01
-6.535988942786865596e-01
2.014093327791459664e-01
8.111659320216220159e-01
-4.478226214321745502e-02
-8.205152994253239740e-01
-5.385011454181118928e-01
-2.458287007246213740e-01
-5.612628647174637830e-01
8.599149524500200314e-01
8.031395977298287914e-01
3.585541296135639211e-01
-5.708874420119474102e-01
-6.435308026059538555e-01
6.567943465089032262e-01
8.356234469307262103e-01
6.627643731685595174e-01
1.668158262396977065e-01
6.481394436712850649e-02
-1.509679166257376082e-01
4.925203307741075065e-01
-8.065383851776444235e-01
9.195813292741132905e-01
7.613373504057061592e-01
3.559595854029096174e-03
-1.642133891177590677e-01
5.684340898112492102e-01
2.102943937871029068e-01
-7.268700336364086745e-02
-4.808730138256227526e-01
7.770908525794486543e-01
9.176509943464918884e-01
9.011811683606190115e-01
9.467927481037070603e-01
5.654374766922269924e-01
-6.589066592170680359e-01
-9.645185758409289267e-01
8.087189806313037632e-01
-9.884732687756512259e-01
3.432935867360884519e-01
-2.695259891252499429e-02
1.118162173339642962e-01
-2.902880221596131349e-01
-1.651879803595663887e-01
4.252545953255222333e-01
-7.848484333571477123e-01
9.612193802779445129e-02
-6.916783400418935468e-01
-4.662815373472855018e-01
8.149932184425094928e-01
-4.612289442430639319e-02
6.436473783782645786e-01
6.730188088969502047e-01
-9.702844661798897263e-01
6.671049493737544189e-01
3.930593520247465111e-01
9.128802947933161160e-01
-5.395781633426690593e-01
-7.172242167521545309e-01
6.176129152402869416e-01
8.591760132487147317e-01
-6.364979801812584714e-01
-7.834834669894155113e-01
-7.249468145112802908e-02
-9.648106049099112180e-01
-6.639174641708107671e-01
-5.607286589580360303e-01
2.602397379588710091e-01
4.387379033386613614e-01
4.018508988524176484e-01
5.123307617290215887e-01
3.715413876401238991e-01
-9.129095869872885238e-01
-5.748922438182444417e-01
8.837516585072671127e-01
6.401208275175336304e-01
1.483361882172085089e-02
-6.805528725245615362e-01
-1.909100508410910280e-01
-9.645778710200303419e-01
-7.979929288391134357e-01
9.962800087572174501e-01
-2.722992014783365278e-02
3.838922126915966793e-02
-2.267821460815748758e-01
-7.714220918929370896e-02
-6.942002615509235142e-01
1.828251794343427328e-02
-9.082798565890013442e-01
-7.210781751627108882e-01
-1.429672437061408896e-01
-1.547707875157791069e-01
8.424647713655522008e-01
-1.914031398211406554e-01
-7.428914986235242157e-01
-4.861567701564146748e-01
-7.641746247574607853e-01
9.147976482284259081e-01
8.074549000281263655e-01
5.784614420735381124e-01
-8.112702266958438102e-01
3.676514333763825082e-01
9.419467922572011265e-01
8.698674659993990144e-01
-6.557691139120933599e-01
-7.149965518489298510e-02
8.696220178790261546e-01
-5.867384843243206305e-01
-3.292157277141316563e-02
3.390579918751854827e-01
-3.788446061346872895e-02
-6.204673154550766068e-01
-6.404727197713855347e-01
-6.486381411939261543e-01
-3.001670431960401508e-01
6.811798375719517740e-01
6.223116087271831631e-01
-3.652864110816949061e-01
1.759972560782043782e-01
-8.006543457644763606e-01
4.430520285301970951e-01
-9.029409618673462923e-01
-4.197077052911870609e-01
4.753483666537829944e-01
-6.576579214743809576e-01
-9.126739600523727791e-01
6.611260954057838202e-01
9.142196484523885669e-01
8.294207160706197346e-01
-7.212547617110995901e-01
-5.864488340630005236e-01
-1.467620715665511888e-01
-9.871813793232220302e-01
-5.535423926517626381e-01
2.764666078131783333e-01
9.298765727182094487e-01
-4.507703612399036608e-01
1.817949911691705278e-01
-4.819854160722860659e-01
8.777244862275392911e-01
-1.331461111763956318e-01
4.278566452103955697e-01
-6.784052882824340713e-01
-2.172492848846228064e-01
6.916913705456306793e-01
5.520488827033465107e-02
2.679926610896870010e-01
2.869950236748410877e-01
1.477208932070011027e-01
-2.378274138459335330e-01
-3.943604870953709707e-01
-8.978593104686520832e-01
4.375477102833300602e-01
2.781883924392545282e-01
-9.606647134968984147e-01
6.737043157050615072e-02
-3.428296453540069511e-01
-3.861426270818224538e-01
-9.327472282189799291e-01
3.066036047791060870e-01
-5.839820362245955465e-01
-5.204002318963363294e-02
-7.803789586805314205e-01
-4.604768345975931432e-01
-9.434736511524024483e-01
-2.448816621524891879e-01
-3.765403171819707850e-01
-8.713622137377023957e-01
-9.243897646108425459e-01
-1.441006473960908529e-01
-3.462731524579558684e-01
2.424422310774849709e-01
-1.047760675607480874e-01
6.187363086888770791e-01
9.599199541535339275e-01
-3.570599232932225586e-01
-5.424334816959131000e-01
-6.281205777219245334e-01
2.747358315717640664e-02
-6.417875959289185417e-01
5.528207467635741779e-01
1.487143837197069107e-01
-7.047143466467236106e-01
4.877406058259181609e-01
7.069870150122312680e-01
9.241824069145458953e-01
6.921464621230206671e-01
4.636090299815198712e-01
-7.872047425659831621e-01
-7.996443544373490475e-01
-5.153367720088204429e-01
-5.506373976943164106e-01
1.407997318580558321e-01
-2.445909198294107245e-01
1.623402057589731218e-01
9.484937880453949699e-01
1.511290696804477030e-01
5.410674792134548827e-01
-9.535562365635743554e-01
5.241406302625961633e-01
-4.874303859531281535e-01
-4.693396922770407542e-01
-3.338390382265910006e-03
7.314689666998430706e-01
6.292515716238715751e-01
5.183941861580505517e-01
6.936105969903971769e-02
-1.997278115351663885e-01
8.631181557142131311e-01
-1.702961679344365820e-01
3.409466426730605182e-01
-6.837033688812721444e-02
3.178750113787369713e-01
3.736044559520652619e-01
8.593967826691590872e-01
7.862949392763980416e-01
-9.110210594302083909e-01
-6.662535922386607634e-01
-3.770537108640901192e-01
-2.730388018298106623e-01
-1.472084814799423658e-01
-6.057297554932776773e-01
-2.694531602233170009e-01
4.745219547711356789e-01
-4.824797513740795019e-01
6.910284527180869940e-01
-6.919206930811474532e-01
-3.719554326460330351e-01
-3.620831280694913890e-01
6.778120496622039859e-01
9.856403662324688675e-01
5.577960808461401854e-01
-9.443446543200944010e-01
-3.011130813436890818e-01
1.385621021665235375e-01
5.031486400849041196e-01
9.638591084152736688e-01
9.933720646978758673e-01
-8.472513081101578081e-01
-3.621001789190199105e-01
7.539002548385642655e-02
3.507833439526746311e-01
-5.988954816626756994e-01
-9.361842599791321273e-01
-2.638148949821188527e-01
-3.105668139521000626e-02
8.776121412594757309e-01
-9.003639395342317719e-01
8.915343987100301515e-01
-2.672418102526992190e-01
3.146958887357176327e-01
3.632429475724596735e-01
7.560274378379139293e-02
-4.387946896230530136e-01
-5.215274687681101806e-01
1.908844336724515589e-01
3.200475067268011564e-01
4.728251342466582852e-01
7.742056211340042626e-01
-2.753619932843003326e-01
8.010924244904704672e-02
-8.128284481898340186e-01
-6.891796912025685007e-01
-6.834460656816054858e-01
7.772033291017437229e-01
2.404755788754582291e-01
-5.186994567297098513e-03
-5.480109003473954132e-03
6.583611662740285198e-02
-8.101481175865059559e-01
1.134933093712280350e-01
8.875616795230363287e-01
-3.293837059322364258e-01
1.662337606037607163e-01
-7.232761234768407821e-01
-6.157802383511161715e-01
-1.346263559419580425e-02
6.607647603686193083e-01
-9.736632520891153053e-01
6.150889791363265413e-01
5.279038897014558529e-01
-5.635799050780083697e-01
7.588918313372876590e-01
1.285514408311689838e-01
-6.235044335012005501e-01
1.599519645116835864e-01
8.022231583262482424e-01
-8.729982468105366156e-01
4.268950230306067795e-02
-7.168503268127235373e-03
-5.018204385345303997e-02
4.948608142290973344e-01
-2.936933409360964475e-04
6.803206388515377068e-01
-9.268367628902649535e-01
4.717104404314178545e-01
-2.420102383000786173e-01
-1.151691928169096268e-01
-9.232479909765833881e-03
-8.992403116873615154e-02
2.329570044572433218e-01
3.366369520633223367e-01
-1.256827575661851881e-01
-1.739906818032075364e-01
-3.774216848451554807e-01
-6.884566421619926491e-01
-4.265256960161449840e-01
1.640837385645554924e-02
-6.890105375636659257e-01
-3.436232630813336186e-01
7.507866292102991501e-01
-7.482140119235247688e-01
-1.985223315380928444e-01
-6.113600862726809027e-01
-9.211099277299159560e-01
-2.609797970350526963e-01
-1.467203323609018728e-01
7.060965901604112638e-01
7.103604216742303024e-01
4.285559424458311728e-01
5.498058264787806237e-01
-1.995573314158363143e-01
9.138989925640244039e-01
-4.606301341542997640e-01
-6.998752414913722575e-02
-6.986309171676541308e-01
-4.211884700737522635e-03
8.969293605948247539e-01
-2.867995788078867569e-01
-9.646479903749303197e-01
6.165106715227717249e-01
3.078770655865039618e-01
-1.131488687436357221e-01
4.894794510958291323e-01
7.197667076135607633e-01
1.950563031760066401e-02
1.581585692014200184e-01
2.036388958245824998e-01
-1.208890441865775323e-01
-9.682186135879473632e-01
-4.734847650160034505e-01
7.724496363779520536e-02
-5.415377690033780222e-01
-4.469546872478298294e-01
-9.037485033770653597e-01
-2.227597738994369081e-01
-4.681769667135500246e-01
3.243446363533983856e-01
3.462460497402759518e-01
8.819998162855680057e-02
3.550934814604644885e-02
-8.627947687321730896e-01
4.629710575271177575e-01
1.740841559246091297e-01
2.631713503555066502e-01
-8.869385909856484229e-01
-4.232075360355165294e-01
-3.267287323996213022e-01
-4.983261318358453984e-01
-2.127854556490751392e-01
-8.573294884271689398e-01
-8.607270300117433326e-01
1.457956057846909736e-02
-8.662029151900818569e-02
-6.468737164797904171e-01
4.522764342098193335e-01
5.518260761362694389e-01
-1.075456625577642100e-02
8.631933675535889972e-01
-1.458217579978235978e-01
7.439177748961618430e-01
6.008509750033261820e-01
-9.676518963870459622e-01
5.313831034684730614e-01
-2.623337091972459678e-01
-1.006239928787227011e-01
6.377066118912000370e-01
-1.446933382089274911e-01
2.034446297247702873e-01
7.838940688153515080e-01
8.061940021036366755e-01
-7.002373161508776978e-01
-2.225230366851889130e-01
-4.207544811356020986e-01
-3.757716118576019948e-01
-3.965385615611878301e-01
3.786009571347406233e-01
4.918243247859237499e-01
6.540293386950146726e-01
-1.610536050055513257e-01
6.405720254038631545e-01
-7.489331254153082096e-01
8.333728543170091374e-01
9.029352510628041451e-02
8.027702373633616162e-02
6.877156116706066857e-01
3.002212120061948930e-01
1.915013510811478525e-01
7.824332968699232449e-01
1.780750824278805045e-01
-5.901878915560969663e-01
2.421800849858022353e-01
-1.467765504970430790e-01
6.386949625463542723e-01
2.473649725150992573e-01
-5.968608432391182550e-01
-2.037322550806515142e-01
1.388501200118799073e-01
-1.173553857090616770e-01
-3.551852190042572577e-01
-4.700393388146013596e-01
-5.548318699615018001e-01
-9.311481284412947979e-02
-3.042731971026690907e-01
-4.904353349303234300e-01
-7.915962342660094464e-01
9.770150254518972233e-01
6.709529810419090357e-01
-2.983343334109771483e-01
1.322742062739401536e-01
3.964128705523728424e-01
7.294963784456660605e-01
-4.963243040807083784e-01
8.481502306909343147e-01
6.564125009095456154e-01
7.398750697293388079e-02
-7.329486877504778342e-01
1.262261449573625072e-01
5.211384256428062134e-01
-6.342912424162896468e-01
-3.206865793595250480e-01
-3.276437718462548165e-01
-6.610458540912833580e-01
5.072568454800283622e-01
-8.405889292478563313e-01
-9.050048757422848311e-01
-4.377370056417084765e-01
2.936116268253208261e-01
-6.748543612950628212e-01
3.224895884220380093e-01
9.364755213576743120e-01
-5.494464372894689586e-01
8.690403290269932413e-02
2.004254355686903022e-01
-1.178991958105441995e-01
5.789478926031066397e-01
-1.660605298605890567e-01
-7.113340354436823443e-01
-1.926004053788468173e-01
4.231026743291019798e-01
9.226859475297395363e-01
-6.659478363406114987e-01
3.034712490763191717e-01
2.863289318940096528e-01
6.443768346622598120e-01
-7.289314242299407276e-01
-7.009568168708932845e-01
-4.993870641327315951e-01
-4.736187167389562802e-01
5.079401641449878824e-01
5.011405806085633685e-01
6.046412700969669984e-01
-9.846729395197073575e-01
-6.535028597813725693e-01
2.757061833525873418e-01
-7.403124886816956352e-01
-7.241328775233075721e-01
-2.802172106344464897e-01
6.061102560996938227e-01
-2.339284526473284220e-01
7.277091114249656378e-02
3.570327968014943565e-01
3.498178374236160515e-02
-4.969155582804039017e-01
-9.421233246785647442e-01
-3.307668545901361057e-01
-8.916583000512534607e-01
6.269290969216989584e-01
9.610970840061809906e-01
4.543129894050497164e-01
-2.790965360845552024e-01
2.536396498950268530e-01
3.221400525174522578e-02
5.111631819922857201e-01
7.051519872474900641e-01
-7.511082484988997887e-01
3.684117317235588995e-01
1.460771029672505161e-01
1.329244992746796417e-01
-5.176600156627633176e-01
-2.126772888814976170e-01
-8.647930616798786829e-01
4.913589313581903095e-01
6.283368852150374995e-01
4.101272588796429641e-01
-8.632006655597794786e-01
1.851682930028939467e-01
9.883968506577098800e-01
-4.763047992990276924e-02
6.774023476932182763e-01
-4.131684900380161451e-02
1.101771828921023211e-01
-2.605413091791959346e-01
-6.222087499077770811e-01
-2.584289578127749731e-01
-6.165788468449495685e-01
-3.832275693450517551e-01
7.880042487975189580e-01
-9.902253684924677835e-02
-5.542783700624247523e-01
-3.087917847742396305e-01
-1.079340082938768930e-01
-4.106750198453794631e-01
9.628691378586846650e-01
-7.007520129331614722e-01
2.101383149708038189e-01
-2.047688771387234929e-01
-6.561005922862919171e-01
-7.281037512710648585e-01
-7.395635363790871164e-01
-4.714893415861067805e-01
-1.066097842827071762e-01
-6.531155579244194431e-01
7.832129362391282434e-01
-6.997103551895289542e-01
8.202854707301030501e-01
-6.102605228441244645e-01
-2.339730743974695049e-01
-4.110700720871154346e-01
7.913509507622409345e-01
7.500696631243042312e-01
5.168948490298803655e-01
2.469876898660816611e-01
3.944591103186436687e-01
1.826281551943411685e-01
-1.556346103151120541e-01
3.326549182269871174e-01
6.719480522999052852e-01
2.573948087621831249e-01
-4.014423747566422396e-01
4.257190659065894778e-01
-7.446013153277131202e-01
-2.390531604636536578e-02
-8.781115723389885108e-01
1.725720400460106774e-01
-4.746601685830975637e-01
2.390953303896552473e-01
9.050577383747460125e-02
6.829597720856808163e-01
7.295128993716175625e-01
-5.231257128003981016e-01
-8.494978143220259792e-01
4.442150345108393239e-01
-9.450872056569670221e-02
3.006019701977471481e-01
-7.858202494920303316e-01
-3.734998819793191593e-01
-9.215975911924114694e-01
2.436233826530571633e-01
9.218902118114458144e-01
-2.988250744528797576e-01
-9.516356777503216513e-01
-2.725193897090938400e-02
5.004582503700332197e-01
-3.610548045493593428e-01
8.422555449472002298e-01
-7.768403384663269406e-02
5.115805516273614906e-01
6.360482690363531422e-01
-8.707459178728038651e-02
9.120492003421665217e-01
-3.663712786215422845e-02
8.153922106320687924e-01
-4.530183246731833702e-01
4.454328748469056354e-01
7.974110291509399762e-01
-3.958509573055168929e-02
3.651967098059993866e-01
-6.280086835164302439e-01
4.040240315185565922e-01
-1.707413828839106085e-01
2.328403405098784518e-01
7.095084527090600446e-02
-6.924498939800383113e-01
3.579533869124484902e-02
8.238719453008034321e-01
-9.094513821613849913e-01
-6.038637895662013477e-02
-1.730193288423085285e-01
2.067966009544539574e-01
-3.774579486451234978e-01
2.624985338021583736e-01
1.997100156436288909e-01
2.470408986132448526e-01
8.822542351198461308e-01
-8.471222337576886918e-01
9.811088932990494893e-01
9.343791268864465316e-02
-2.717123264433598528e-01
-3.422594125766202922e-01
3.364159939562918478e-01
-3.517049820560191886e-01
5.068413101663371556e-02
-6.382019638575391340e-01
-7.642845250316241401e-01
5.824059695183638752e-01
-9.987855606508209139e-01
5.055093455447579043e-01
-7.009508548101230918e-01
-7.943567792251200466e-01
-1.727074001087214317e-01
-5.317430521719914704e-01
6.415218361926953161e-01
-3.143273357133158363e-01
4.743035727315880745e-01
-1.250158501305231873e-01
9.928850847653998279e-01
-1.157789405075448919e-02
1.229207510142329429e-01
-5.804895493854613786e-01
3.955569419827298372e-01
7.014891017346180924e-02
-3.600387888549803073e-01
5.954776287605478835e-01
8.202114042836752272e-01
9.068531991399571002e-01
-9.270817665370481020e-01
-1.530068765127226005e-01
-7.634544433982859424e-01
-1.557483799960412973e-02
4.908382816791758696e-01
9.200109712938604467e-01
5.016322847520393591e-01
9.745195839093241386e-01
-9.060553315382597894e-01
-7.910183770654235502e-01
9.599085371530526878e-01
-3.070535429911902536e-01
7.183628298659745504e-01
-4.178692576776104062e-01
-4.287551527031858711e-01
-1.606891711376576826e-01
-9.449651638736171755e-01
3.142621213923131318e-01
5.129684967201457724e-01
-6.262113684727885765e-01
-8.116911109555804416e-01
2.811284143720493844e-02
-4.177246113771198033e-01
-2.895872334262361569e-02
7.336676565739157496e-01
1.111196631382740385e-01
4.893847201637355759e-01
9.392050484495235718e-01
-8.154162817184398282e-01
6.563229310762386248e-01
3.695432746771654120e-01
4.953205188602451958e-01
5.426721826711919938e-01
2.365793532576563329e-01
-1.623231525084101179e-01
-6.918155650878976548e-01
-2.490229327120783154e-01
-4.112254252352236517e-01
-7.030590573539710064e-01
-2.537155424523482861e-01
-1.167460520061642804e-01
8.104233514763037327e-02
-2.355731795729898437e-01
9.539685244462088320e-01
-2.753149868068738293e-01
8.132731247564901622e-01
-7.141840164297883486e-01
-9.225371438846032834e-01
3.857549978444652083e-01
9.983163760851925250e-01
-4.230641268918264863e-01
2.554682270837951297e-01
-9.775393022846075031e-01
-3.532451667364762127e-01
5.505848626437885862e-01
4.799308436843403580e-01
-7.011351460824744031e-01
-4.418888971372523233e-01
5.509811051419548633e-01
-9.999178654802922672e-01
-4.599055408962327007e-01
-6.799914154180415338e-01
-6.539116933043713775e-01
6.873140866080544864e-01
9.885441635575284991e-01
-9.882803007766782777e-01
-1.300920650777095400e-01
5.727323508994119905e-02
6.959403072246896915e-01
8.469156335383301037e-01
-6.444938569651086357e-01
-1.590986151765567680e-01
-8.641966583966282922e-01
4.693784259953286409e-01
-3.061341594675088817e-01
3.121545772526375107e-01
-1.930739208065701540e-01
4.935998179460796553e-01
-8.621794998379881392e-01
7.244013119775396525e-01
6.808125546859509214e-01
9.988938444024462182e-01
-6.004318563766561923e-01
6.215892482635203553e-01
3.230825784692816782e-01
6.842935180607681023e-01
-7.189580795376215860e-02
-6.448675202387570415e-01
1.662936437295021719e-01
-5.606176257027533083e-01
3.303136059874338670e-01
5.262430336013801391e-01
-6.865572997394029375e-01
9.722421640559533174e-01
8.515325864067100348e-01
5.641108563175147861e-01
9.679324333663164026e-01
-4.245380164623582253e-01
-4.641853385282148636e-01
5.805788100592230716e-01
-4.609156531622096153e-01
-5.324386498991908745e-01
8.983652317824841749e-01
-2.896301822308089413e-02
1.264863638208035823e-02
2.378319951250622566e-01
-4.473607541846549296e-01
-3.989999275338833584e-01
-6.239677890960824147e-01
-8.258970967263625784e-01
-5.968948755499938752e-01
4.633394418196461473e-01
-3.965460794975057546e-01
-8.884567785927486305e-01
1.337139958522228778e-01
-5.885027446046386945e-01
9.732604884321518490e-01
8.671865059610599502e-01
-1.277431627989609186e-01
-4.915242150546328403e-02
7.680052161181860626e-01
-5.790303541727894743e-01
4.575226674348709111e-02
-9.164769815960536192e-01
8.940341443952120049e-01
7.188590862791066627e-01
9.901481940831080575e-01
-6.278108761921530334e-01
6.751818841760415246e-01
-7.443624336692129528e-01
-2.453393038213700361e-01
9.005461766947757685e-01
5.715379107140161619e-01
-1.769136092895409185e-01
2.335352811718831578e-01
3.570650941765107778e-01
8.998368142996020502e-01
8.639409089581613355e-01
1.757678485819289538e-01
-4.497418974485716259e-01
6.478329820418620155e-01
1.777016350896485353e-01
2.691553262542392133e-01
1.817944350264915077e-01
-6.550404705230805646e-01
1.878666270792241910e-01
-3.514733187996104125e-01
-8.567209346492965505e-01
4.451416988872767266e-01
6.299884346776853938e-01
9.818350001148852257e-01
-4.686731600943936371e-01
3.821576330326079685e-01
-4.302814541032029538e-01
4.783428511480332102e-01
-1.418451084969429843e-02
-1.106214711576252174e-01
-2.634499059581472125e-01
8.157402670417512880e-01
1.655985522131400156e-01
4.716468002281297700e-01
3.969452226324210464e-02
-9.006368870738068466e-01
6.142789229547362950e-02
-3.592885073892759795e-01
-5.298791966321529934e-01
-1.736349365902285502e-01
-7.900151938958988040e-01
-2.182693405405378151e-01
-3.833357799833858603e-01
5.473747935766291040e-01
6.977712795954271741e-01
-3.517209745476261862e-01
7.621510433510405580e-01
7.534156750295077920e-01
-5.512756218993386526e-03
-1.685683013108800754e-01
-8.227410993864809896e-01
2.593304923946850860e-01
-3.823093946337086102e-01
-9.256760207262635376e-01
-4.352538616171135466e-01
8.451355410371408361e-02
-5.898200432164355522e-01
-4.989803649049449064e-01
-8.713708225809133623e-01
-8.605767564608872711e-01
-2.442091727346029639e-01
8.671026035930675668e-01
-2.939880288772760419e-01
-1.056677272441426396e-01
-9.082716669153774181e-01
9.557435444894435417e-01
-8.695847528322744324e-01
-5.175717855323491712e-02
9.621396103450368109e-01
6.822414890508372576e-01
5.043140302563908772e-01
-2.612116404947555370e-01
1.712627701347222420e-01
9.992150511010855496e-02
-8.196787388708348665e-01
-2.893746480340126936e-01
2.887175831297588147e-01
7.435481555575154111e-01
-2.837547607447317155e-01
8.013332264628303392e-01
-6.257779367678055760e-01
6.296071160691694146e-01
-9.878300868693239423e-01
-3.362535388516005863e-01
9.788375372748070458e-01
1.353626038409856402e-01
-2.049760122195547485e-01
1.250336868863961559e-01
-9.900447499032081211e-01
4.460184567076257434e-01
-4.492044007407898221e-01
7.770580978155221530e-01
3.623222413671365327e-01
-2.643796063301420141e-01
7.374598628970763237e-01
4.496543756863677910e-01
4.690132296556226432e-01
5.541780230993873513e-01
2.541941249213812704e-01
1.637117828990715118e-01
3.329756083347914508e-01
5.134051519891946747e-02
2.500509178010157374e-01
3.272628421424559342e-01
-9.792600141987843898e-01
-1.688909862010854468e-01
6.230963858549722900e-01
-8.872414103866335111e-01
-3.764194268308889146e-01
9.458215437424661864e-01
-3.019463520209240137e-01
9.574465697933813857e-01
4.374880588525054126e-01
-8.127292267403691817e-01
-4.553802716846602205e-01
-8.613887331913281376e-01
6.072020759612273277e-01
2.904900810386190635e-01
-5.734976803466818041e-01
-8.619988658129962289e-01
7.019347660640198328e-01
5.622378750420280458e-01
-4.160932203817204744e-01
-8.186836177221412658e-01
-2.625281247546098484e-01
-9.393017374154684074e-01
-4.901117165083856975e-01
-4.029741179244754612e-01
8.332823578363168782e-01
7.973567901145706127e-01
4.618695387623814597e-01
9.415218544216541474e-01
6.101273822990316287e-01
-3.172299729792540379e-01
-6.105306429904855392e-01
-2.357191910791189837e-01
-1.243812147679572711e-01
4.643356815516450631e-01
-6.288271302952310737e-01
-6.733838153214204425e-01
1.743245913015236681e-01
-7.127175503351643737e-01
-4.396383775584542519e-01
-6.349123293353735598e-01
1.118911654411243184e-01
8.606531088217250769e-01
8.237510609657008320e-01
4.362948205799075385e-01
5.072829464250772080e-01
-8.046548462381928335e-01
-7.960422570378249407e-01
3.725866765696317362e-01
6.737292562155443587e-01
-6.989045185504969560e-01
1.308394422956522529e-01
-3.880457745045449158e-01
-6.272451828931713269e-01
2.017628326939637784e-01
7.912374231750771703e-01
-8.637480157624910504e-01
-9.947181395507476154e-01
9.847846430129103545e-02
3.714501808136265737e-01
6.399290263742838381e-01
-8.179385123677911373e-01
2.872204456547486906e-01
3.190633157730471403e-02
3.280870251197454124e-02
3.769275904304358882e-02
9.820319755067501433e-01
4.513746462095362677e-01
5.567079230652718369e-01
1.723742551654785515e-01
3.631734807987427871e-01
1.880445692031185168e-02
-8.169025858137395346e-01
-7.111630187725905827e-01
-1.115260610509076766e-01
-7.312798811039717961e-01
1.834791597066010027e-01
-7.923150197934472061e-01
9.683238062082955011e-01
1.967479229887161285e-01
4.467158166035192224e-01
-3.869294395768818617e-01
6.995021638409932851e-01
6.301491140532651247e-01
8.073821771280442761e-01
5.615174852161115560e-01
6.420362340143095370e-01
9.425904859435063621e-01
6.500741010747106419e-01
2.810230902534645026e-01
-5.336554772203392361e-01
9.845091176712468251e-01
-2.770447882351168012e-02
2.148097923891305605e-01
-4.237020882982718284e-01
7.772839145896963675e-01
-8.687849347893352725e-01
9.172895179113120800e-01
-1.669702050113797132e-01
4.137304792524800767e-01
5.890341951320960945e-01
8.264965144230274063e-02
6.092145344153696573e-01
-3.519974422107419176e-01
1.240933486069173419e-01
8.261766838374500210e-01
7.187019916119112839e-01
-5.905789385950783732e-01
-2.911410049167488800e-01
-9.212585343437029728e-02
2.906900264819789470e-01
-1.652218969132728255e-01
-5.194726734589127926e-01
-4.622683765030843883e-01
-5.306281027186376953e-02
1.906152478427260988e-01
-7.339351153865638633e-01
9.783290862798701415e-01
-9.738412366969639855e-01
1.564736510888597998e-01
-2.650554928961013079e-01
8.833647947957683488e-01
9.143271038915501414e-02
-8.064504807886607729e-02
-5.219923801601240587e-01
9.034665840009969973e-01
-8.778207685121253157e-01
-2.255647018255313441e-01
6.726900166025118200e-01
-5.790212538508310303e-02
3.161312495030015324e-01
-6.885075222734933220e-01
8.039305486310976967e-02
-3.578535497922918918e-01
-1.972771521260343608e-01
2.125891194012261565e-01
-9.121891889095945505e-01
9.682101613646802996e-01
-9.359981457841128893e-01
9.805124524183383983e-01
-8.765286633041329267e-01
-7.303566974620026020e-01
-3.941928098163813843e-01
1.236922260515540550e-01
-3.531148457727761869e-01
-8.423584370170196234e-01
8.743615652044283149e-01
-4.361967832855653260e-01
-2.536169895536999341e-01
8.961433117975849960e-01
-2.609424004766189853e-01
6.669469097539182378e-01
7.300207965616583028e-01
1.738753918446900304e-01
4.418038006655078398e-02
8.208480959847423986e-01
7.403652991701936692e-02
-9.762798233162810480e-01
-9.194495451275690456e-01
7.821738927313179879e-01
-7.202633727243230588e-01
4.666795903929312761e-01
-7.162916125464804384e-01
7.526135855279481035e-01
-4.938586152256747575e-01
-8.055226852761532275e-01
-2.468404032282951466e-01
7.982847999301676545e-01
-5.494146884958464039e-01
7.280359738592308005e-01
-6.318041663704048183e-01
-7.471025441322916016e-01
-9.050290005015320105e-01
-7.683434308841465832e-01
9.567107818737188296e-01
7.125614976214535989e-01
4.091333743833451830e-01
-3.331893415194069341e-01
6.800854277117422964e-01
-3.012233717875800743e-02
-9.800038763561831345e-01
-7.791877026024256470e-01
-6.981287921587364664e-02
8.108432788416806147e-01
3.442232296570524319e-02
7.886132003910353294e-01
7.942868765605681780e-01
6.530584505587810895e-02
-5.594398269578924054e-01
2.075964886530339282e-01
2.871595079026088015e-01
-8.991988078588522004e-01
-4.373150169377064689e-01
-3.121713951501339235e-01
-8.196222275209561481e-01
2.507937517685165929e-01
9.733292240437956266e-01
-1.021172910516365828e-01
-7.765356600638373408e-02
5.713895803363053805e-01
-3.578169034013696237e-01
2.168964572682070546e-01
4.096008143813747449e-01
-7.769473406642102287e-01
7.675229901796158938e-01
-4.278779298831725253e-01
9.153090672650616710e-01
-9.848379526170132348e-01
-5.850886488802489183e-01
5.045464208799412820e-01
-3.315434246327571000e-01
2.256516676871389571e-02
5.800872558801879464e-01
-2.165027371059591310e-02
-3.479242493051297735e-01
-8.110313716447095089e-01
-3.858484890862603489e-01
1.688179445302711024e-01
-7.370425106717313213e-01
3.513092367123107351e-01
-4.581749264310688297e-01
4.842413187776430927e-01
3.669898641946924833e-01
-7.393125873895873834e-01
1.933829935073048123e-01
4.852576307163334324e-01
5.213532116970265307e-02
-9.875141674091199029e-01
8.167232170599210139e-01
-8.186932884878306282e-01
-3.965713630655740563e-01
4.006696460736696164e-01
5.547667993190765756e-01
-5.081677522542276115e-01
4.995776592959795259e-01
-5.341202352024687627e-02
-5.084652670225573434e-01
8.450343141066516406e-01
1.724417624292029494e-01
2.154983590546066807e-02
9.185097482994641904e-01
5.902760380509874949e-02
4.593110876612711557e-01
8.169484681328369469e-01
6.389897742978576378e-01
-8.972368607650773598e-01
-9.516742384387915088e-01
1.935921427727309574e-01
9.243509830079135181e-01
-3.105807507996318773e-01
-3.645089035518878084e-02
-6.143031219219161621e-01
-1.251338400988479815e-01
9.770319735701382680e-01
6.663337525595525168e-01
-6.848413667511972225e-01
-8.693052323964645112e-02
9.456662712171579610e-01
8.250759925584751908e-01
-4.295156004198079636e-01
-4.025711264781282051e-01
8.304232600514942497e-01
2.168497243219598136e-01
6.168795887504348041e-01
7.372442344683254323e-01
-3.240274088490679993e-01
4.007385188421961342e-01
-4.014627782728334981e-01
2.213201575049950076e-01
-5.592227322493226183e-02
-5.600966111593994601e-01
5.750166600631485547e-01
-2.798339447766418076e-01
-3.116807128521863479e-01
-6.354461447827408627e-01
-5.671167033563406790e-03
4.889837437919151153e-01
-1.688539549928893546e-01
5.207423860851241315e-01
9.999400039646544336e-01
7.396639836453553496e-01
-9.943126880066741613e-01
-7.226024228713805453e-01
-2.566065808771267331e-01
-1.237898437342057623e-01
1.796159485508648235e-01
2.139055951841521974e-01
-9.956614007309538827e-02
4.132727426099622736e-01
-9.797647367737796209e-01
-5.058828811081683696e-01
-3.082517787417611288e-01
5.557572793019029955e-01
3.796086446040285445e-01
-3.221651147968085382e-01
-2.491434007595862976e-01
-5.689009312776176497e-01
2.355183200863424364e-01
3.882338516339236545e-01
-5.784747954692037730e-01
9.223061221351280814e-02
8.398709849344687672e-01
1.884029418469854722e-01
8.753317224988208523e-01
4.900919023484562320e-01
-3.860802304017048048e-01
-5.511063273461425105e-02
-5.350776584071570419e-02
-4.291568851184646149e-03
-2.908775722926295604e-01
-1.922317118522318680e-01
-2.445291330011130082e-01
-9.992587240912496060e-01
-5.536677553897950688e-02
-2.190519906662258265e-01
3.566663163575882756e-01
5.463676075149861422e-01
-3.742225244585450916e-02
-1.788281390304660157e-01
-1.860932926571430279e-01
2.693693854702647883e-01
-4.132135303279893535e-01
-7.945809867634248125e-01
-8.313882603652713588e-01
7.803469096856894271e-01
6.581091120057802613e-02
4.307524956224995094e-03
-4.988317499583423409e-01
-2.365818159508428220e-01
-7.328009867523688214e-01
-5.821953055800777044e-02
-5.671574543352906339e-01
5.454936361290658731e-01
5.198447919119921767e-01
4.684453074947185769e-01
-5.633092867700855155e-01
7.855896622841873622e-01
6.332749497127712068e-01
4.383490705255743691e-01
5.986479571252645293e-01
-9.492115319953511321e-01
-7.927234574090680219e-01
3.733314943145957798e-01
-7.484724296803486610e-01
2.041373448377854505e-01
-6.905993296409951299e-03
-9.018328975156928440e-01
-5.284035108315472407e-01
-9.477492900141404331e-01
4.983730619418507146e-01
9.627654161664485066e-01
7.401791540425384230e-01
1.449843708939146936e-02
5.474231127429740607e-01
2.739576955055755825e-02
6.953222132715259907e-01
-7.414812712917460136e-01
-1.741906739389871284e-01
5.252365416088502492e-01
-3.638701098761758512e-01
-6.634777155149460537e-01
-7.893268265319397514e-02
-9.384102007088812591e-01
7.391363484237463144e-01
3.040396453520872733e-01
7.000440307042656851e-01
7.067949393741315145e-01
-1.388993724911724570e-02
4.858669025565456323e-01
5.973198672509338891e-03
1.291127618611842554e-01
-4.606063048976842822e-01
-7.109111938315637591e-01
-1.654930378855248296e-01
6.202628525771425316e-01
-1.110090256276750065e-01
-6.891149837392438471e-01
2.937961797860817459e-01
-9.122469957050483025e-01
7.026876301997293517e-01
2.735983279538447555e-01
9.092071323278827499e-02
3.801937070768812710e-01
8.333580237094690979e-01
5.809718420264482486e-01
2.194260939264278676e-01
4.130918625096713370e-02
5.924189281423957176e-01
-1.515940493704373004e-01
3.240717203834446725e-01
5.877710070776560602e-01
-3.246022843941671621e-01
-5.051595507602959501e-01
-5.298915466972513588e-01
9.035102465178734832e-02
3.163248074828735046e-01
-7.904267325329783489e-01
-6.138680029739431721e-01
-7.168897276936092577e-01
-5.394325674058462194e-01
2.764325892559333919e-01
7.374170740903933652e-01
-2.118509740396044005e-01
4.968642297300893684e-01
6.051776894170195487e-01
7.861403453152371323e-01
6.895929792471502395e-01
3.954702572473329791e-01
5.338091847149373237e-01
-2.750772257096967266e-02
-9.653859170788767763e-01
9.670393756890023340e-01
-8.535646252354287533e-01
9.003351756030171238e-01
1.522465029231581113e-01
7.176744715755687398e-01
-1.353787717546421909e-01
-6.202137581490465568e-01
-8.002701195985628679e-02
1.463070096450542756e-01
2.591209182512814735e-01
-8.431557140142098561e-03
8.033198763374707063e-01
-7.890058710483569548e-01
9.300567000461379408e-02
8.750128754095540806e-01
3.514885089198691581e-01
8.154899112929325788e-01
3.290756229047291370e-01
9.270398585906707289e-01
3.703032642851986633e-01
-8.725526107646008889e-02
5.681367146579541227e-02
-1.701552088393507578e-01
-2.595395326364617894e-01
3.028761734306482101e-01
4.183220073674487338e-02
-5.949437397231882585e-01
-1.479857642040987020e-01
-5.973158074303166476e-01
-7.549064343101949959e-01
9.145087603065551463e-01
-1.451306479787584092e-01
-6.246614673331689627e-01
-1.087567241180558142e-01
-8.039935063189702635e-01
5.002254686469420619e-02
9.594071947722362381e-01
2.510921119360354226e-03
-2.943284676023110169e-01
7.578339950299020078e-01
3.243302783006962731e-01
-3.287765820874550826e-01
1.320132834823857237e-01
-6.349983239946861424e-01
-6.019967134551165167e-01
6.041319653147598778e-01
6.270907186516208043e-01
8.930024069666999686e-01
-3.084106377027948653e-01
-1.525238215316122581e-01
-2.559978252537571386e-01
-8.508923968474113586e-01
-7.108216989622850868e-01
7.083366568593740809e-01
2.108959672559123089e-01
-9.665082826515365433e-01
9.855267094901130065e-01
-8.482296055397273715e-01
-8.714665190194574862e-01
5.599768028958651556e-01
3.851275097770463507e-01
-3.730003627463820415e-01
-4.063579390862899210e-01
5.517714134110229818e-01
7.439523685992710522e-01
-7.057052141424529079e-01
-2.288422733305013335e-01
-2.088696008937516169e-01
9.628746661445197752e-01
-5.224006859746737064e-01
-9.129220513417246607e-02
-4.864452772374323608e-01
-5.862796383068746842e-01
5.959650955132240746e-01
3.024708256220189906e-01
9.473518987998903462e-01
4.074643385660712269e-01
-6.206556237682634425e-01
-9.799158271388601626e-01
2.647526862595470654e-01
-7.296621436990320397e-01
-4.147204486116842226e-01
9.746479325071344402e-01
-2.809452591253758236e-02
-1.849180674205976871e-01
2.058045797146197398e-01
2.427982933567018886e-01
-6.545332693971483984e-02
-7.919340675471888691e-01
4.773684504671680262e-01
-9.379369522069063159e-01
7.276611541192394839e-01
3.729656186958663078e-02
6.185095690188626705e-01
9.084196752701241273e-01
-7.442015712135086059e-01
-5.393124870614751654e-01
-6.421841198021269737e-01
6.331962055440121251e-01
-9.086795641692355652e-01
-2.765177703128778308e-01
-3.245620601129561855e-02
2.473356863161162433e-01
6.772233729355103815e-01
5.925997175984587528e-01
9.633012879266711348e-01
7.726022082051338113e-01
-5.695664881755901909e-02
-8.198503143317403818e-02
-9.277845178627173173e-01
-7.969224013922306948e-01
-4.869672401348783541e-01
5.006755370206346090e-01
-9.167441668819398259e-01
1.283278764419359952e-02
5.752818415321558909e-02
-2.086299628470833500e-01
-8.214098620946601592e-01
-4.740815668589075660e-01
7.174970334144159523e-01
3.960380591905354741e-02
7.331331765253972232e-01
6.007309769787805287e-02
6.743822661149483366e-01
-2.844217798063437552e-01
8.960485686374031200e-01
-9.454709082743031345e-01
7.965609275972007630e-02
2.957535971412534881e-01
1.082504883123496242e-01
3.476586997867185946e-01
2.482325077904070643e-01
-7.840478006176447856e-01
3.550797723003751294e-02
-3.129091325356805342e-01
4.959074739343105609e-01
6.939492550607038179e-01
-4.531774277245419480e-01
-2.477424927585138992e-01
7.925656125101905314e-01
4.491667715914884340e-01
6.449637725036942992e-01
-7.265169550885410832e-01
-1.666994859333736922e-01
-3.466424575457149881e-01
7.911415349045602952e-01
-5.839944908087821851e-01
-7.010988257777608368e-01
-4.259942137987506872e-01
4.888436401703919465e-01
-1.908963977132651646e-01
4.383593363788329533e-01
-3.261187401254661555e-01
-3.533916849631657531e-01
-9.492711727945934985e-01
7.966390993430125800e-01
4.186931444452972606e-01
-3.980668890733880527e-01
-6.887143995247475559e-01
9.238033845274415956e-01
4.246011641092635180e-01
7.011692245965741588e-01
5.344855484230803810e-01
-9.268422960070592520e-01
-4.521621084930282919e-01
9.206638563681148746e-01
9.551045341048263193e-01
4.875105854625332302e-01
-9.442908291916651820e-02
-7.999362289907274715e-02
5.407180484737896808e-01
-1.214314858146432474e-01
2.974780738853541884e-01
-5.882464400130467119e-01
9.950206593177073344e-01
-5.227473588771340829e-01
5.869790504501937178e-01
-2.217084617421838377e-01
8.728237466043275994e-01
-7.000328223639407099e-01
5.765952896288528695e-01
1.132604604184002106e-01
-7.559438609521533792e-01
9.284210756882327331e-02
-4.427905213053160427e-01
-3.430695999389683504e-01
7.479295059708390703e-01
3.487560216068543717e-01
1.690836177160985887e-01
-7.774445967954517478e-01
-4.921169552872108888e-01
-4.047402360785514741e-01
-7.921032697118437493e-01
3.424231122947691830e-01
4.679139935319369670e-01
-8.278601172629385108e-01
-2.453830005005006587e-01
-6.467789349728694237e-01
-7.664310179171944792e-01
4.572689907688989308e-01
-8.964979262964487550e-01
4.404534636231427491e-01
7.153398855363486408e-01
5.981207587053625208e-01
6.335869264655686894e-01
-8.868351276452823839e-01
-3.244589328861606781e-01
-1.489180004319590189e-02
-9.759260285166500015e-01
-8.335368641153231284e-01
8.024379950498106151e-01
6.158220090089889798e-01
2.964316220850498063e-01
-3.051673830826016065e-01
-8.274787256741586994e-01
8.704314412805669310e-01
5.091421154444808472e-01
-5.549950396597624902e-01
-9.570403070581059435e-01
4.481475951285349701e-01
9.278752635388647363e-01
7.605760114438298025e-01
-2.305131663208801474e-01
9.975422244235307989e-01
-6.559426645521799770e-01
6.393425182122596251e-01
-2.482593357688192004e-01
-8.355136314237481265e-01
-9.945684519976198956e-01
1.980693697411357590e-01
8.990378716848883567e-01
-9.708173223734068991e-01
-6.085777770027560596e-01
5.843098933230577163e-01
5.921842914854222872e-01
2.818820918994733304e-01
-6.447850927918150621e-01
-9.269124623652817974e-01
-8.112313949159384308e-01
-6.309745512986153493e-02
-5.411009178068946213e-01
-6.603822105837073853e-01
3.946300232864321522e-01
4.645630708827734878e-01
-7.251221211033411773e-01
-6.724152743851190550e-01
8.036168966704717587e-01
8.127565972621131341e-01
8.619988308563668600e-01
-7.026934373175741655e-02
1.945714447188384710e-02
9.246318498205785552e-01
6.546284828096060604e-01
3.951412093854815843e-01
-6.104362814889603417e-01
-2.818543460380058541e-01
-7.664574125815153405e-01
3.509636365258110846e-01
-9.074170202414881814e-01
-6.111828868963498085e-01
9.063770926353726942e-01
3.776394030907468391e-01
1.013270288559753318e-01
6.278258873054518574e-01
-1.246312431279417154e-02
-1.664994374128327959e-01
3.949753927063042180e-01
-9.035504945095957918e-01
-3.427687232376024351e-01
-6.055511578763597136e-01
-6.559857192046194552e-01
-9.230024890326629095e-01
-2.885479701040343237e-01
2.679748281662517329e-01
2.292581249137777277e-01
3.167006038502198084e-01
-4.040788555774863511e-01
-9.362645652178942512e-01
-7.066457361092244316e-01
1.645480014386957457e-01
5.391193350072738255e-01
-2.589630127158035755e-01
-7.532951332862511951e-01
-5.497088909044292038e-01
-5.366413918954477946e-01
-4.039321107779847431e-02
6.400968026724556115e-01
-5.600825516272649462e-01
5.218573459357978006e-01
-9.132164280379628796e-01
9.006170358233978046e-01
3.372212985133535845e-01
-9.544418435567474379e-01
-2.363570319255530183e-01
7.752572086052700318e-01
-3.761866625255854135e-01
-4.374906423647340059e-01
8.329769271980038692e-01
8.128190895703135688e-02
-7.189282901845592821e-01
-5.789730793190084324e-01
-7.445518515467597354e-03
-8.003342394452706010e-02
-9.877813914400610518e-01
-2.380067921838318057e-01
3.706676007016154184e-01
5.617513597373624545e-01
-8.799496078268191912e-01
8.736259869776112907e-01
-6.349997370119691009e-01
3.741179365936682100e-01
5.718902786958766082e-01
4.915028658846494203e-01
3.996543568378696509e-01
-7.121166607549598293e-01
-3.755991357075163517e-01
8.134779375456950845e-01
-5.611095595396535796e-01
-4.907462176829755496e-01
8.720286737379059350e-01
-9.729789409928408794e-01
-7.104025945301764011e-01
8.279174096679922101e-01
5.433045194635550690e-01
8.804978927255475707e-01
-6.538181842002415145e-01
3.970797127482768030e-01
-6.977341947392623478e-01
-9.199602382885747609e-01
5.646045295523143270e-01
-7.520230282640905095e-02
8.951623952094085457e-01
-6.553190807719335709e-01
-3.128844637639982551e-02
4.421849499908254710e-01
2.288701388640175249e-01
-3.025928512483360144e-01
2.233007295785127688e-02
-6.583562288074358282e-01
-3.214360407429164290e-01
-3.578505861451064529e-01
-1.756299797570259891e-02
-1.020823400634409683e-01
-2.936945876450114401e-01
9.495114455627193806e-01
-4.016397560468272232e-01
4.972464679954933242e-01
5.777680665842697127e-01
3.165584011569244627e-01
-8.267584949771178415e-02
-5.458548844030097769e-02
-7.039241078510365401e-01
-2.063617306908973603e-01
-6.318551301522090657e-01
-5.521235890354776465e-01
2.938771702155278387e-01
6.102630131402246860e-01
9.949625396443990688e-01
5.062909007681852813e-01
5.059472538801830233e-01
-9.940670052813733726e-01
-8.877284945579637654e-01
7.448342171093826902e-01
3.517781552448819848e-01
9.519209761354467947e-01
-4.720296202655154261e-01
5.821493823859118510e-01
-1.561522396671808366e-01
4.638749089236855472e-01
5.828594279992322935e-01
-6.186656928554652435e-01
-2.267661563603871056e-01
5.670850276280370306e-01
-2.576921440166834998e-02
-5.055411666370068779e-02
9.605505260520663668e-01
2.264301840577682690e-01
-7.349735142034852231e-03
8.132402291975568964e-01
-3.969867641723290319e-02
-5.901119771453582352e-01
-1.211561687007489674e-02
-1.414717648890730928e-01
-1.916321772529931966e-01
-9.568512924361032290e-01
1.730870048391550675e-01
7.026192706967351320e-01
-2.928360165891381595e-01
-7.336461579118669363e-02
-3.388020029946918754e-01
-4.387719984172187004e-01
4.980343129333730801e-02
-3.484459426919912506e-01
-1.512364171259441559e-01
1.640418805687247072e-01
-8.643368509444429026e-01
6.193715132402382029e-01
7.459077000694005477e-01
-2.098992118165523557e-01
-2.100480209213211324e-01
2.672412794611924713e-01
2.376222396261280512e-01
3.658370001386006543e-01
-7.693847009247265500e-01
8.527392418411341435e-01
3.000097676438870931e-01
8.590965513954247346e-01
5.589114868447548901e-01
8.298158637676589233e-01
-8.770921340999637827e-02
1.148188777736400823e-01
-9.663182260260001488e-01
1.695111543753502481e-02
-3.753307042884492795e-01
-4.294672784560971124e-01
4.625244395179473056e-01
8.033650472514393126e-01
-1.777915388086108717e-01
-3.159244112532544335e-01
8.669067223875324135e-01
8.232957548041373030e-01
-2.782786801535195309e-01
-2.521449563339417388e-01
-7.559724629809509988e-01
6.322576164727380377e-01
-9.711374029858403922e-01
-4.634862894114508691e-01
2.372900287462271773e-01
-5.393424168757865456e-01
3.713107764388514642e-01
8.564695033807367963e-01
-3.638304938928804688e-03
8.910960304850277236e-01
1.106147818795291116e-01
-7.159971985393291938e-01
9.516182420206720227e-01
-8.997456899796929530e-01
3.297887837899660113e-01
-4.816036313919231926e-01
1.580841577943092879e-02
7.439843582745371275e-01
-1.975778479980994096e-01
-7.559503019916025135e-01
-2.115613665858957493e-01
-2.145591518501621664e-01
5.639810088787062803e-01
-8.108495366908747837e-01
-2.213984061818059512e-01
1.838053762918325784e-01
-8.320344569830726567e-01
-7.118774663518210311e-01
7.668937167515104125e-01
-4.945269948255390791e-01
6.896287673622469860e-01
-9.234473373239595606e-01
-9.679527727406831428e-01
3.560776904318521119e-01
-5.286739576711374511e-02
-1.897441688332492937e-01
-1.687007735102339367e-01
-2.945464023459072322e-01
2.066359081457795899e-01
-1.740727541129734046e-01
5.769841559705060074e-01
-5.751691283769453378e-01
-1.989919614271455917e-01
-9.879319714804362107e-01
-2.706882645242372210e-01
5.645780161480622450e-01
4.465349950097030618e-01
6.302166004897171714e-01
3.616093380919549460e-02
5.162888300173980038e-01
-3.995046489082165753e-01
6.873463362518783537e-01
4.573054047211577711e-01
3.539358365117808436e-01
3.469809585064980162e-01
-6.545649643978856957e-01
7.058722861474999721e-01
-3.695830489194991131e-01
4.154468862864562073e-01
-3.664671901390699205e-01
6.679138653209715226e-01
-1.586744080645556831e-01
7.614805675756115555e-01
-6.555012740526775517e-01
4.918562834140680629e-01
-8.046576973594172788e-01
7.416390894554969471e-02
9.658168526322667979e-01
4.313493901148324206e-01
9.263533715577865202e-02
4.735257043258798149e-01
7.108591860436368481e-01
9.521868553394385870e-02
8.932114045308601202e-01
-6.943948451495638441e-01
-6.227572022652574368e-01
-5.886061301558032088e-01
-2.571056239106126462e-01
9.386790487890595003e-01
9.952405903373406915e-02
9.465902548111793102e-02
-9.460314777012266418e-01
9.705599322472728829e-01
-9.620131634597577364e-01
-4.074972817484563414e-01
9.719901320050057247e-01
5.334645061641927200e-01
1.953202252513586146e-02
-5.739973469088255342e-01
4.871701302747111217e-01
-8.867561674703487995e-01
1.749829102714492990e-01
6.105196545809021824e-01
5.991535908453620163e-01
-7.235610906843861212e-01
-1.883859503705762606e-01
6.828645536599851074e-01
9.017433915616768214e-01
6.021363355482318713e-01
-7.167851202177486503e-01
2.389549482934720803e-01
-1.056561152004229509e-01
-3.028940523950471864e-01
-9.190942463300397769e-01
-8.262610172264195363e-02
-9.194197691816432538e-01
-4.016354595649282988e-01
-1.212892931897524562e-01
-6.372295578661892890e-01
8.946643290033144957e-01
7.910113865729699878e-01
-6.535988942786865596e-01
2.014093327791459664e-01
8.111659320216220159e-01
-4.478226214321745502e-02
-8.205152994253239740e-01
-5.385011454181118928e-01
-2.458287007246213740e-01
-5.612628647174637830e-01
8.599149524500200314e-01
8.031395977298287914e-01
3.585541296135639211e-01
-5.708874420119474102e-01
-6.435308026059538555e-01
6.567943465089032262e-01
8.356234469307262103e-01
6.627643731685595174e-01
1.668158262396977065e-01
6.481394436712850649e-02
-1.509679166257376082e-01
4.925203307741075065e-01
-8.065383851776444235e-01
9.195813292741132905e-01
7.613373504057061592e-01
3.559595854029096174e-03
-1.642133891177590677e-01
5.684340898112492102e-01
2.102943937871029068e-01
-7.268700336364086745e-02
-4.808730138256227526e-01
7.770908525794486543e-01
9.176509943464918884e-01
9.011811683606190115e-01
9.467927481037070603e-01
5.654374766922269924e-01
-6.589066592170680359e-01
-9.645185758409289267e-01
8.087189806313037632e-01
-9.884732687756512259e-01
3.432935867360884519e-01
-2.695259891252499429e-02
1.118162173339642962e-01
-2.902880221596131349e-01
-1.651879803595663887e-01
4.252545953255222333e-01
-7.848484333571477123e-01
9.612193802779445129e-02
-6.916783400418935468e-01
-4.662815373472855018e-01
8.149932184425094928e-01
-4.612289442430639319e-02
6.436473783782645786e-01
6.730188088969502047e-01
-9.702844661798897263e-01
6.671049493737544189e-01
3.930593520247465111e-01
9.128802947933161160e-01
-5.395781633426690593e-01
-7.172242167521545309e-01
6.176129152402869416e-01
8.591760132487147317e-01
-6.364979801812584714e-01
-7.834834669894155113e-01
-7.249468145112802908e-02
-9.648106049099112180e-01
-6.639174641708107671e-01
-5.607286589580360303e-01
2.602397379588710091e-01
4.387379033386613614e-01
4.018508988524176484e-01
5.123307617290215887e-01
3.715413876401238991e-01
-9.129095869872885238e-01
-5.748922438182444417e-01
8.837516585072671127e-01
6.401208275175336304e-01
1.483361882172085089e-02
-6.805528725245615362e-01
-1.909100508410910280e-01
-9.645778710200303419e-01
-7.979929288391134357e-01
9.962800087572174501e-01
-2.722992014783365278e-02
3.838922126915966793e-02
-2.267821460815748758e-01
-7.714220918929370896e-02
-6.942002615509235142e-01
1.828251794343427328e-02
-9.082798565890013442e-01
-7.210781751627108882e-01
-1.429672437061408896e-01
-1.547707875157791069e-01
8.424647713655522008e-01
-1.914031398211406554e-01
-7.428914986235242157e-01
-4.861567701564146748e-01
-7.641746247574607853e-01
9.147976482284259081e-01
8.074549000281263655e-01
5.784614420735381124e-01
-8.112702266958438102e-01
3.676514333763825082e-01
9.419467922572011265e-01
8.698674659993990144e-01
-6.557691139120933599e-01
-7.149965518489298510e-02
8.696220178790261546e-01
-5.867384843243206305e-01
-3.292157277141316563e-02
3.390579918751854827e-01
-3.788446061346872895e-02
-6.204673154550766068e-01
-6.404727197713855347e-01
-6.486381411939261543e-01
-3.001670431960401508e-01
6.811798375719517740e-01
6.223116087271831631e-01
-3.652864110816949061e-01
1.759972560782043782e-01
-8.006543457644763606e-01
4.430520285301970951e-01
-9.029409618673462923e-01
-4.197077052911870609e-01
4.753483666537829944e-01
-6.576579214743809576e-01
-9.126739600523727791e-01
6.611260954057838202e-01
9.142196484523885669e-01
8.294207160706197346e-01
-7.212547617110995901e-01
-5.864488340630005236e-01
-1.467620715665511888e-01
-9.871813793232220302e-01
-5.535423926517626381e-01
2.764666078131783333e-01
9.298765727182094487e-01
-4.507703612399036608e-01
1.817949911691705278e-01
-4.819854160722860659e-01
8.777244862275392911e-01
-1.331461111763956318e-01
4.278566452103955697e-01
-6.784052882824340713e-01
-2.172492848846228064e-01
6.916913705456306793e-01
5.520488827033465107e-02
2.679926610896870010e-01
2.869950236748410877e-01
1.477208932070011027e-01
-2.378274138459335330e-01
-3.943604870953709707e-01
-8.978593104686520832e-01
4.375477102833300602e-01
2.781883924392545282e-01
-9.606647134968984147e-01
6.737043157050615072e-02
-3.428296453540069511e-01
-3.861426270818224538e-01
-9.327472282189799291e-01
3.066036047791060870e-01
-5.839820362245955465e-01
-5.204002318963363294e-02
-7.803789586805314205e-01
-4.604768345975931432e-01
-9.434736511524024483e-01
-2.448816621524891879e-01
-3.765403171819707850e-01
-8.713622137377023957e-01
-9.243897646108425459e-01
-1.441006473960908529e-01
-3.462731524579558684e-01
2.424422310774849709e-01
-1.047760675607480874e-01
6.187363086888770791e-01
9.599199541535339275e-01
-3.570599232932225586e-01
-5.424334816959131000e-01
-6.281205777219245334e-01
2.747358315717640664e-02
-6.417875959289185417e-01
5.528207467635741779e-01
1.487143837197069107e-01
-7.047143466467236106e-01
4.877406058259181609e-01
7.069870150122312680e-01
9.241824069145458953e-01
6.921464621230206671e-01
4.636090299815198712e-01
9.201523555850468217e-01
2.413731756585368871e-02
8.514181361198132070e-01
-1.851667043302356319e-01
1.407997318580558321e-01
-2.445909198294107245e-01
1.623402057589731218e-01
9.484937880453949699e-01
1.511290696804477030e-01
5.410674792134548827e-01
-9.535562365635743554e-01
5.241406302625961633e-01
-4.874303859531281535e-01
-4.693396922770407542e-01
-3.338390382265910006e-03
7.314689666998430706e-01
6.292515716238715751e-01
5.183941861580505517e-01
6.936105969903971769e-02
-1.997278115351663885e-01
8.631181557142131311e-01
-1.702961679344365820e-01
3.409466426730605182e-01
-6.837033688812721444e-02
3.178750113787369713e-01
3.736044559520652619e-01
8.593967826691590872e-01
7.862949392763980416e-01
-9.110210594302083909e-01
-6.662535922386607634e-01
-3.770537108640901192e-01
-2.730388018298106623e-01
-1.472084814799423658e-01
-6.057297554932776773e-01
-2.694531602233170009e-01
4.745219547711356789e-01
-4.824797513740795019e-01
6.910284527180869940e-01
-6.919206930811474532e-01
-3.719554326460330351e-01
-3.620831280694913890e-01
6.778120496622039859e-01
9.856403662324688675e-01
5.577960808461401854e-01
-4.751191534569405572e-01
-2.084983470810179984e-01
-5.618442406300281355e-01
8.194346679093613695e-01
9.638591084152736688e-01
9.933720646978758673e-01
-8.472513081101578081e-01
-3.621001789190199105e-01
7.539002548385642655e-02
3.507833439526746311e-01
-5.988954816626756994e-01
-9.361842599791321273e-01
-2.638148949821188527e-01
-3.105668139521000626e-02
8.776121412594757309e-01
-9.003639395342317719e-01
-4.673184789469562173e-01
-8.646295354265192135e-01
-1.513005762390289277e-01
-2.582146943169469910e-01
7.560274378379139293e-02
-4.387946896230530136e-01
-5.215274687681101806e-01
1.908844336724515589e-01
3.200475067268011564e-01
4.728251342466582852e-01
7.742056211340042626e-01
-2.753619932843003326e-01
8.010924244904704672e-02
-8.128284481898340186e-01
-6.891796912025685007e-01
-6.834460656816054858e-01
2.896545414391340501e-01
5.059619091384663925e-01
-9.085931742992121585e-01
-6.759997236038262081e-02
6.583611662740285198e-02
-8.101481175865059559e-01
1.134933093712280350e-01
8.875616795230363287e-01
-3.293837059322364258e-01
1.662337606037607163e-01
-7.232761234768407821e-01
-6.157802383511161715e-01
-1.346263559419580425e-02
6.607647603686193083e-01
-9.736632520891153053e-01
6.150889791363265413e-01
5.279038897014558529e-01
-5.635799050780083697e-01
7.588918313372876590e-01
1.285514408311689838e-01
-6.235044335012005501e-01
1.599519645116835864e-01
8.022231583262482424e-01
-8.729982468105366156e-01
4.268950230306067795e-02
-7.168503268127235373e-03
-5.018204385345303997e-02
4.948608142290973344e-01
-2.936933409360964475e-04
6.803206388515377068e-01
-9.268367628902649535e-01
4.717104404314178545e-01
-2.420102383000786173e-01
-1.151691928169096268e-01
-9.232479909765833881e-03
-8.992403116873615154e-02
2.329570044572433218e-01
3.366369520633223367e-01
-1.256827575661851881e-01
-1.739906818032075364e-01
-3.774216848451554807e-01
-6.884566421619926491e-01
-4.265256960161449840e-01
1.640837385645554924e-02
-6.890105375636659257e-01
-3.436232630813336186e-01
7.507866292102991501e-01
-7.482140119235247688e-01
-1.985223315380928444e-01
-6.113600862726809027e-01
-9.211099277299159560e-01
-2.609797970350526963e-01
-1.467203323609018728e-01
7.060965901604112638e-01
7.103604216742303024e-01
4.285559424458311728e-01
5.498058264787806237e-01
-1.995573314158363143e-01
9.138989925640244039e-01
-4.606301341542997640e-01
-6.998752414913722575e-02
-6.986309171676541308e-01
-4.211884700737522635e-03
8.969293605948247539e-01
-2.867995788078867569e-01
-9.646479903749303197e-01
6.165106715227717249e-01
3.078770655865039618e-01
-1.131488687436357221e-01
4.894794510958291323e-01
7.197667076135607633e-01
1.950563031760066401e-02
1.581585692014200184e-01
2.036388958245824998e-01
-1.208890441865775323e-01
-9.682186135879473632e-01
-4.734847650160034505e-01
7.724496363779520536e-02
-5.415377690033780222e-01
-4.469546872478298294e-01
-9.037485033770653597e-01
-2.227597738994369081e-01
-4.681769667135500246e-01
3.243446363533983856e-01
-5.933235885797409903e-01
3.158205575448054248e-01
-5.225692314339014377e-01
3.264402055201931496e-02
1.857681260629240327e-02
-8.118089563384813800e-01
4.592292245240583437e-01
1.143756181834634233e-01
4.189979482710188829e-01
-3.296047088415985371e-01
-9.648985594527570431e-01
6.625982552793840963e-01
-3.175772395150811001e-01
8.149693245752795967e-01
1.639032208339710195e-01
6.428581580893595326e-01
-1.482419352648269850e-01
5.989291227016670938e-01
8.423376627948973017e-01
-1.307233004788346253e-01
3.887099335140455914e-01
-4.879004144752789873e-01
-6.847882186453135844e-02
-4.470446504639118412e-01
-1.700716977883209857e-02
3.732576014979946954e-01
-7.964645777443095653e-01
8.536033979941084482e-01
-8.892382295804912573e-03
-3.424459794243259747e-01
-8.194610352014120025e-02
7.725245029392142637e-01
8.079337802964694504e-01
-2.486508347798681573e-01
-1.910930260202001740e-01
-2.668668118374375453e-01
-3.757716118576019948e-01
-3.965385615611878301e-01
3.786009571347406233e-01
4.918243247859237499e-01
6.540293386950146726e-01
-1.610536050055513257e-01
6.405720254038631545e-01
-7.489331254153082096e-01
8.333728543170091374e-01
9.029352510628041451e-02
8.027702373633616162e-02
6.877156116706066857e-01
3.002212120061948930e-01
1.915013510811478525e-01
7.824332968699232449e-01
1.780750824278805045e-01
-5.901878915560969663e-01
2.421800849858022353e-01
-1.467765504970430790e-01
6.386949625463542723e-01
2.473649725150992573e-01
-5.968608432391182550e-01
-2.037322550806515142e-01
1.388501200118799073e-01
-1.173553857090616770e-01
-3.551852190042572577e-01
-4.700393388146013596e-01
-5.548318699615018001e-01
-9.311481284412947979e-02
-3.042731971026690907e-01
-4.904353349303234300e-01
-7.915962342660094464e-01
9.770150254518972233e-01
6.709529810419090357e-01
-2.983343334109771483e-01
1.322742062739401536e-01
3.964128705523728424e-01
7.294963784456660605e-01
-4.963243040807083784e-01
8.481502306909343147e-01
6.564125009095456154e-01
7.398750697293388079e-02
-7.329486877504778342e-01
1.262261449573625072e-01
5.211384256428062134e-01
-6.342912424162896468e-01
-3.206865793595250480e-01
-3.276437718462548165e-01
-6.610458540912833580e-01
5.072568454800283622e-01
-8.405889292478563313e-01
-9.050048757422848311e-01
-4.377370056417084765e-01
2.936116268253208261e-01
-6.748543612950628212e-01
3.224895884220380093e-01
9.364755213576743120e-01
-5.494464372894689586e-01
8.690403290269932413e-02
2.004254355686903022e-01
-1.178991958105441995e-01
5.789478926031066397e-01
-1.660605298605890567e-01
-7.113340354436823443e-01
-1.926004053788468173e-01
4.231026743291019798e-01
9.226859475297395363e-01
-6.659478363406114987e-01
3.034712490763191717e-01
2.863289318940096528e-01
6.443768346622598120e-01
-7.289314242299407276e-01
-7.009568168708932845e-01
-4.993870641327315951e-01
-4.736187167389562802e-01
5.079401641449878824e-01
5.011405806085633685e-01
6.046412700969669984e-01
-9.846729395197073575e-01
-6.535028597813725693e-01
2.757061833525873418e-01
-7.403124886816956352e-01
-7.241328775233075721e-01
-2.802172106344464897e-01
6.061102560996938227e-01
-2.339284526473284220e-01
7.277091114249656378e-02
3.570327968014943565e-01
3.498178374236160515e-02
-4.969155582804039017e-01
-9.421233246785647442e-01
-3.307668545901361057e-01
-8.916583000512534607e-01
6.269290969216989584e-01
9.610970840061809906e-01
4.543129894050497164e-01
-2.790965360845552024e-01
2.536396498950268530e-01
3.221400525174522578e-02
5.111631819922857201e-01
7.051519872474900641e-01
-7.511082484988997887e-01
3.684117317235588995e-01
1.460771029672505161e-01
1.329244992746796417e-01
-5.176600156627633176e-01
-2.126772888814976170e-01
-8.647930616798786829e-01
4.913589313581903095e-01
6.283368852150374995e-01
4.101272588796429641e-01
-8.632006655597794786e-01
1.851682930028939467e-01
9.883968506577098800e-01
-4.763047992990276924e-02
6.774023476932182763e-01
-4.131684900380161451e-02
1.101771828921023211e-01
-2.605413091791959346e-01
-6.222087499077770811e-01
-2.584289578127749731e-01
-6.165788468449495685e-01
-3.832275693450517551e-01
7.880042487975189580e-01
-9.902253684924677835e-02
-5.542783700624247523e-01
-3.087917847742396305e-01
-1.079340082938768930e-01
-4.106750198453794631e-01
9.628691378586846650e-01
-7.007520129331614722e-01
2.101383149708038189e-01
-2.047688771387234929e-01
-6.561005922862919171e-01
-7.281037512710648585e-01
-7.395635363790871164e-01
-4.714893415861067805e-01
-1.066097842827071762e-01
-6.531155579244194431e-01
7.832129362391282434e-01
-6.997103551895289542e-01
8.202854707301030501e-01
-6.102605228441244645e-01
-2.339730743974695049e-01
-4.110700720871154346e-01
7.913509507622409345e-01
7.500696631243042312e-01
5.168948490298803655e-01
2.469876898660816611e-01
3.944591103186436687e-01
1.826281551943411685e-01
-1.556346103151120541e-01
3.326549182269871174e-01
6.719480522999052852e-01
2.573948087621831249e-01
-4.014423747566422396e-01
4.257190659065894778e-01
-7.446013153277131202e-01
-2.390531604636536578e-02
-8.781115723389885108e-01
1.725720400460106774e-01
-4.746601685830975637e-01
2.390953303896552473e-01
9.050577383747460125e-02
6.829597720856808163e-01
7.295128993716175625e-01
-5.231257128003981016e-01
-8.494978143220259792e-01
4.442150345108393239e-01
-9.450872056569670221e-02
3.006019701977471481e-01
-7.858202494920303316e-01
-3.734998819793191593e-01
-9.215975911924114694e-01
2.436233826530571633e-01
9.218902118114458144e-01
-2.988250744528797576e-01
-9.516356777503216513e-01
-2.725193897090938400e-02
5.004582503700332197e-01
-3.610548045493593428e-01
8.422555449472002298e-01
-7.768403384663269406e-02
5.115805516273614906e-01
6.360482690363531422e-01
-8.707459178728038651e-02
9.120492003421665217e-01
-3.663712786215422845e-02
8.153922106320687924e-01
-4.530183246731833702e-01
4.454328748469056354e-01
7.974110291509399762e-01
-3.958509573055168929e-02
3.651967098059993866e-01
-6.280086835164302439e-01
4.040240315185565922e-01
-1.707413828839106085e-01
2.328403405098784518e-01
7.095084527090600446e-02
-6.924498939800383113e-01
3.579533869124484902e-02
8.238719453008034321e-01
-9.094513821613849913e-01
-6.038637895662013477e-02
-1.730193288423085285e-01
2.067966009544539574e-01
-3.774579486451234978e-01
2.624985338021583736e-01
1.997100156436288909e-01
2.470408986132448526e-01
8.822542351198461308e-01
-8.471222337576886918e-01
9.811088932990494893e-01
9.343791268864465316e-02
-2.717123264433598528e-01
-3.422594125766202922e-01
3.364159939562918478e-01
-3.517049820560191886e-01
5.068413101663371556e-02
-6.382019638575391340e-01
-7.642845250316241401e-01
5.824059695183638752e-01
-9.987855606508209139e-01
5.055093455447579043e-01
-7.009508548101230918e-01
-7.943567792251200466e-01
-1.727074001087214317e-01
-5.317430521719914704e-01
6.415218361926953161e-01
-3.143273357133158363e-01
4.743035727315880745e-01
-1.250158501305231873e-01
9.928850847653998279e-01
-1.157789405075448919e-02
1.229207510142329429e-01
-5.804895493854613786e-01
3.955569419827298372e-01
7.014891017346180924e-02
-3.600387888549803073e-01
5.954776287605478835e-01
8.202114042836752272e-01
9.068531991399571002e-01
-9.270817665370481020e-01
-1.530068765127226005e-01
-7.634544433982859424e-01
-1.557483799960412973e-02
4.908382816791758696e-01
