-1.871465189204475355e-01
8.678374987823704867e-01
-2.082349572645252334e-01
8.601804550895080226e-01
7.022935518884207973e-01
3.184164037326138175e-01
1.808422738261779017e-01
5.387677269084258924e-01
4.496860075949915547e-01
-4.827838593344997431e-01
-6.708436709001397436e-01
4.080518407269568826e-01
-2.901066557764218068e-01
7.224539081737608726e-01
6.769149373904226330e-02
1.384712812540891402e-01
4.438281484833797030e-01
6.886579775407166704e-01
-2.781806513349844856e-01
-5.080444389680585093e-01
1.822018351866607766e-01
6.443516768598311906e-02
7.856271675806076882e-01
-3.134447795374528667e-02
3.498462441310545845e-01
-7.752758498382357200e-01
-3.638629327563132065e-01
-3.438782272029830001e-01
2.834592238060009706e-01
7.669370967411484052e-01
6.353609059156013483e-01
-7.504139035932968493e-01
-4.537374815757244662e-02
9.299552907092811793e-02
-5.722558386744820424e-01
-6.543668366172439299e-02
-6.650632863900318714e-01
-2.321931186383683343e-01
7.771433787856860675e-01
9.648721245116058665e-01
-5.455694720266590636e-02
9.964239291491485684e-01
8.044770999925443533e-01
-5.981896280279013212e-01
2.741830229395616492e-01
1.754989987549504526e-02
4.470609186448375461e-01
6.232170399710503794e-01
6.424850445054339776e-01
3.343943309936605601e-01
5.649804050419988677e-01
3.326447598924966442e-01
1.160008277899500229e-01
2.693649976859548989e-01
-9.871725949235363728e-01
7.707493029193670520e-01
-9.914025337111218583e-01
-2.330360234756752025e-01
6.031402486175485578e-01
2.295690981339848502e-01
-6.870219461301492192e-01
9.445537403412564981e-01
2.520202634305401812e-01
3.004053973819518220e-01
-3.533924168388753451e-01
6.035136736772908073e-01
-8.014789967793389813e-02
-4.724909695277323962e-01
-3.083490340151346931e-01
2.313624693227580575e-01
3.447199895670345349e-01
-2.789528836483223806e-01
9.637970181243058487e-01
7.690480023941521637e-01
-6.880248273992390917e-01
1.569832754982756207e-01
-4.477491639456219197e-01
-6.669834143855135622e-01
-9.022566020170628143e-01
9.654097135703036958e-01
7.919900795559569051e-01
2.081744830745364538e-01
4.930254712114401361e-01
3.070670301354443410e-01
1.305891106037693206e-01
4.044070293892898516e-01
-9.152941474042930459e-01
3.431932773186963104e-02
9.193972628899935717e-01
-3.905628111588397289e-01
5.572198763798623666e-01
-3.961347702569031348e-01
-1.279460581457478874e-01
2.088651170666149248e-01
2.512785302604871873e-01
-6.322976952933427874e-01
-3.131131645475910830e-01
-5.640370224580444347e-01
-1.259218664934522725e-01
6.771546842058360216e-01
-7.253027373307086023e-02
-2.770623159266032420e-01
6.544308921785604305e-01
-5.279989486801579535e-01
5.630686941456439776e-01
9.061130086429864949e-01
7.034852682254253420e-01
4.424970065122875162e-01
7.038464629972633890e-01
4.742503846879952967e-02
1.310642386817835181e-01
6.306194344969660026e-01
-4.806125674200181219e-01
-9.512346620516671791e-01
8.771196487030228361e-01
9.129290832241254705e-02
-4.269448902823043124e-01
-8.593926444927910691e-01
-6.168808660878439820e-01
-6.309744675488890842e-01
-7.975211319953114941e-01
1.083924411419237011e-01
-9.020931438028740867e-01
-1.613704325562281827e-01
7.722538083167351797e-01
-2.186938777655573762e-01
-2.038944962686506379e-01
-2.378348103035707872e-01
-9.787891194373166126e-01
-4.191449043829094112e-01
4.847121029241161505e-01
-5.167499682530323213e-01
4.916694046017822117e-02
-1.054840915328505435e-01
8.862052958078492360e-01
2.428572265870880820e-01
-4.478621556478099563e-01
7.298090157274681467e-01
2.532622775268349447e-01
-1.398391475609876977e-01
-6.173838364681338842e-01
1.705087587735096832e-01
4.929765163974668685e-01
6.373948643556419658e-01
5.642514615967058056e-01
-4.071915853228063042e-01
-3.278330023799080895e-01
4.512626808197190975e-01
2.562502597500384560e-01
-9.537600737257203587e-01
5.078652961878387107e-01
-4.027504977545368625e-01
-6.870263667272238362e-01
6.273489133043070876e-01
-8.496220919326964438e-01
-7.027543191258962541e-01
8.078481607039404988e-01
7.311988336627222029e-01
-4.360930227419923533e-01
-9.316561950062491881e-01
8.593187877442916012e-01
2.096452571573055312e-01
-9.239088704693843024e-01
-1.633800735152295402e-01
2.290404069943496879e-02
-4.902209228812572928e-01
-6.632458717190616859e-01
-8.700289571033328340e-01
2.710589337644453423e-01
-2.043956656401892946e-01
-3.112965308328687897e-01
5.282146765491280149e-01
4.573647526505324468e-01
-1.842555750267322878e-01
-1.623657294646922988e-01
7.378065345165323308e-01
-7.770485790840879758e-01
3.206861582680151646e-01
-6.291508252828441616e-01
-2.042521091891256191e-01
-6.283288253401804191e-01
8.052970124109746219e-01
-5.230626197588905679e-01
-2.402135886302412260e-01
-8.647324692727862416e-01
-8.772045744984346971e-01
-5.527421235907490349e-01
-3.743190587748215226e-01
-1.651562522023082291e-01
-9.244209119260091700e-01
-2.115464781030167440e-01
9.324830431018968913e-01
8.278273044320729745e-01
7.363749034145814498e-01
-8.419939890992034215e-01
-4.634067673542960897e-01
6.717155666480900678e-01
-9.035989050073676143e-01
3.929590706977759140e-02
-3.314469028416588969e-02
2.326536519408619608e-01
-3.569190813769724802e-01
7.945516400341816610e-01
-1.877369834087578848e-01
4.175072004935433956e-01
-8.392504598379415537e-01
4.552235228619394558e-01
-6.583364874241961484e-01
-7.268460828221843251e-01
5.912197459896828544e-01
1.323010733181666509e-01
-1.614482079893868605e-01
-4.246841110774624006e-01
-4.428364103571535981e-01
-4.276926677275594280e-02
3.524038508444586881e-01
-1.418676274969654649e-02
-6.175674549273431069e-01
4.327433908792883699e-01
-1.088126649739962204e-02
6.946446155343120044e-01
2.525749442932223587e-01
-5.899996009303472011e-01
-1.328877213006212088e-01
1.302882548283965658e-01
-4.323583595516680145e-01
8.442134347554670626e-01
5.928168906891786438e-01
3.253239425980773980e-01
6.676453430332915939e-01
-4.370694510999453275e-01
-7.297618188488019797e-01
6.559878757820574169e-01
2.616128533603609974e-01
-2.248511418947414242e-01
-7.069048496721768160e-01
5.275178143682597298e-01
8.353249139943648149e-01
-8.589781607697364318e-01
2.871743530844006465e-02
-2.714847489464817798e-01
-4.875701334428514944e-01
-6.306685084277594555e-01
-1.735739946632011144e-01
3.587490335479275316e-01
1.340513555826621239e-01
2.378801106893633222e-01
-2.358280861808421669e-01
-7.578004779743536812e-01
-5.009842922468368265e-01
-3.062615012148328653e-02
4.235931836011153084e-01
-3.583236032556620376e-01
-6.526283962097529923e-01
-2.702208206909739729e-02
-1.414885045970715183e-01
-6.951072003776139763e-01
-9.910020428105348334e-01
6.716588315636613515e-01
-6.942430324037718314e-02
7.119975284398605275e-01
3.120293072957562863e-01
-8.703143623494205006e-01
-9.300156256260176946e-01
6.007244133894653615e-01
-8.401561659659875225e-01
5.405741726199158048e-01
-5.890437815820355194e-01
-4.896018578195269200e-01
-7.053125742071377768e-01
-7.463915389005915113e-01
2.663545205937720706e-01
-5.380252875457609552e-01
-9.149759495230469497e-02
-1.600332391550556288e-01
-7.450138652946391993e-02
8.456869182883797187e-02
-5.593795893062534219e-01
8.505106411496163865e-01
-3.664243457982958585e-01
2.347945945851890315e-01
-8.328906442003765065e-01
-6.754101548680009337e-01
-7.650870939460858722e-01
2.848547856712309034e-01
-8.676809538470362515e-01
1.541104681359768414e-01
-5.094529009008668119e-01
-5.958806149450559531e-01
2.994394148354073693e-02
-5.419001803053962174e-01
-8.874897228743097166e-01
1.260088341433398540e-01
-8.079604275942791070e-01
9.824189827956031351e-01
-5.419571594024485961e-02
3.994503051079918432e-01
-9.491250498737240360e-01
-5.887514430890392614e-01
-3.723617096616149702e-02
-2.867166934372504805e-01
8.865254834070410705e-01
4.275592530614913400e-01
3.845059541360340560e-01
8.385916693571093816e-02
-2.914408812939586202e-01
-2.982400071660471497e-01
-9.996969214383277791e-01
-1.269566606166996348e-01
-3.360550480908961468e-01
4.099412769437569271e-01
-1.748955337998829851e-01
7.489891540376432122e-01
-5.694548228083546881e-01
1.903944336993015352e-01
-7.136038974324470097e-01
3.015713659247416523e-01
-5.249391649800336790e-01
-7.552310572861360427e-01
2.655957270467665943e-01
6.573836523105192065e-02
6.616123748519355807e-01
7.570121346711780053e-01
-2.071851187238125114e-01
-7.552413638428050469e-01
-1.895005466132333449e-01
1.837957876432867454e-01
-7.880111612975906343e-01
7.908502567788475712e-01
-3.097598219852844004e-01
6.852863643890905188e-02
1.903217452367389484e-02
-5.215738119961232933e-02
-8.063121249925584433e-01
-1.316456490513697730e-01
-6.669089277368898117e-01
-3.089362149764305343e-01
-2.858995502775560915e-01
6.336164898654699229e-01
5.093439733579119277e-03
-5.455913207760803019e-01
-7.193518138169237019e-01
-8.361979400926748962e-01
6.495301730826650299e-01
6.032187984155399363e-01
1.054611300686731923e-01
-8.804750331030448685e-01
-1.332395764810854200e-01
7.337408547006529780e-01
1.807285227253292437e-01
-6.523777369791816660e-02
-3.570678467798571454e-01
1.551972546050170987e-01
-9.021424039923098270e-01
5.157357617518854020e-01
9.023843288726589584e-01
1.904467711992123835e-01
-7.086789473373222847e-01
9.473384685174932596e-01
7.045440737513037899e-01
-7.036933062624581847e-01
-7.484994246763121417e-01
-8.710639872395415928e-01
2.899169565300940832e-01
9.950493044440669177e-01
-9.544546488585945454e-01
8.916868833614561840e-01
-4.653215624139481754e-01
6.191464273240274707e-01
-4.530769101706451085e-01
-6.853547458232960299e-01
-8.846917954823840802e-01
-7.678192637048131264e-01
1.284362958112448272e-01
-6.866979927757994595e-01
-3.805320190370975464e-01
-3.866756786580010097e-01
9.276903430302654296e-01
-7.702328849055291027e-01
-8.347544136680669080e-01
-4.981557348680165642e-01
-3.479104289799415106e-01
6.200021326802436228e-01
2.957830220383228514e-02
1.148311289144252623e-01
-5.418982029089709496e-01
2.017594223893115490e-01
-1.603395437082817399e-01
-7.406968963386868499e-01
-9.860690359133954530e-01
2.704314028881882326e-01
-2.363118170669076257e-02
-8.406097538494969879e-01
4.934545467142106290e-01
4.222952657716962932e-01
2.670487419789457917e-01
1.464212286332542412e-01
-9.710413508967732366e-01
5.539315455800815080e-01
6.021548786165162870e-01
4.350275273053896274e-01
7.441596230604776707e-01
-7.884162374827416997e-01
-8.624740529852708004e-01
-3.187660537027721119e-01
-6.041874076361688495e-01
-7.956563935626781436e-02
6.967090973154494993e-01
9.038381871473766260e-01
7.751797273228617779e-01
7.623089653379893083e-01
9.210856728766307899e-01
-1.952636713022608550e-01
7.211650285709574337e-01
3.096355880103711655e-01
3.766961496932552667e-01
-9.764439300850686898e-01
8.899105900710180261e-01
5.587890572570142211e-01
-5.224258418000002901e-01
1.723168657530229630e-01
2.841622142161643882e-01
-2.806507290600057658e-02
-7.002722371508964816e-01
-2.392564006449462433e-01
1.829887389471185344e-01
2.062841724980293279e-01
6.359157385971219156e-01
2.373933522966096277e-01
-3.508199864937031620e-01
7.781246733038431618e-01
-7.246916169679074038e-02
8.108018394131177864e-01
1.100556275914537085e-01
8.635336990151416536e-01
6.869340474963165910e-01
-5.976911367072637038e-01
-4.023224620562748655e-02
4.818720560898070993e-02
9.454571848172417248e-01
8.545729587350485712e-01
2.751738703920405538e-01
-7.323163474550022922e-01
5.361734690689343719e-01
8.294802104444405355e-01
9.924803971954394566e-01
-3.467571669542492963e-01
6.306991324773258967e-02
-8.905541672771486450e-01
8.066316529941899294e-01
-9.558406391667384483e-03
-6.971467866817266934e-01
-8.892930901471423066e-01
-8.149710153308040717e-01
5.983776426632383405e-01
2.760514370140110252e-01
-6.256154517300251960e-01
-6.657423267835405056e-02
9.565665802093534786e-01
2.108338417546626875e-01
-1.282896274568345873e-02
5.514303796101183153e-03
2.425980062040602458e-01
-2.436726748526616415e-01
-8.751243434313735747e-01
-7.696372182453032895e-01
9.305837610482581290e-01
-9.173682533161835462e-01
9.340245899609724844e-01
-8.840093341077368549e-01
-5.476528582090505193e-01
-4.846281422953158113e-01
-3.444643007468608520e-01
5.036904916980717850e-01
-4.219795248938780219e-01
8.203669386344913939e-01
5.930194062801521504e-01
2.074824269333963578e-02
-4.877297672364173664e-01
3.073458928272025936e-01
-1.459350620193144987e-01
-2.015915006868818082e-01
-6.751434468622674601e-02
3.335928042946247896e-01
9.485884795373165090e-01
9.997001414849102652e-01
-8.587816154422120984e-01
-1.239008870883495650e-01
2.151378665324878980e-01
7.438278654307239890e-01
5.974138408832976310e-01
2.321676268582459901e-01
4.487420792641956258e-01
6.823082733856160598e-01
3.244963145261678950e-01
-2.366820620671543640e-01
-7.369745982785476102e-01
-6.216284934623750313e-01
7.573430733096118139e-01
-4.948749234487703763e-01
5.993206069909757794e-01
-7.625132176491367098e-01
-1.064891281652347033e-02
-9.092780742789734472e-01
4.606107540790291832e-01
-6.943611523016741671e-01
9.083602336788869636e-01
-7.521823572585184525e-01
3.129009789472112502e-01
-9.348197062655088097e-01
-6.066263214998648401e-01
-1.223393664875864761e-01
3.665516172380081095e-01
9.614669714380179588e-01
-5.570363002876674852e-01
3.380983840447644440e-01
-2.367292149402193679e-01
-4.995513248772731618e-01
-1.888577769680297447e-01
4.531151216729156772e-02
9.085120383079323680e-01
-8.136846723139363746e-01
-9.700563948490024124e-01
3.880717333584389195e-01
5.518129063011458779e-01
-3.849939808933289243e-02
5.368091032782729144e-01
9.343209545594723942e-01
3.188924263009074167e-02
9.224083261434934400e-02
-4.205818628473445564e-01
3.515996233584166575e-01
-1.537619703549732986e-01
-4.299705162828004745e-01
6.338877911300007106e-01
-3.134690727153357503e-01
-5.979526761607383278e-01
-1.067191573640677849e-01
9.300988129024654327e-01
4.060982410132649711e-01
-1.697544738269562981e-01
6.557274046004741841e-01
8.191095945667343781e-01
-5.651830527321259900e-01
-3.578260353157347584e-01
-7.973681516951092174e-01
7.719839115785223083e-01
5.525470501453844108e-01
-6.575921093454779598e-01
5.584951054695734829e-01
-6.193750447295049977e-01
9.376882011603597800e-01
5.041848927306826766e-01
-1.636819973899932279e-01
-8.745798249421896653e-01
1.423246798638733157e-01
-1.622321487337212709e-01
9.104462944538340707e-01
5.706189260170309030e-01
-6.327980922556721843e-01
3.667101234974234902e-01
-7.972725303132301988e-01
6.115394608721860248e-01
6.272430381065121630e-01
8.966361653417274091e-01
-8.802656891487001811e-01
-2.745986527058807969e-01
-4.053731151843793512e-01
3.585704270985523578e-01
7.529761401478447524e-01
-3.535501065021866562e-01
-7.312933557105121274e-01
8.973873200219384394e-02
-2.250795580245581462e-01
8.474426398893073475e-01
-5.566719095347527624e-01
-1.871465189204475355e-01
8.678374987823704867e-01
-2.082349572645252334e-01
8.601804550895080226e-01
7.022935518884207973e-01
3.184164037326138175e-01
1.808422738261779017e-01
5.387677269084258924e-01
4.496860075949915547e-01
-4.827838593344997431e-01
-6.708436709001397436e-01
4.080518407269568826e-01
-2.901066557764218068e-01
7.224539081737608726e-01
6.769149373904226330e-02
1.384712812540891402e-01
4.438281484833797030e-01
6.886579775407166704e-01
-2.781806513349844856e-01
-5.080444389680585093e-01
1.822018351866607766e-01
6.443516768598311906e-02
7.856271675806076882e-01
-3.134447795374528667e-02
3.498462441310545845e-01
-7.752758498382357200e-01
-3.638629327563132065e-01
-3.438782272029830001e-01
2.834592238060009706e-01
7.669370967411484052e-01
6.353609059156013483e-01
-7.504139035932968493e-01
-4.537374815757244662e-02
9.299552907092811793e-02
-5.722558386744820424e-01
-6.543668366172439299e-02
-6.650632863900318714e-01
-2.321931186383683343e-01
7.771433787856860675e-01
9.648721245116058665e-01
-5.455694720266590636e-02
9.964239291491485684e-01
8.044770999925443533e-01
-5.981896280279013212e-01
2.741830229395616492e-01
1.754989987549504526e-02
4.470609186448375461e-01
6.232170399710503794e-01
6.424850445054339776e-01
3.343943309936605601e-01
5.649804050419988677e-01
3.326447598924966442e-01
1.160008277899500229e-01
2.693649976859548989e-01
-9.871725949235363728e-01
7.707493029193670520e-01
-9.914025337111218583e-01
-2.330360234756752025e-01
6.031402486175485578e-01
2.295690981339848502e-01
-6.870219461301492192e-01
9.445537403412564981e-01
2.520202634305401812e-01
3.004053973819518220e-01
-3.533924168388753451e-01
6.035136736772908073e-01
-8.014789967793389813e-02
-4.724909695277323962e-01
-3.083490340151346931e-01
2.313624693227580575e-01
3.447199895670345349e-01
-2.789528836483223806e-01
9.637970181243058487e-01
7.690480023941521637e-01
-6.880248273992390917e-01
1.569832754982756207e-01
-4.477491639456219197e-01
-6.669834143855135622e-01
-9.022566020170628143e-01
9.654097135703036958e-01
7.919900795559569051e-01
2.081744830745364538e-01
4.930254712114401361e-01
3.070670301354443410e-01
1.305891106037693206e-01
4.044070293892898516e-01
-9.152941474042930459e-01
3.431932773186963104e-02
9.193972628899935717e-01
-3.905628111588397289e-01
5.572198763798623666e-01
-3.961347702569031348e-01
-1.279460581457478874e-01
2.088651170666149248e-01
2.512785302604871873e-01
-6.322976952933427874e-01
-3.131131645475910830e-01
-5.640370224580444347e-01
-1.259218664934522725e-01
6.771546842058360216e-01
-7.253027373307086023e-02
-2.770623159266032420e-01
6.544308921785604305e-01
-5.279989486801579535e-01
5.630686941456439776e-01
9.061130086429864949e-01
7.034852682254253420e-01
4.424970065122875162e-01
7.038464629972633890e-01
4.742503846879952967e-02
1.310642386817835181e-01
6.306194344969660026e-01
-4.806125674200181219e-01
-9.512346620516671791e-01
8.771196487030228361e-01
9.129290832241254705e-02
-4.269448902823043124e-01
-8.593926444927910691e-01
-6.168808660878439820e-01
-6.309744675488890842e-01
-7.975211319953114941e-01
1.083924411419237011e-01
-9.020931438028740867e-01
-1.613704325562281827e-01
7.722538083167351797e-01
-2.186938777655573762e-01
-2.038944962686506379e-01
-2.378348103035707872e-01
-9.787891194373166126e-01
-4.191449043829094112e-01
4.847121029241161505e-01
-5.167499682530323213e-01
4.916694046017822117e-02
-1.054840915328505435e-01
8.862052958078492360e-01
2.428572265870880820e-01
-4.478621556478099563e-01
7.298090157274681467e-01
2.532622775268349447e-01
-1.398391475609876977e-01
-6.173838364681338842e-01
1.705087587735096832e-01
4.929765163974668685e-01
6.373948643556419658e-01
5.878478080183180410e-02
-7.269627559586155918e-02
4.155197093395639474e-01
-6.263754661310894090e-01
-2.355318327477129436e-02
-7.188466505098214387e-01
-3.756614230222683481e-01
-6.508677361056833810e-01
-1.653847329485336193e-01
4.738525462729092919e-01
-1.464106007814387489e-01
-6.773045004004396574e-01
-3.359238601798801849e-01
-8.075442826337839719e-01
-2.229078612265205095e-01
-5.007438390281109264e-01
-5.137878445651142822e-01
-8.121984687299421690e-01
-9.239088704693843024e-01
-1.633800735152295402e-01
2.290404069943496879e-02
-4.902209228812572928e-01
-6.632458717190616859e-01
-8.700289571033328340e-01
2.710589337644453423e-01
-2.043956656401892946e-01
-3.112965308328687897e-01
5.282146765491280149e-01
4.573647526505324468e-01
-1.842555750267322878e-01
-1.623657294646922988e-01
7.378065345165323308e-01
-7.770485790840879758e-01
3.206861582680151646e-01
-6.291508252828441616e-01
-2.042521091891256191e-01
-6.283288253401804191e-01
8.052970124109746219e-01
-5.230626197588905679e-01
-2.402135886302412260e-01
-8.647324692727862416e-01
-8.772045744984346971e-01
-5.527421235907490349e-01
-3.743190587748215226e-01
-1.651562522023082291e-01
-9.244209119260091700e-01
-2.115464781030167440e-01
9.324830431018968913e-01
8.278273044320729745e-01
7.363749034145814498e-01
-8.419939890992034215e-01
-4.634067673542960897e-01
6.717155666480900678e-01
-9.035989050073676143e-01
-1.419932169313253834e-01
-8.104372752473381070e-01
-4.707745444938815638e-01
-2.502953186562162369e-01
4.036969317617069564e-01
-6.905722540881793492e-01
-4.379770275467316232e-01
-9.145971741661855781e-01
-7.498110955820347368e-01
4.424343425926133833e-01
-3.038815527427101149e-01
-3.580719202408269020e-01
8.055172287310896628e-02
-3.262111903052673512e-01
-9.842186973064483979e-01
-4.653060292602531067e-01
1.817651749536015604e-01
4.184622915302500523e-01
-1.418676274969654649e-02
-6.175674549273431069e-01
4.327433908792883699e-01
-1.088126649739962204e-02
6.946446155343120044e-01
2.525749442932223587e-01
-5.899996009303472011e-01
-1.328877213006212088e-01
1.302882548283965658e-01
-4.323583595516680145e-01
8.442134347554670626e-01
5.928168906891786438e-01
3.253239425980773980e-01
6.676453430332915939e-01
-4.370694510999453275e-01
-7.297618188488019797e-01
6.559878757820574169e-01
2.616128533603609974e-01
-2.248511418947414242e-01
-7.069048496721768160e-01
5.275178143682597298e-01
8.353249139943648149e-01
-8.589781607697364318e-01
2.871743530844006465e-02
-2.714847489464817798e-01
-4.875701334428514944e-01
-6.306685084277594555e-01
-1.735739946632011144e-01
3.587490335479275316e-01
1.340513555826621239e-01
2.378801106893633222e-01
-2.358280861808421669e-01
-7.578004779743536812e-01
-5.009842922468368265e-01
-3.062615012148328653e-02
4.235931836011153084e-01
-3.583236032556620376e-01
-6.526283962097529923e-01
-2.702208206909739729e-02
-1.414885045970715183e-01
-6.951072003776139763e-01
-9.910020428105348334e-01
6.716588315636613515e-01
-6.942430324037718314e-02
7.119975284398605275e-01
3.120293072957562863e-01
-8.703143623494205006e-01
-9.300156256260176946e-01
6.007244133894653615e-01
-8.401561659659875225e-01
5.405741726199158048e-01
-5.890437815820355194e-01
-4.896018578195269200e-01
-7.053125742071377768e-01
-7.463915389005915113e-01
2.663545205937720706e-01
-5.380252875457609552e-01
-9.149759495230469497e-02
-1.600332391550556288e-01
-7.450138652946391993e-02
8.456869182883797187e-02
-5.593795893062534219e-01
8.505106411496163865e-01
-3.664243457982958585e-01
2.347945945851890315e-01
-8.328906442003765065e-01
-6.754101548680009337e-01
-7.650870939460858722e-01
2.848547856712309034e-01
-8.676809538470362515e-01
1.541104681359768414e-01
-5.094529009008668119e-01
-5.958806149450559531e-01
2.994394148354073693e-02
-5.419001803053962174e-01
-8.874897228743097166e-01
1.260088341433398540e-01
-8.079604275942791070e-01
9.824189827956031351e-01
-5.419571594024485961e-02
3.994503051079918432e-01
-9.491250498737240360e-01
-5.887514430890392614e-01
-3.723617096616149702e-02
-2.867166934372504805e-01
8.865254834070410705e-01
4.275592530614913400e-01
3.845059541360340560e-01
8.385916693571093816e-02
-2.914408812939586202e-01
-1.842056661976669840e-01
-3.818331210227039474e-01
4.440530995855158647e-01
-8.235376847763948849e-01
-4.559201738760663147e-01
-3.334429308129982505e-01
7.139123073470949876e-01
-8.570978335743770771e-01
-4.926369672394308452e-01
9.863019032902671235e-01
-6.688258619232374524e-01
6.619048334261252720e-01
8.497299951637757864e-01
7.957476755849115513e-01
4.671168894244459580e-01
5.550357229973308382e-01
1.106080504374118423e-01
8.045439565661431924e-01
-7.552413638428050469e-01
-1.895005466132333449e-01
1.837957876432867454e-01
-7.880111612975906343e-01
7.908502567788475712e-01
-3.097598219852844004e-01
6.852863643890905188e-02
1.903217452367389484e-02
-5.215738119961232933e-02
-8.063121249925584433e-01
-1.316456490513697730e-01
-6.669089277368898117e-01
-3.089362149764305343e-01
-2.858995502775560915e-01
6.336164898654699229e-01
5.093439733579119277e-03
-5.455913207760803019e-01
-7.193518138169237019e-01
-3.465269911774568889e-01
-2.352423031272345977e-01
4.178328197430469793e-02
-9.054097495803437035e-01
-5.948200556678517881e-01
5.988896171038919913e-01
3.142781578570417178e-01
-3.559593939253107298e-01
-8.637702389926187330e-01
-4.753406917629849904e-01
2.033486473219097146e-01
-5.053555362871711143e-01
-9.183708342491909704e-01
-2.209091861620895436e-01
-7.673817609177606691e-01
6.420748258806043829e-01
-2.746425042841018627e-01
-5.366407650625557579e-01
-7.036933062624581847e-01
-7.484994246763121417e-01
-8.710639872395415928e-01
2.899169565300940832e-01
9.950493044440669177e-01
-9.544546488585945454e-01
8.916868833614561840e-01
-4.653215624139481754e-01
6.191464273240274707e-01
-4.530769101706451085e-01
-6.853547458232960299e-01
-8.846917954823840802e-01
-7.678192637048131264e-01
1.284362958112448272e-01
-6.866979927757994595e-01
-3.805320190370975464e-01
-3.866756786580010097e-01
9.276903430302654296e-01
-7.702328849055291027e-01
-8.347544136680669080e-01
-4.981557348680165642e-01
-3.479104289799415106e-01
6.200021326802436228e-01
2.957830220383228514e-02
1.148311289144252623e-01
-5.418982029089709496e-01
2.017594223893115490e-01
-1.603395437082817399e-01
-7.406968963386868499e-01
-9.860690359133954530e-01
2.704314028881882326e-01
-2.363118170669076257e-02
-8.406097538494969879e-01
4.934545467142106290e-01
4.222952657716962932e-01
2.670487419789457917e-01
1.464212286332542412e-01
-9.710413508967732366e-01
5.539315455800815080e-01
6.021548786165162870e-01
4.350275273053896274e-01
7.441596230604776707e-01
-7.884162374827416997e-01
-8.624740529852708004e-01
-3.187660537027721119e-01
-6.041874076361688495e-01
-7.956563935626781436e-02
6.967090973154494993e-01
9.038381871473766260e-01
7.751797273228617779e-01
7.623089653379893083e-01
9.210856728766307899e-01
-1.952636713022608550e-01
7.211650285709574337e-01
2.021266599877595826e-01
9.771618295417632272e-01
-5.377226034541937594e-04
7.744400860917588503e-01
5.088364306174204543e-01
-7.138455759182833482e-01
1.185007746378095028e-01
1.715546593184469337e-02
-8.308490860956896373e-01
9.844194952481761796e-01
-6.545628003583352506e-01
5.248146371949047317e-01
-7.078554453625676146e-01
6.090568939448350871e-01
-7.030866596019500481e-01
-5.946601492119985011e-02
-4.347016378699311012e-01
-6.839974430125861371e-01
8.108018394131177864e-01
1.100556275914537085e-01
8.635336990151416536e-01
6.869340474963165910e-01
-5.976911367072637038e-01
-4.023224620562748655e-02
4.818720560898070993e-02
9.454571848172417248e-01
8.545729587350485712e-01
2.751738703920405538e-01
-7.323163474550022922e-01
5.361734690689343719e-01
8.294802104444405355e-01
9.924803971954394566e-01
-3.467571669542492963e-01
6.306991324773258967e-02
-8.905541672771486450e-01
8.066316529941899294e-01
-9.558406391667384483e-03
-6.971467866817266934e-01
-8.892930901471423066e-01
-8.149710153308040717e-01
5.983776426632383405e-01
2.760514370140110252e-01
-6.256154517300251960e-01
-6.657423267835405056e-02
9.565665802093534786e-01
2.108338417546626875e-01
-1.282896274568345873e-02
5.514303796101183153e-03
2.425980062040602458e-01
-2.436726748526616415e-01
-8.751243434313735747e-01
-7.696372182453032895e-01
9.305837610482581290e-01
-9.173682533161835462e-01
9.340245899609724844e-01
-8.840093341077368549e-01
-5.476528582090505193e-01
-4.846281422953158113e-01
-3.444643007468608520e-01
5.036904916980717850e-01
-4.219795248938780219e-01
8.203669386344913939e-01
5.930194062801521504e-01
2.074824269333963578e-02
-4.877297672364173664e-01
3.073458928272025936e-01
-1.459350620193144987e-01
-2.015915006868818082e-01
-6.751434468622674601e-02
3.335928042946247896e-01
9.485884795373165090e-01
9.997001414849102652e-01
-8.587816154422120984e-01
-1.239008870883495650e-01
2.151378665324878980e-01
7.438278654307239890e-01
5.974138408832976310e-01
8.210465647907172482e-03
-8.139003631073167266e-01
-6.643509700410876739e-01
-4.685894449494318881e-01
-1.771963524139794632e-01
-7.369745982785476102e-01
-6.216284934623750313e-01
7.573430733096118139e-01
-4.948749234487703763e-01
5.993206069909757794e-01
-7.625132176491367098e-01
-1.064891281652347033e-02
-9.092780742789734472e-01
4.606107540790291832e-01
-6.943611523016741671e-01
9.083602336788869636e-01
-7.521823572585184525e-01
3.129009789472112502e-01
-9.348197062655088097e-01
-6.066263214998648401e-01
-1.223393664875864761e-01
3.665516172380081095e-01
9.614669714380179588e-01
-5.570363002876674852e-01
3.380983840447644440e-01
-2.367292149402193679e-01
-4.995513248772731618e-01
-1.888577769680297447e-01
4.531151216729156772e-02
9.085120383079323680e-01
-8.136846723139363746e-01
-9.700563948490024124e-01
3.880717333584389195e-01
5.518129063011458779e-01
-3.849939808933289243e-02
5.368091032782729144e-01
9.343209545594723942e-01
3.188924263009074167e-02
9.224083261434934400e-02
-4.205818628473445564e-01
3.515996233584166575e-01
-1.537619703549732986e-01
-4.299705162828004745e-01
6.338877911300007106e-01
-3.134690727153357503e-01
-5.979526761607383278e-01
-1.067191573640677849e-01
9.300988129024654327e-01
4.060982410132649711e-01
-1.697544738269562981e-01
6.557274046004741841e-01
8.191095945667343781e-01
-5.651830527321259900e-01
-3.578260353157347584e-01
-7.973681516951092174e-01
7.719839115785223083e-01
5.525470501453844108e-01
-6.575921093454779598e-01
5.584951054695734829e-01
-6.193750447295049977e-01
9.376882011603597800e-01
5.041848927306826766e-01
-1.636819973899932279e-01
-8.745798249421896653e-01
1.423246798638733157e-01
-1.622321487337212709e-01
9.104462944538340707e-01
5.706189260170309030e-01
-6.327980922556721843e-01
3.667101234974234902e-01
-7.972725303132301988e-01
6.115394608721860248e-01
6.272430381065121630e-01
8.966361653417274091e-01
-8.802656891487001811e-01
-2.745986527058807969e-01
-4.053731151843793512e-01
3.585704270985523578e-01
7.529761401478447524e-01
-3.535501065021866562e-01
-7.312933557105121274e-01
8.973873200219384394e-02
-2.250795580245581462e-01
8.474426398893073475e-01
-5.566719095347527624e-01
-1.871465189204475355e-01
8.678374987823704867e-01
-2.082349572645252334e-01
8.601804550895080226e-01
7.022935518884207973e-01
3.184164037326138175e-01
1.808422738261779017e-01
5.387677269084258924e-01
4.496860075949915547e-01
-4.827838593344997431e-01
-6.708436709001397436e-01
4.080518407269568826e-01
-2.901066557764218068e-01
7.224539081737608726e-01
6.769149373904226330e-02
1.384712812540891402e-01
4.438281484833797030e-01
6.886579775407166704e-01
-2.781806513349844856e-01
-5.080444389680585093e-01
1.822018351866607766e-01
6.443516768598311906e-02
7.856271675806076882e-01
-3.134447795374528667e-02
3.498462441310545845e-01
-7.752758498382357200e-01
-3.638629327563132065e-01
-3.438782272029830001e-01
2.834592238060009706e-01
7.669370967411484052e-01
6.353609059156013483e-01
-7.504139035932968493e-01
-4.537374815757244662e-02
9.299552907092811793e-02
-5.722558386744820424e-01
-6.543668366172439299e-02
-6.650632863900318714e-01
-2.321931186383683343e-01
7.771433787856860675e-01
9.648721245116058665e-01
-5.455694720266590636e-02
9.964239291491485684e-01
8.044770999925443533e-01
-5.981896280279013212e-01
2.741830229395616492e-01
1.754989987549504526e-02
4.470609186448375461e-01
6.232170399710503794e-01
6.424850445054339776e-01
3.343943309936605601e-01
5.649804050419988677e-01
3.326447598924966442e-01
1.160008277899500229e-01
2.693649976859548989e-01
-9.871725949235363728e-01
7.707493029193670520e-01
-9.914025337111218583e-01
-2.330360234756752025e-01
6.031402486175485578e-01
2.295690981339848502e-01
-6.870219461301492192e-01
9.445537403412564981e-01
2.520202634305401812e-01
3.004053973819518220e-01
-3.533924168388753451e-01
6.035136736772908073e-01
-8.014789967793389813e-02
-4.724909695277323962e-01
-3.083490340151346931e-01
2.313624693227580575e-01
3.447199895670345349e-01
-2.789528836483223806e-01
9.637970181243058487e-01
7.690480023941521637e-01
-6.880248273992390917e-01
1.569832754982756207e-01
-4.477491639456219197e-01
-6.669834143855135622e-01
-9.022566020170628143e-01
9.654097135703036958e-01
7.919900795559569051e-01
2.081744830745364538e-01
4.930254712114401361e-01
3.070670301354443410e-01
1.305891106037693206e-01
4.044070293892898516e-01
-9.152941474042930459e-01
3.431932773186963104e-02
9.193972628899935717e-01
-3.905628111588397289e-01
5.572198763798623666e-01
-3.961347702569031348e-01
-1.279460581457478874e-01
2.088651170666149248e-01
2.512785302604871873e-01
-6.322976952933427874e-01
-3.131131645475910830e-01
-5.640370224580444347e-01
-1.259218664934522725e-01
6.771546842058360216e-01
-7.253027373307086023e-02
-2.770623159266032420e-01
6.544308921785604305e-01
-5.279989486801579535e-01
5.630686941456439776e-01
9.061130086429864949e-01
7.034852682254253420e-01
4.424970065122875162e-01
7.038464629972633890e-01
4.742503846879952967e-02
1.310642386817835181e-01
6.306194344969660026e-01
-4.806125674200181219e-01
-9.512346620516671791e-01
8.771196487030228361e-01
9.129290832241254705e-02
-4.269448902823043124e-01
-8.593926444927910691e-01
-6.168808660878439820e-01
-6.309744675488890842e-01
-7.975211319953114941e-01
1.083924411419237011e-01
-9.020931438028740867e-01
-1.613704325562281827e-01
7.722538083167351797e-01
-2.186938777655573762e-01
-2.038944962686506379e-01
-2.378348103035707872e-01
-9.787891194373166126e-01
-4.191449043829094112e-01
4.847121029241161505e-01
-5.167499682530323213e-01
4.916694046017822117e-02
-1.054840915328505435e-01
8.862052958078492360e-01
2.428572265870880820e-01
-4.478621556478099563e-01
7.298090157274681467e-01
2.532622775268349447e-01
-1.398391475609876977e-01
-6.173838364681338842e-01
1.705087587735096832e-01
4.929765163974668685e-01
6.373948643556419658e-01
5.642514615967058056e-01
-4.071915853228063042e-01
-3.278330023799080895e-01
4.512626808197190975e-01
2.562502597500384560e-01
-9.537600737257203587e-01
5.078652961878387107e-01
-4.027504977545368625e-01
-6.870263667272238362e-01
6.273489133043070876e-01
-8.496220919326964438e-01
-7.027543191258962541e-01
8.078481607039404988e-01
7.311988336627222029e-01
-4.360930227419923533e-01
-9.316561950062491881e-01
8.593187877442916012e-01
2.096452571573055312e-01
-9.239088704693843024e-01
-1.633800735152295402e-01
2.290404069943496879e-02
-4.902209228812572928e-01
-6.632458717190616859e-01
-8.700289571033328340e-01
2.710589337644453423e-01
-2.043956656401892946e-01
-3.112965308328687897e-01
5.282146765491280149e-01
4.573647526505324468e-01
-1.842555750267322878e-01
-1.623657294646922988e-01
7.378065345165323308e-01
-7.770485790840879758e-01
3.206861582680151646e-01
-6.291508252828441616e-01
-2.042521091891256191e-01
-6.283288253401804191e-01
8.052970124109746219e-01
-5.230626197588905679e-01
-2.402135886302412260e-01
-8.647324692727862416e-01
-8.772045744984346971e-01
-5.527421235907490349e-01
-3.743190587748215226e-01
-1.651562522023082291e-01
-9.244209119260091700e-01
-2.115464781030167440e-01
9.324830431018968913e-01
8.278273044320729745e-01
7.363749034145814498e-01
-8.419939890992034215e-01
-4.634067673542960897e-01
6.717155666480900678e-01
-9.035989050073676143e-01
3.929590706977759140e-02
-3.314469028416588969e-02
2.326536519408619608e-01
-3.569190813769724802e-01
7.945516400341816610e-01
-1.877369834087578848e-01
4.175072004935433956e-01
-8.392504598379415537e-01
4.552235228619394558e-01
-6.583364874241961484e-01
-7.268460828221843251e-01
5.912197459896828544e-01
1.323010733181666509e-01
-1.614482079893868605e-01
-4.246841110774624006e-01
-4.428364103571535981e-01
-4.276926677275594280e-02
3.524038508444586881e-01
-1.418676274969654649e-02
-6.175674549273431069e-01
4.327433908792883699e-01
-1.088126649739962204e-02
6.946446155343120044e-01
2.525749442932223587e-01
-5.899996009303472011e-01
-1.328877213006212088e-01
1.302882548283965658e-01
-4.323583595516680145e-01
8.442134347554670626e-01
5.928168906891786438e-01
3.253239425980773980e-01
6.676453430332915939e-01
-4.370694510999453275e-01
-7.297618188488019797e-01
6.559878757820574169e-01
2.616128533603609974e-01
-2.248511418947414242e-01
-7.069048496721768160e-01
5.275178143682597298e-01
8.353249139943648149e-01
-8.589781607697364318e-01
2.871743530844006465e-02
-2.714847489464817798e-01
-4.875701334428514944e-01
-6.306685084277594555e-01
-1.735739946632011144e-01
3.587490335479275316e-01
1.340513555826621239e-01
2.378801106893633222e-01
-2.358280861808421669e-01
-7.578004779743536812e-01
-5.009842922468368265e-01
-3.062615012148328653e-02
4.235931836011153084e-01
-3.583236032556620376e-01
-6.526283962097529923e-01
-2.702208206909739729e-02
-1.414885045970715183e-01
-6.951072003776139763e-01
-9.910020428105348334e-01
6.716588315636613515e-01
-6.942430324037718314e-02
7.119975284398605275e-01
3.120293072957562863e-01
-8.703143623494205006e-01
-9.300156256260176946e-01
6.007244133894653615e-01
-8.401561659659875225e-01
5.405741726199158048e-01
-5.890437815820355194e-01
-4.896018578195269200e-01
-7.053125742071377768e-01
-7.463915389005915113e-01
2.663545205937720706e-01
-5.380252875457609552e-01
-9.149759495230469497e-02
-1.600332391550556288e-01
-7.450138652946391993e-02
8.456869182883797187e-02
-5.593795893062534219e-01
8.505106411496163865e-01
-3.664243457982958585e-01
2.347945945851890315e-01
-8.328906442003765065e-01
-6.754101548680009337e-01
-7.650870939460858722e-01
2.848547856712309034e-01
-8.676809538470362515e-01
1.541104681359768414e-01
-5.094529009008668119e-01
-5.958806149450559531e-01
2.994394148354073693e-02
-5.419001803053962174e-01
-8.874897228743097166e-01
1.260088341433398540e-01
-8.079604275942791070e-01
9.824189827956031351e-01
-5.419571594024485961e-02
3.994503051079918432e-01
-9.491250498737240360e-01
-5.887514430890392614e-01
-3.723617096616149702e-02
-2.867166934372504805e-01
8.865254834070410705e-01
4.275592530614913400e-01
3.845059541360340560e-01
8.385916693571093816e-02
-2.914408812939586202e-01
-2.982400071660471497e-01
-9.996969214383277791e-01
-1.269566606166996348e-01
-3.360550480908961468e-01
4.099412769437569271e-01
-1.748955337998829851e-01
7.489891540376432122e-01
-5.694548228083546881e-01
1.903944336993015352e-01
-7.136038974324470097e-01
3.015713659247416523e-01
-5.249391649800336790e-01
-7.552310572861360427e-01
2.655957270467665943e-01
6.573836523105192065e-02
6.616123748519355807e-01
7.570121346711780053e-01
-2.071851187238125114e-01
-7.552413638428050469e-01
-1.895005466132333449e-01
1.837957876432867454e-01
-7.880111612975906343e-01
7.908502567788475712e-01
-3.097598219852844004e-01
6.852863643890905188e-02
1.903217452367389484e-02
-5.215738119961232933e-02
-8.063121249925584433e-01
-1.316456490513697730e-01
-6.669089277368898117e-01
-3.089362149764305343e-01
-2.858995502775560915e-01
6.336164898654699229e-01
5.093439733579119277e-03
-5.455913207760803019e-01
-7.193518138169237019e-01
-3.465269911774568889e-01
-2.352423031272345977e-01
4.178328197430469793e-02
-9.054097495803437035e-01
-5.948200556678517881e-01
5.988896171038919913e-01
3.142781578570417178e-01
-3.559593939253107298e-01
-8.637702389926187330e-01
-4.753406917629849904e-01
2.033486473219097146e-01
-5.053555362871711143e-01
-9.183708342491909704e-01
-2.209091861620895436e-01
-7.673817609177606691e-01
6.420748258806043829e-01
-2.746425042841018627e-01
-5.366407650625557579e-01
-7.036933062624581847e-01
-7.484994246763121417e-01
-8.710639872395415928e-01
2.899169565300940832e-01
9.950493044440669177e-01
-9.544546488585945454e-01
8.916868833614561840e-01
-4.653215624139481754e-01
6.191464273240274707e-01
-4.530769101706451085e-01
-6.853547458232960299e-01
-8.846917954823840802e-01
-7.678192637048131264e-01
1.284362958112448272e-01
-6.866979927757994595e-01
-3.805320190370975464e-01
-3.866756786580010097e-01
9.276903430302654296e-01
-7.702328849055291027e-01
-8.347544136680669080e-01
-4.981557348680165642e-01
-3.479104289799415106e-01
6.200021326802436228e-01
2.957830220383228514e-02
1.148311289144252623e-01
-5.418982029089709496e-01
2.017594223893115490e-01
-1.603395437082817399e-01
-7.406968963386868499e-01
-9.860690359133954530e-01
2.704314028881882326e-01
-2.363118170669076257e-02
-8.406097538494969879e-01
4.934545467142106290e-01
4.222952657716962932e-01
2.670487419789457917e-01
1.464212286332542412e-01
-9.710413508967732366e-01
5.539315455800815080e-01
6.021548786165162870e-01
4.350275273053896274e-01
7.441596230604776707e-01
-7.884162374827416997e-01
-8.624740529852708004e-01
-3.187660537027721119e-01
-6.041874076361688495e-01
-7.956563935626781436e-02
6.967090973154494993e-01
9.038381871473766260e-01
7.751797273228617779e-01
7.623089653379893083e-01
9.210856728766307899e-01
-1.952636713022608550e-01
7.211650285709574337e-01
3.096355880103711655e-01
3.766961496932552667e-01
-9.764439300850686898e-01
8.899105900710180261e-01
5.587890572570142211e-01
-5.224258418000002901e-01
1.723168657530229630e-01
2.841622142161643882e-01
-2.806507290600057658e-02
-7.002722371508964816e-01
-2.392564006449462433e-01
1.829887389471185344e-01
2.062841724980293279e-01
6.359157385971219156e-01
2.373933522966096277e-01
-3.508199864937031620e-01
7.781246733038431618e-01
-7.246916169679074038e-02
8.108018394131177864e-01
1.100556275914537085e-01
8.635336990151416536e-01
6.869340474963165910e-01
-5.976911367072637038e-01
-4.023224620562748655e-02
4.818720560898070993e-02
9.454571848172417248e-01
8.545729587350485712e-01
2.751738703920405538e-01
-7.323163474550022922e-01
5.361734690689343719e-01
8.294802104444405355e-01
9.924803971954394566e-01
-3.467571669542492963e-01
6.306991324773258967e-02
-8.905541672771486450e-01
8.066316529941899294e-01
-9.558406391667384483e-03
-6.971467866817266934e-01
-8.892930901471423066e-01
-8.149710153308040717e-01
5.983776426632383405e-01
2.760514370140110252e-01
-6.256154517300251960e-01
-6.657423267835405056e-02
9.565665802093534786e-01
2.108338417546626875e-01
-1.282896274568345873e-02
5.514303796101183153e-03
2.425980062040602458e-01
-2.436726748526616415e-01
-8.751243434313735747e-01
-7.696372182453032895e-01
9.305837610482581290e-01
-9.173682533161835462e-01
9.340245899609724844e-01
-8.840093341077368549e-01
-5.476528582090505193e-01
-4.846281422953158113e-01
-3.444643007468608520e-01
5.036904916980717850e-01
-4.219795248938780219e-01
8.203669386344913939e-01
5.930194062801521504e-01
2.074824269333963578e-02
-4.877297672364173664e-01
3.073458928272025936e-01
-1.459350620193144987e-01
-2.015915006868818082e-01
-6.751434468622674601e-02
3.335928042946247896e-01
9.485884795373165090e-01
9.997001414849102652e-01
-8.587816154422120984e-01
-1.239008870883495650e-01
2.151378665324878980e-01
7.438278654307239890e-01
5.974138408832976310e-01
2.321676268582459901e-01
4.487420792641956258e-01
6.823082733856160598e-01
3.244963145261678950e-01
-2.366820620671543640e-01
-7.369745982785476102e-01
-6.216284934623750313e-01
7.573430733096118139e-01
-4.948749234487703763e-01
5.993206069909757794e-01
-7.625132176491367098e-01
-1.064891281652347033e-02
-9.092780742789734472e-01
4.606107540790291832e-01
-6.943611523016741671e-01
9.083602336788869636e-01
-7.521823572585184525e-01
3.129009789472112502e-01
-9.348197062655088097e-01
-6.066263214998648401e-01
-1.223393664875864761e-01
3.665516172380081095e-01
9.614669714380179588e-01
-5.570363002876674852e-01
3.380983840447644440e-01
-2.367292149402193679e-01
-4.995513248772731618e-01
-1.888577769680297447e-01
4.531151216729156772e-02
9.085120383079323680e-01
-8.136846723139363746e-01
-9.700563948490024124e-01
3.880717333584389195e-01
5.518129063011458779e-01
-3.849939808933289243e-02
5.368091032782729144e-01
9.343209545594723942e-01
3.188924263009074167e-02
9.224083261434934400e-02
-4.205818628473445564e-01
3.515996233584166575e-01
-1.537619703549732986e-01
-4.299705162828004745e-01
6.338877911300007106e-01
-3.134690727153357503e-01
-5.979526761607383278e-01
-1.067191573640677849e-01
9.300988129024654327e-01
4.060982410132649711e-01
-1.697544738269562981e-01
6.557274046004741841e-01
8.191095945667343781e-01
-5.651830527321259900e-01
-3.578260353157347584e-01
-7.973681516951092174e-01
7.719839115785223083e-01
5.525470501453844108e-01
-6.575921093454779598e-01
5.584951054695734829e-01
-6.193750447295049977e-01
9.376882011603597800e-01
5.041848927306826766e-01
-1.636819973899932279e-01
-8.745798249421896653e-01
1.423246798638733157e-01
-1.622321487337212709e-01
9.104462944538340707e-01
5.706189260170309030e-01
-6.327980922556721843e-01
3.667101234974234902e-01
-7.972725303132301988e-01
6.115394608721860248e-01
6.272430381065121630e-01
8.966361653417274091e-01
-8.802656891487001811e-01
-2.745986527058807969e-01
-4.053731151843793512e-01
3.585704270985523578e-01
7.529761401478447524e-01
-3.535501065021866562e-01
-7.312933557105121274e-01
8.973873200219384394e-02
-2.250795580245581462e-01
8.474426398893073475e-01
-5.566719095347527624e-01
-6.745678906412868603e-01
8.314827295093571990e-01
8.758155539417566970e-02
-7.697532452341082632e-02
-9.936612064271641565e-01
1.354290370116528752e-01
4.655151959028613895e-02
-3.240741600977252723e-01
7.269275763631262155e-01
4.976616852609438979e-02
-2.179615326617279081e-02
-2.690198170440984970e-01
-1.383855153392938853e-01
-2.726328352658142773e-01
-9.539691792732998277e-01
6.923037758282082343e-01
5.508403528454546283e-01
-1.775521136875735095e-03
-2.781806513349844856e-01
-5.080444389680585093e-01
1.822018351866607766e-01
6.443516768598311906e-02
7.856271675806076882e-01
-3.134447795374528667e-02
3.498462441310545845e-01
-7.752758498382357200e-01
-3.638629327563132065e-01
-3.438782272029830001e-01
2.834592238060009706e-01
7.669370967411484052e-01
6.353609059156013483e-01
-7.504139035932968493e-01
-4.537374815757244662e-02
9.299552907092811793e-02
-5.722558386744820424e-01
-6.543668366172439299e-02
-6.650632863900318714e-01
-2.321931186383683343e-01
7.771433787856860675e-01
9.648721245116058665e-01
-5.455694720266590636e-02
9.964239291491485684e-01
8.044770999925443533e-01
-5.981896280279013212e-01
2.741830229395616492e-01
1.754989987549504526e-02
4.470609186448375461e-01
6.232170399710503794e-01
6.424850445054339776e-01
3.343943309936605601e-01
5.649804050419988677e-01
3.326447598924966442e-01
1.160008277899500229e-01
2.693649976859548989e-01
-9.871725949235363728e-01
7.707493029193670520e-01
-9.914025337111218583e-01
-2.330360234756752025e-01
6.031402486175485578e-01
2.295690981339848502e-01
-6.870219461301492192e-01
9.445537403412564981e-01
2.520202634305401812e-01
3.004053973819518220e-01
-3.533924168388753451e-01
6.035136736772908073e-01
-8.014789967793389813e-02
-4.724909695277323962e-01
-3.083490340151346931e-01
2.313624693227580575e-01
3.447199895670345349e-01
-2.789528836483223806e-01
9.637970181243058487e-01
7.690480023941521637e-01
-6.880248273992390917e-01
1.569832754982756207e-01
-4.477491639456219197e-01
-6.669834143855135622e-01
-9.022566020170628143e-01
9.654097135703036958e-01
7.919900795559569051e-01
2.081744830745364538e-01
4.930254712114401361e-01
3.070670301354443410e-01
1.305891106037693206e-01
4.044070293892898516e-01
-9.152941474042930459e-01
3.431932773186963104e-02
9.193972628899935717e-01
-3.905628111588397289e-01
5.572198763798623666e-01
-3.961347702569031348e-01
-1.279460581457478874e-01
2.088651170666149248e-01
2.512785302604871873e-01
-6.322976952933427874e-01
-3.131131645475910830e-01
-5.640370224580444347e-01
-1.259218664934522725e-01
6.771546842058360216e-01
-7.253027373307086023e-02
-2.770623159266032420e-01
6.544308921785604305e-01
-5.279989486801579535e-01
5.630686941456439776e-01
9.061130086429864949e-01
7.034852682254253420e-01
4.424970065122875162e-01
7.038464629972633890e-01
4.742503846879952967e-02
1.310642386817835181e-01
6.306194344969660026e-01
-4.806125674200181219e-01
-9.512346620516671791e-01
8.771196487030228361e-01
9.129290832241254705e-02
-4.269448902823043124e-01
-8.593926444927910691e-01
-6.168808660878439820e-01
-6.309744675488890842e-01
-7.975211319953114941e-01
1.083924411419237011e-01
-9.020931438028740867e-01
-1.613704325562281827e-01
7.722538083167351797e-01
-2.186938777655573762e-01
-2.038944962686506379e-01
-2.378348103035707872e-01
-9.787891194373166126e-01
-4.191449043829094112e-01
4.847121029241161505e-01
-5.167499682530323213e-01
4.916694046017822117e-02
-1.054840915328505435e-01
8.862052958078492360e-01
2.428572265870880820e-01
-4.478621556478099563e-01
7.298090157274681467e-01
2.532622775268349447e-01
-1.398391475609876977e-01
-6.173838364681338842e-01
1.705087587735096832e-01
4.929765163974668685e-01
6.373948643556419658e-01
5.642514615967058056e-01
-4.071915853228063042e-01
-3.278330023799080895e-01
4.512626808197190975e-01
2.562502597500384560e-01
-9.537600737257203587e-01
5.078652961878387107e-01
-4.027504977545368625e-01
-6.870263667272238362e-01
6.273489133043070876e-01
-8.496220919326964438e-01
-7.027543191258962541e-01
8.078481607039404988e-01
7.311988336627222029e-01
-4.360930227419923533e-01
-9.316561950062491881e-01
8.593187877442916012e-01
2.096452571573055312e-01
-9.239088704693843024e-01
-1.633800735152295402e-01
2.290404069943496879e-02
-4.902209228812572928e-01
-6.632458717190616859e-01
-8.700289571033328340e-01
2.710589337644453423e-01
-2.043956656401892946e-01
-3.112965308328687897e-01
5.282146765491280149e-01
4.573647526505324468e-01
-1.842555750267322878e-01
-1.623657294646922988e-01
7.378065345165323308e-01
-7.770485790840879758e-01
3.206861582680151646e-01
-6.291508252828441616e-01
-2.042521091891256191e-01
-6.283288253401804191e-01
8.052970124109746219e-01
-5.230626197588905679e-01
-2.402135886302412260e-01
-8.647324692727862416e-01
-8.772045744984346971e-01
-5.527421235907490349e-01
-3.743190587748215226e-01
-1.651562522023082291e-01
-9.244209119260091700e-01
-2.115464781030167440e-01
9.324830431018968913e-01
8.278273044320729745e-01
7.363749034145814498e-01
-8.419939890992034215e-01
-4.634067673542960897e-01
6.717155666480900678e-01
-9.035989050073676143e-01
3.929590706977759140e-02
-3.314469028416588969e-02
2.326536519408619608e-01
-3.569190813769724802e-01
7.945516400341816610e-01
-1.877369834087578848e-01
4.175072004935433956e-01
-8.392504598379415537e-01
4.552235228619394558e-01
-6.583364874241961484e-01
-7.268460828221843251e-01
5.912197459896828544e-01
1.323010733181666509e-01
-1.614482079893868605e-01
-4.246841110774624006e-01
-4.428364103571535981e-01
-4.276926677275594280e-02
3.524038508444586881e-01
9.650065563217102849e-02
-3.959156314602236826e-01
9.078761374289046060e-02
-6.114387465385098253e-01
-3.641901943591911994e-01
6.385354823819067160e-01
7.223936684342748826e-01
-7.794883826869953847e-01
6.209614427152214677e-01
3.658395515894750094e-01
-6.250244184215401066e-01
-2.514865809018493881e-01
5.323727196242695747e-01
2.314111366865891917e-01
1.890095365673891692e-01
-2.804980545768289701e-01
-7.273842218575459206e-01
-5.507665498215119637e-01
-2.248511418947414242e-01
-7.069048496721768160e-01
5.275178143682597298e-01
8.353249139943648149e-01
-8.589781607697364318e-01
2.871743530844006465e-02
-2.714847489464817798e-01
-4.875701334428514944e-01
-6.306685084277594555e-01
-1.735739946632011144e-01
3.587490335479275316e-01
1.340513555826621239e-01
2.378801106893633222e-01
-2.358280861808421669e-01
-7.578004779743536812e-01
-5.009842922468368265e-01
-3.062615012148328653e-02
4.235931836011153084e-01
9.551706035386291482e-01
9.126152417777304571e-01
1.730833944366616528e-02
7.630395766202724417e-01
-2.034034994527784690e-01
-2.682779343838117558e-01
-8.148729967070149627e-01
1.561522386505285187e-01
-1.568412468548152638e-02
9.132390400462724322e-01
6.033009489145579884e-01
-5.219652635933662577e-01
-3.490051789090666823e-01
-9.879010922592319499e-01
4.697493574931677074e-01
-8.970244544006766851e-02
1.479376018299336515e-01
-1.902007354752504042e-01
-7.463915389005915113e-01
2.663545205937720706e-01
-5.380252875457609552e-01
-9.149759495230469497e-02
-1.600332391550556288e-01
-7.450138652946391993e-02
8.456869182883797187e-02
-5.593795893062534219e-01
8.505106411496163865e-01
-3.664243457982958585e-01
2.347945945851890315e-01
-8.328906442003765065e-01
-6.754101548680009337e-01
-7.650870939460858722e-01
2.848547856712309034e-01
-8.676809538470362515e-01
1.541104681359768414e-01
-5.094529009008668119e-01
-5.958806149450559531e-01
2.994394148354073693e-02
-5.419001803053962174e-01
-8.874897228743097166e-01
1.260088341433398540e-01
-8.079604275942791070e-01
9.824189827956031351e-01
-5.419571594024485961e-02
3.994503051079918432e-01
-9.491250498737240360e-01
-5.887514430890392614e-01
-3.723617096616149702e-02
-2.867166934372504805e-01
8.865254834070410705e-01
4.275592530614913400e-01
3.845059541360340560e-01
8.385916693571093816e-02
-2.914408812939586202e-01
-2.982400071660471497e-01
-9.996969214383277791e-01
-1.269566606166996348e-01
-3.360550480908961468e-01
4.099412769437569271e-01
-1.748955337998829851e-01
7.489891540376432122e-01
-5.694548228083546881e-01
1.903944336993015352e-01
-7.136038974324470097e-01
3.015713659247416523e-01
-5.249391649800336790e-01
-7.552310572861360427e-01
2.655957270467665943e-01
6.573836523105192065e-02
6.616123748519355807e-01
7.570121346711780053e-01
-2.071851187238125114e-01
-7.552413638428050469e-01
-1.895005466132333449e-01
1.837957876432867454e-01
-7.880111612975906343e-01
7.908502567788475712e-01
-3.097598219852844004e-01
6.852863643890905188e-02
1.903217452367389484e-02
-5.215738119961232933e-02
-8.063121249925584433e-01
-1.316456490513697730e-01
-6.669089277368898117e-01
-3.089362149764305343e-01
-2.858995502775560915e-01
6.336164898654699229e-01
5.093439733579119277e-03
-5.455913207760803019e-01
-7.193518138169237019e-01
-3.465269911774568889e-01
-2.352423031272345977e-01
4.178328197430469793e-02
-9.054097495803437035e-01
-5.948200556678517881e-01
5.988896171038919913e-01
3.142781578570417178e-01
-3.559593939253107298e-01
-8.637702389926187330e-01
-4.753406917629849904e-01
2.033486473219097146e-01
-5.053555362871711143e-01
-9.183708342491909704e-01
-2.209091861620895436e-01
-7.673817609177606691e-01
6.420748258806043829e-01
-2.746425042841018627e-01
-5.366407650625557579e-01
-7.036933062624581847e-01
-7.484994246763121417e-01
-8.710639872395415928e-01
2.899169565300940832e-01
9.950493044440669177e-01
-9.544546488585945454e-01
8.916868833614561840e-01
-4.653215624139481754e-01
6.191464273240274707e-01
-4.530769101706451085e-01
-6.853547458232960299e-01
-8.846917954823840802e-01
-7.678192637048131264e-01
1.284362958112448272e-01
-6.866979927757994595e-01
-3.805320190370975464e-01
-3.866756786580010097e-01
9.276903430302654296e-01
-7.702328849055291027e-01
-8.347544136680669080e-01
-4.981557348680165642e-01
-3.479104289799415106e-01
6.200021326802436228e-01
2.957830220383228514e-02
1.148311289144252623e-01
-5.418982029089709496e-01
2.017594223893115490e-01
-1.603395437082817399e-01
-7.406968963386868499e-01
-9.860690359133954530e-01
2.704314028881882326e-01
-2.363118170669076257e-02
-8.406097538494969879e-01
4.934545467142106290e-01
4.222952657716962932e-01
2.670487419789457917e-01
1.464212286332542412e-01
-9.710413508967732366e-01
5.539315455800815080e-01
6.021548786165162870e-01
4.350275273053896274e-01
7.441596230604776707e-01
-7.884162374827416997e-01
-8.624740529852708004e-01
-3.187660537027721119e-01
-6.041874076361688495e-01
-7.956563935626781436e-02
6.967090973154494993e-01
9.038381871473766260e-01
7.751797273228617779e-01
7.623089653379893083e-01
9.210856728766307899e-01
-1.952636713022608550e-01
7.211650285709574337e-01
3.096355880103711655e-01
3.766961496932552667e-01
-9.764439300850686898e-01
8.899105900710180261e-01
5.587890572570142211e-01
-5.224258418000002901e-01
1.723168657530229630e-01
2.841622142161643882e-01
-2.806507290600057658e-02
-7.002722371508964816e-01
-2.392564006449462433e-01
1.829887389471185344e-01
2.062841724980293279e-01
6.359157385971219156e-01
2.373933522966096277e-01
-3.508199864937031620e-01
7.781246733038431618e-01
-7.246916169679074038e-02
8.108018394131177864e-01
1.100556275914537085e-01
8.635336990151416536e-01
6.869340474963165910e-01
-5.976911367072637038e-01
-4.023224620562748655e-02
4.818720560898070993e-02
9.454571848172417248e-01
8.545729587350485712e-01
2.751738703920405538e-01
-7.323163474550022922e-01
5.361734690689343719e-01
8.294802104444405355e-01
9.924803971954394566e-01
-3.467571669542492963e-01
6.306991324773258967e-02
-8.905541672771486450e-01
8.066316529941899294e-01
-9.558406391667384483e-03
-6.971467866817266934e-01
-8.892930901471423066e-01
-8.149710153308040717e-01
5.983776426632383405e-01
2.760514370140110252e-01
-6.256154517300251960e-01
-6.657423267835405056e-02
9.565665802093534786e-01
2.108338417546626875e-01
-1.282896274568345873e-02
5.514303796101183153e-03
2.425980062040602458e-01
-2.436726748526616415e-01
-8.751243434313735747e-01
-7.696372182453032895e-01
9.305837610482581290e-01
-9.173682533161835462e-01
-5.438233715104634491e-01
4.686735646482342865e-02
1.376031429895585578e-01
5.058065995062148712e-01
-3.540744192805538315e-01
-4.310467897874723509e-01
7.674416848064353758e-01
-7.456225716522264513e-01
-2.023131587007580556e-01
2.813694866102984804e-01
2.435750921362684895e-01
-1.182768818140158551e-01
-6.542162199054502025e-01
1.272142111938545650e-01
-8.835202340936294529e-01
-2.552053702583485517e-01
-7.453946823104296016e-03
4.086855452864377458e-01
-8.587816154422120984e-01
-1.239008870883495650e-01
2.151378665324878980e-01
7.438278654307239890e-01
5.974138408832976310e-01
2.321676268582459901e-01
4.487420792641956258e-01
6.823082733856160598e-01
3.244963145261678950e-01
-2.366820620671543640e-01
-7.369745982785476102e-01
-6.216284934623750313e-01
7.573430733096118139e-01
-4.948749234487703763e-01
5.993206069909757794e-01
7.880947013715144944e-01
-6.933405211702421411e-01
-8.878785568348157575e-02
7.554060987554918061e-01
9.112861823714182297e-01
9.083602336788869636e-01
-7.521823572585184525e-01
3.129009789472112502e-01
-9.348197062655088097e-01
-6.066263214998648401e-01
-1.223393664875864761e-01
3.665516172380081095e-01
9.614669714380179588e-01
-5.570363002876674852e-01
3.380983840447644440e-01
-2.367292149402193679e-01
-4.995513248772731618e-01
-1.888577769680297447e-01
4.531151216729156772e-02
9.085120383079323680e-01
-8.136846723139363746e-01
-9.700563948490024124e-01
3.880717333584389195e-01
5.518129063011458779e-01
-3.849939808933289243e-02
5.368091032782729144e-01
9.343209545594723942e-01
3.188924263009074167e-02
9.224083261434934400e-02
-4.205818628473445564e-01
3.515996233584166575e-01
-1.537619703549732986e-01
-4.299705162828004745e-01
6.338877911300007106e-01
-3.134690727153357503e-01
-5.979526761607383278e-01
-1.067191573640677849e-01
9.300988129024654327e-01
4.060982410132649711e-01
-1.697544738269562981e-01
-5.843992487623159704e-01
5.219630316117662705e-01
6.999196255403985489e-01
-6.217238883313203068e-02
4.666906778475903295e-01
7.719839115785223083e-01
5.525470501453844108e-01
-6.575921093454779598e-01
5.584951054695734829e-01
-6.193750447295049977e-01
9.376882011603597800e-01
5.041848927306826766e-01
-1.636819973899932279e-01
-8.745798249421896653e-01
1.423246798638733157e-01
-1.622321487337212709e-01
9.104462944538340707e-01
5.706189260170309030e-01
-6.327980922556721843e-01
3.667101234974234902e-01
-7.972725303132301988e-01
6.115394608721860248e-01
6.272430381065121630e-01
8.966361653417274091e-01
-8.802656891487001811e-01
-2.745986527058807969e-01
-4.053731151843793512e-01
3.585704270985523578e-01
7.529761401478447524e-01
-3.535501065021866562e-01
-7.312933557105121274e-01
8.973873200219384394e-02
-2.250795580245581462e-01
8.474426398893073475e-01
-5.566719095347527624e-01
-1.871465189204475355e-01
8.678374987823704867e-01
-2.082349572645252334e-01
8.601804550895080226e-01
7.022935518884207973e-01
3.184164037326138175e-01
1.808422738261779017e-01
5.387677269084258924e-01
4.496860075949915547e-01
-4.827838593344997431e-01
-6.708436709001397436e-01
4.080518407269568826e-01
-2.901066557764218068e-01
7.224539081737608726e-01
6.769149373904226330e-02
1.384712812540891402e-01
4.438281484833797030e-01
6.886579775407166704e-01
-2.781806513349844856e-01
-5.080444389680585093e-01
1.822018351866607766e-01
6.443516768598311906e-02
7.856271675806076882e-01
-3.134447795374528667e-02
3.498462441310545845e-01
-7.752758498382357200e-01
-3.638629327563132065e-01
-3.438782272029830001e-01
2.834592238060009706e-01
7.669370967411484052e-01
6.353609059156013483e-01
-7.504139035932968493e-01
-4.537374815757244662e-02
9.299552907092811793e-02
-5.722558386744820424e-01
-6.543668366172439299e-02
-6.650632863900318714e-01
-2.321931186383683343e-01
7.771433787856860675e-01
9.648721245116058665e-01
-5.455694720266590636e-02
9.964239291491485684e-01
8.044770999925443533e-01
-5.981896280279013212e-01
2.741830229395616492e-01
1.754989987549504526e-02
4.470609186448375461e-01
6.232170399710503794e-01
6.424850445054339776e-01
3.343943309936605601e-01
5.649804050419988677e-01
3.326447598924966442e-01
1.160008277899500229e-01
2.693649976859548989e-01
-9.871725949235363728e-01
7.707493029193670520e-01
-9.914025337111218583e-01
-2.330360234756752025e-01
6.031402486175485578e-01
2.295690981339848502e-01
-6.870219461301492192e-01
9.445537403412564981e-01
2.520202634305401812e-01
3.004053973819518220e-01
-3.533924168388753451e-01
6.035136736772908073e-01
-8.014789967793389813e-02
-4.724909695277323962e-01
-3.083490340151346931e-01
2.313624693227580575e-01
3.447199895670345349e-01
-2.789528836483223806e-01
9.637970181243058487e-01
7.690480023941521637e-01
-6.880248273992390917e-01
1.569832754982756207e-01
-4.477491639456219197e-01
-6.669834143855135622e-01
-9.022566020170628143e-01
9.654097135703036958e-01
7.919900795559569051e-01
2.081744830745364538e-01
4.930254712114401361e-01
3.070670301354443410e-01
1.305891106037693206e-01
4.044070293892898516e-01
-9.152941474042930459e-01
3.431932773186963104e-02
9.193972628899935717e-01
-3.905628111588397289e-01
5.572198763798623666e-01
-3.961347702569031348e-01
-1.279460581457478874e-01
2.088651170666149248e-01
2.512785302604871873e-01
-6.322976952933427874e-01
-3.131131645475910830e-01
-5.640370224580444347e-01
-1.259218664934522725e-01
6.771546842058360216e-01
-7.253027373307086023e-02
-2.770623159266032420e-01
6.544308921785604305e-01
-5.279989486801579535e-01
5.630686941456439776e-01
9.061130086429864949e-01
7.034852682254253420e-01
4.424970065122875162e-01
7.038464629972633890e-01
4.742503846879952967e-02
1.310642386817835181e-01
6.306194344969660026e-01
-4.806125674200181219e-01
-9.512346620516671791e-01
8.771196487030228361e-01
9.129290832241254705e-02
-4.269448902823043124e-01
-8.593926444927910691e-01
-6.168808660878439820e-01
-6.309744675488890842e-01
-7.975211319953114941e-01
1.083924411419237011e-01
-9.020931438028740867e-01
-1.613704325562281827e-01
7.722538083167351797e-01
-2.186938777655573762e-01
-2.038944962686506379e-01
-2.378348103035707872e-01
-9.787891194373166126e-01
-4.191449043829094112e-01
4.847121029241161505e-01
-5.167499682530323213e-01
4.916694046017822117e-02
-1.054840915328505435e-01
8.862052958078492360e-01
2.428572265870880820e-01
-4.478621556478099563e-01
7.298090157274681467e-01
2.532622775268349447e-01
-1.398391475609876977e-01
-6.173838364681338842e-01
1.705087587735096832e-01
4.929765163974668685e-01
6.373948643556419658e-01
5.642514615967058056e-01
-4.071915853228063042e-01
-3.278330023799080895e-01
4.512626808197190975e-01
2.562502597500384560e-01
-9.537600737257203587e-01
5.078652961878387107e-01
-4.027504977545368625e-01
-6.870263667272238362e-01
6.273489133043070876e-01
-8.496220919326964438e-01
-7.027543191258962541e-01
8.078481607039404988e-01
7.311988336627222029e-01
-4.360930227419923533e-01
-9.316561950062491881e-01
8.593187877442916012e-01
2.096452571573055312e-01
-9.239088704693843024e-01
-1.633800735152295402e-01
2.290404069943496879e-02
-4.902209228812572928e-01
-6.632458717190616859e-01
-8.700289571033328340e-01
2.710589337644453423e-01
-2.043956656401892946e-01
-3.112965308328687897e-01
5.282146765491280149e-01
4.573647526505324468e-01
-1.842555750267322878e-01
-1.623657294646922988e-01
7.378065345165323308e-01
-7.770485790840879758e-01
3.206861582680151646e-01
-6.291508252828441616e-01
-2.042521091891256191e-01
-6.283288253401804191e-01
8.052970124109746219e-01
-5.230626197588905679e-01
-2.402135886302412260e-01
-8.647324692727862416e-01
-8.772045744984346971e-01
-5.527421235907490349e-01
-3.743190587748215226e-01
-1.651562522023082291e-01
-9.244209119260091700e-01
-2.115464781030167440e-01
9.324830431018968913e-01
8.278273044320729745e-01
7.363749034145814498e-01
-8.419939890992034215e-01
-4.634067673542960897e-01
6.717155666480900678e-01
-9.035989050073676143e-01
3.929590706977759140e-02
-3.314469028416588969e-02
2.326536519408619608e-01
-3.569190813769724802e-01
7.945516400341816610e-01
-1.877369834087578848e-01
4.175072004935433956e-01
-8.392504598379415537e-01
4.552235228619394558e-01
-6.583364874241961484e-01
-7.268460828221843251e-01
5.912197459896828544e-01
1.323010733181666509e-01
-1.614482079893868605e-01
-4.246841110774624006e-01
-4.428364103571535981e-01
-4.276926677275594280e-02
3.524038508444586881e-01
9.650065563217102849e-02
-3.959156314602236826e-01
9.078761374289046060e-02
-6.114387465385098253e-01
-3.641901943591911994e-01
6.385354823819067160e-01
7.223936684342748826e-01
-7.794883826869953847e-01
6.209614427152214677e-01
3.658395515894750094e-01
-6.250244184215401066e-01
-2.514865809018493881e-01
5.323727196242695747e-01
2.314111366865891917e-01
1.890095365673891692e-01
-2.804980545768289701e-01
-7.273842218575459206e-01
-5.507665498215119637e-01
-2.248511418947414242e-01
-7.069048496721768160e-01
5.275178143682597298e-01
8.353249139943648149e-01
-8.589781607697364318e-01
2.871743530844006465e-02
-2.714847489464817798e-01
-4.875701334428514944e-01
-6.306685084277594555e-01
-1.735739946632011144e-01
3.587490335479275316e-01
1.340513555826621239e-01
2.378801106893633222e-01
-2.358280861808421669e-01
-7.578004779743536812e-01
-5.009842922468368265e-01
-3.062615012148328653e-02
4.235931836011153084e-01
9.551706035386291482e-01
9.126152417777304571e-01
1.730833944366616528e-02
7.630395766202724417e-01
-2.034034994527784690e-01
-2.682779343838117558e-01
-8.148729967070149627e-01
1.561522386505285187e-01
-1.568412468548152638e-02
9.132390400462724322e-01
6.033009489145579884e-01
-5.219652635933662577e-01
-3.490051789090666823e-01
-9.879010922592319499e-01
4.697493574931677074e-01
-8.970244544006766851e-02
1.479376018299336515e-01
-1.902007354752504042e-01
-7.463915389005915113e-01
2.663545205937720706e-01
-5.380252875457609552e-01
-9.149759495230469497e-02
-1.600332391550556288e-01
-7.450138652946391993e-02
8.456869182883797187e-02
-5.593795893062534219e-01
8.505106411496163865e-01
-3.664243457982958585e-01
2.347945945851890315e-01
-8.328906442003765065e-01
-6.754101548680009337e-01
-7.650870939460858722e-01
2.848547856712309034e-01
-8.676809538470362515e-01
1.541104681359768414e-01
-5.094529009008668119e-01
-5.958806149450559531e-01
2.994394148354073693e-02
-5.419001803053962174e-01
-8.874897228743097166e-01
1.260088341433398540e-01
-8.079604275942791070e-01
9.824189827956031351e-01
-5.419571594024485961e-02
3.994503051079918432e-01
-9.491250498737240360e-01
-5.887514430890392614e-01
-3.723617096616149702e-02
-2.867166934372504805e-01
8.865254834070410705e-01
4.275592530614913400e-01
3.845059541360340560e-01
8.385916693571093816e-02
-2.914408812939586202e-01
-2.982400071660471497e-01
-9.996969214383277791e-01
-1.269566606166996348e-01
-3.360550480908961468e-01
4.099412769437569271e-01
-1.748955337998829851e-01
7.489891540376432122e-01
-5.694548228083546881e-01
1.903944336993015352e-01
-7.136038974324470097e-01
3.015713659247416523e-01
-5.249391649800336790e-01
-7.552310572861360427e-01
2.655957270467665943e-01
6.573836523105192065e-02
6.616123748519355807e-01
7.570121346711780053e-01
-2.071851187238125114e-01
-7.552413638428050469e-01
-1.895005466132333449e-01
1.837957876432867454e-01
-7.880111612975906343e-01
7.908502567788475712e-01
-3.097598219852844004e-01
6.852863643890905188e-02
1.903217452367389484e-02
-5.215738119961232933e-02
-8.063121249925584433e-01
-1.316456490513697730e-01
-6.669089277368898117e-01
-3.089362149764305343e-01
-2.858995502775560915e-01
6.336164898654699229e-01
5.093439733579119277e-03
-5.455913207760803019e-01
-7.193518138169237019e-01
-3.465269911774568889e-01
-2.352423031272345977e-01
4.178328197430469793e-02
-9.054097495803437035e-01
-5.948200556678517881e-01
5.988896171038919913e-01
3.142781578570417178e-01
-3.559593939253107298e-01
-8.637702389926187330e-01
-4.753406917629849904e-01
2.033486473219097146e-01
-5.053555362871711143e-01
-9.183708342491909704e-01
-2.209091861620895436e-01
-7.673817609177606691e-01
6.420748258806043829e-01
-2.746425042841018627e-01
-5.366407650625557579e-01
-7.036933062624581847e-01
-7.484994246763121417e-01
-8.710639872395415928e-01
2.899169565300940832e-01
9.950493044440669177e-01
-9.544546488585945454e-01
8.916868833614561840e-01
-4.653215624139481754e-01
6.191464273240274707e-01
-4.530769101706451085e-01
-6.853547458232960299e-01
-8.846917954823840802e-01
-7.678192637048131264e-01
1.284362958112448272e-01
-6.866979927757994595e-01
-3.805320190370975464e-01
-3.866756786580010097e-01
9.276903430302654296e-01
-7.702328849055291027e-01
-8.347544136680669080e-01
-4.981557348680165642e-01
-3.479104289799415106e-01
6.200021326802436228e-01
2.957830220383228514e-02
1.148311289144252623e-01
-5.418982029089709496e-01
2.017594223893115490e-01
-1.603395437082817399e-01
-7.406968963386868499e-01
-9.860690359133954530e-01
2.704314028881882326e-01
-2.363118170669076257e-02
-8.406097538494969879e-01
4.934545467142106290e-01
4.222952657716962932e-01
2.670487419789457917e-01
1.464212286332542412e-01
-9.710413508967732366e-01
5.539315455800815080e-01
6.021548786165162870e-01
4.350275273053896274e-01
7.441596230604776707e-01
-7.884162374827416997e-01
-8.624740529852708004e-01
-3.187660537027721119e-01
-6.041874076361688495e-01
-7.956563935626781436e-02
6.967090973154494993e-01
9.038381871473766260e-01
7.751797273228617779e-01
7.623089653379893083e-01
9.210856728766307899e-01
-1.952636713022608550e-01
7.211650285709574337e-01
3.096355880103711655e-01
3.766961496932552667e-01
-9.764439300850686898e-01
8.899105900710180261e-01
5.587890572570142211e-01
-5.224258418000002901e-01
1.723168657530229630e-01
2.841622142161643882e-01
-2.806507290600057658e-02
-7.002722371508964816e-01
-2.392564006449462433e-01
1.829887389471185344e-01
2.062841724980293279e-01
6.359157385971219156e-01
2.373933522966096277e-01
-3.508199864937031620e-01
7.781246733038431618e-01
-7.246916169679074038e-02
8.108018394131177864e-01
1.100556275914537085e-01
8.635336990151416536e-01
6.869340474963165910e-01
-5.976911367072637038e-01
-4.023224620562748655e-02
4.818720560898070993e-02
9.454571848172417248e-01
8.545729587350485712e-01
2.751738703920405538e-01
-7.323163474550022922e-01
5.361734690689343719e-01
8.294802104444405355e-01
9.924803971954394566e-01
-3.467571669542492963e-01
6.306991324773258967e-02
-8.905541672771486450e-01
8.066316529941899294e-01
-9.558406391667384483e-03
-6.971467866817266934e-01
-8.892930901471423066e-01
-8.149710153308040717e-01
5.983776426632383405e-01
2.760514370140110252e-01
-6.256154517300251960e-01
-6.657423267835405056e-02
9.565665802093534786e-01
2.108338417546626875e-01
-1.282896274568345873e-02
5.514303796101183153e-03
2.425980062040602458e-01
-2.436726748526616415e-01
-8.751243434313735747e-01
-7.696372182453032895e-01
9.305837610482581290e-01
-9.173682533161835462e-01
9.340245899609724844e-01
-8.840093341077368549e-01
-5.476528582090505193e-01
-4.846281422953158113e-01
-3.444643007468608520e-01
5.036904916980717850e-01
-4.219795248938780219e-01
8.203669386344913939e-01
5.930194062801521504e-01
2.074824269333963578e-02
-4.877297672364173664e-01
3.073458928272025936e-01
-1.459350620193144987e-01
-2.015915006868818082e-01
-6.751434468622674601e-02
3.335928042946247896e-01
9.485884795373165090e-01
9.997001414849102652e-01
-8.587816154422120984e-01
-1.239008870883495650e-01
2.151378665324878980e-01
7.438278654307239890e-01
5.974138408832976310e-01
2.321676268582459901e-01
4.487420792641956258e-01
6.823082733856160598e-01
3.244963145261678950e-01
-2.366820620671543640e-01
-7.369745982785476102e-01
-6.216284934623750313e-01
7.573430733096118139e-01
-4.948749234487703763e-01
5.993206069909757794e-01
7.880947013715144944e-01
-6.933405211702421411e-01
-8.878785568348157575e-02
7.554060987554918061e-01
9.112861823714182297e-01
9.083602336788869636e-01
-7.521823572585184525e-01
3.129009789472112502e-01
-9.348197062655088097e-01
-6.066263214998648401e-01
-1.223393664875864761e-01
3.665516172380081095e-01
9.614669714380179588e-01
-5.570363002876674852e-01
3.380983840447644440e-01
-2.367292149402193679e-01
-4.995513248772731618e-01
-1.888577769680297447e-01
4.531151216729156772e-02
9.085120383079323680e-01
-8.136846723139363746e-01
-9.700563948490024124e-01
3.880717333584389195e-01
5.518129063011458779e-01
-3.849939808933289243e-02
5.368091032782729144e-01
9.343209545594723942e-01
3.188924263009074167e-02
9.224083261434934400e-02
-4.205818628473445564e-01
3.515996233584166575e-01
-1.537619703549732986e-01
-4.299705162828004745e-01
6.338877911300007106e-01
-3.134690727153357503e-01
-5.979526761607383278e-01
-1.067191573640677849e-01
9.300988129024654327e-01
4.060982410132649711e-01
-1.697544738269562981e-01
-5.843992487623159704e-01
5.219630316117662705e-01
6.999196255403985489e-01
-6.217238883313203068e-02
4.666906778475903295e-01
7.719839115785223083e-01
5.525470501453844108e-01
-6.575921093454779598e-01
5.584951054695734829e-01
-6.193750447295049977e-01
9.376882011603597800e-01
5.041848927306826766e-01
-1.636819973899932279e-01
-8.745798249421896653e-01
1.423246798638733157e-01
-1.622321487337212709e-01
9.104462944538340707e-01
5.706189260170309030e-01
-6.327980922556721843e-01
3.667101234974234902e-01
-7.972725303132301988e-01
6.115394608721860248e-01
6.272430381065121630e-01
8.966361653417274091e-01
-8.802656891487001811e-01
-2.745986527058807969e-01
-4.053731151843793512e-01
3.585704270985523578e-01
7.529761401478447524e-01
-3.535501065021866562e-01
-7.312933557105121274e-01
8.973873200219384394e-02
-2.250795580245581462e-01
8.474426398893073475e-01
-5.566719095347527624e-01
-1.871465189204475355e-01
8.678374987823704867e-01
-2.082349572645252334e-01
8.601804550895080226e-01
7.022935518884207973e-01
3.184164037326138175e-01
1.808422738261779017e-01
5.387677269084258924e-01
4.496860075949915547e-01
-4.827838593344997431e-01
-6.708436709001397436e-01
4.080518407269568826e-01
-2.901066557764218068e-01
7.224539081737608726e-01
6.769149373904226330e-02
1.384712812540891402e-01
4.438281484833797030e-01
6.886579775407166704e-01
-2.781806513349844856e-01
-5.080444389680585093e-01
1.822018351866607766e-01
6.443516768598311906e-02
7.856271675806076882e-01
-3.134447795374528667e-02
3.498462441310545845e-01
-7.752758498382357200e-01
-3.638629327563132065e-01
-3.438782272029830001e-01
2.834592238060009706e-01
7.669370967411484052e-01
6.353609059156013483e-01
-7.504139035932968493e-01
-4.537374815757244662e-02
9.299552907092811793e-02
-5.722558386744820424e-01
-6.543668366172439299e-02
-6.650632863900318714e-01
-2.321931186383683343e-01
7.771433787856860675e-01
9.648721245116058665e-01
-5.455694720266590636e-02
9.964239291491485684e-01
8.044770999925443533e-01
-5.981896280279013212e-01
2.741830229395616492e-01
1.754989987549504526e-02
4.470609186448375461e-01
6.232170399710503794e-01
6.424850445054339776e-01
3.343943309936605601e-01
5.649804050419988677e-01
3.326447598924966442e-01
1.160008277899500229e-01
2.693649976859548989e-01
-9.871725949235363728e-01
7.707493029193670520e-01
-9.914025337111218583e-01
-2.330360234756752025e-01
6.031402486175485578e-01
2.295690981339848502e-01
-6.870219461301492192e-01
9.445537403412564981e-01
2.520202634305401812e-01
3.004053973819518220e-01
-3.533924168388753451e-01
6.035136736772908073e-01
-8.014789967793389813e-02
-4.724909695277323962e-01
-3.083490340151346931e-01
2.313624693227580575e-01
3.447199895670345349e-01
-2.789528836483223806e-01
9.637970181243058487e-01
7.690480023941521637e-01
-6.880248273992390917e-01
1.569832754982756207e-01
-4.477491639456219197e-01
-6.669834143855135622e-01
-9.022566020170628143e-01
9.654097135703036958e-01
7.919900795559569051e-01
2.081744830745364538e-01
4.930254712114401361e-01
3.070670301354443410e-01
1.305891106037693206e-01
4.044070293892898516e-01
-9.152941474042930459e-01
3.431932773186963104e-02
9.193972628899935717e-01
-3.905628111588397289e-01
5.572198763798623666e-01
-3.961347702569031348e-01
-1.279460581457478874e-01
2.088651170666149248e-01
2.512785302604871873e-01
-6.322976952933427874e-01
-3.131131645475910830e-01
-5.640370224580444347e-01
-1.259218664934522725e-01
6.771546842058360216e-01
-7.253027373307086023e-02
-2.770623159266032420e-01
6.544308921785604305e-01
-5.279989486801579535e-01
5.630686941456439776e-01
9.061130086429864949e-01
7.034852682254253420e-01
4.424970065122875162e-01
7.038464629972633890e-01
4.742503846879952967e-02
1.310642386817835181e-01
6.306194344969660026e-01
-4.806125674200181219e-01
-9.512346620516671791e-01
8.771196487030228361e-01
9.129290832241254705e-02
-4.269448902823043124e-01
-8.593926444927910691e-01
-6.168808660878439820e-01
-6.309744675488890842e-01
-7.975211319953114941e-01
1.083924411419237011e-01
-9.020931438028740867e-01
-1.613704325562281827e-01
7.722538083167351797e-01
-2.186938777655573762e-01
-2.038944962686506379e-01
-2.378348103035707872e-01
-9.787891194373166126e-01
-4.191449043829094112e-01
4.847121029241161505e-01
-5.167499682530323213e-01
4.916694046017822117e-02
-1.054840915328505435e-01
8.862052958078492360e-01
2.428572265870880820e-01
-4.478621556478099563e-01
7.298090157274681467e-01
2.532622775268349447e-01
-1.398391475609876977e-01
-6.173838364681338842e-01
1.705087587735096832e-01
4.929765163974668685e-01
6.373948643556419658e-01
5.642514615967058056e-01
-4.071915853228063042e-01
-3.278330023799080895e-01
4.512626808197190975e-01
2.562502597500384560e-01
-9.537600737257203587e-01
5.078652961878387107e-01
-4.027504977545368625e-01
-6.870263667272238362e-01
6.273489133043070876e-01
-8.496220919326964438e-01
-7.027543191258962541e-01
8.078481607039404988e-01
7.311988336627222029e-01
-4.360930227419923533e-01
-9.316561950062491881e-01
8.593187877442916012e-01
2.096452571573055312e-01
-9.239088704693843024e-01
-1.633800735152295402e-01
2.290404069943496879e-02
-4.902209228812572928e-01
-6.632458717190616859e-01
-8.700289571033328340e-01
2.710589337644453423e-01
-2.043956656401892946e-01
-3.112965308328687897e-01
5.282146765491280149e-01
4.573647526505324468e-01
-1.842555750267322878e-01
-1.623657294646922988e-01
7.378065345165323308e-01
-7.770485790840879758e-01
3.206861582680151646e-01
-6.291508252828441616e-01
-2.042521091891256191e-01
-6.283288253401804191e-01
8.052970124109746219e-01
-5.230626197588905679e-01
-2.402135886302412260e-01
-8.647324692727862416e-01
-8.772045744984346971e-01
-5.527421235907490349e-01
-3.743190587748215226e-01
-1.651562522023082291e-01
-9.244209119260091700e-01
-2.115464781030167440e-01
9.324830431018968913e-01
8.278273044320729745e-01
7.363749034145814498e-01
-8.419939890992034215e-01
-4.634067673542960897e-01
6.717155666480900678e-01
-9.035989050073676143e-01
3.929590706977759140e-02
-3.314469028416588969e-02
2.326536519408619608e-01
-3.569190813769724802e-01
7.945516400341816610e-01
-1.877369834087578848e-01
4.175072004935433956e-01
-8.392504598379415537e-01
4.552235228619394558e-01
-6.583364874241961484e-01
-7.268460828221843251e-01
5.912197459896828544e-01
1.323010733181666509e-01
-1.614482079893868605e-01
-4.246841110774624006e-01
-4.428364103571535981e-01
-4.276926677275594280e-02
3.524038508444586881e-01
-1.418676274969654649e-02
-6.175674549273431069e-01
4.327433908792883699e-01
-1.088126649739962204e-02
6.946446155343120044e-01
2.525749442932223587e-01
-5.899996009303472011e-01
-1.328877213006212088e-01
1.302882548283965658e-01
-4.323583595516680145e-01
8.442134347554670626e-01
5.928168906891786438e-01
3.253239425980773980e-01
6.676453430332915939e-01
-4.370694510999453275e-01
-7.297618188488019797e-01
6.559878757820574169e-01
2.616128533603609974e-01
-2.248511418947414242e-01
-7.069048496721768160e-01
5.275178143682597298e-01
8.353249139943648149e-01
-8.589781607697364318e-01
2.871743530844006465e-02
-2.714847489464817798e-01
-4.875701334428514944e-01
-6.306685084277594555e-01
-1.735739946632011144e-01
3.587490335479275316e-01
1.340513555826621239e-01
2.378801106893633222e-01
-2.358280861808421669e-01
-7.578004779743536812e-01
-5.009842922468368265e-01
-3.062615012148328653e-02
4.235931836011153084e-01
-3.583236032556620376e-01
-6.526283962097529923e-01
-2.702208206909739729e-02
-1.414885045970715183e-01
-6.951072003776139763e-01
-9.910020428105348334e-01
6.716588315636613515e-01
-6.942430324037718314e-02
7.119975284398605275e-01
3.120293072957562863e-01
-8.703143623494205006e-01
-9.300156256260176946e-01
6.007244133894653615e-01
-8.401561659659875225e-01
5.405741726199158048e-01
-5.890437815820355194e-01
-4.896018578195269200e-01
-7.053125742071377768e-01
-7.463915389005915113e-01
2.663545205937720706e-01
-5.380252875457609552e-01
-9.149759495230469497e-02
-1.600332391550556288e-01
-7.450138652946391993e-02
8.456869182883797187e-02
-5.593795893062534219e-01
8.505106411496163865e-01
-3.664243457982958585e-01
2.347945945851890315e-01
-8.328906442003765065e-01
-6.754101548680009337e-01
-7.650870939460858722e-01
2.848547856712309034e-01
-8.676809538470362515e-01
1.541104681359768414e-01
-5.094529009008668119e-01
-5.958806149450559531e-01
2.994394148354073693e-02
-5.419001803053962174e-01
-8.874897228743097166e-01
1.260088341433398540e-01
-8.079604275942791070e-01
9.824189827956031351e-01
-5.419571594024485961e-02
3.994503051079918432e-01
-9.491250498737240360e-01
-5.887514430890392614e-01
-3.723617096616149702e-02
-2.867166934372504805e-01
8.865254834070410705e-01
4.275592530614913400e-01
3.845059541360340560e-01
8.385916693571093816e-02
-2.914408812939586202e-01
-2.982400071660471497e-01
-9.996969214383277791e-01
-1.269566606166996348e-01
-3.360550480908961468e-01
4.099412769437569271e-01
-1.748955337998829851e-01
7.489891540376432122e-01
-5.694548228083546881e-01
1.903944336993015352e-01
-7.136038974324470097e-01
3.015713659247416523e-01
-5.249391649800336790e-01
-7.552310572861360427e-01
2.655957270467665943e-01
6.573836523105192065e-02
6.616123748519355807e-01
7.570121346711780053e-01
-2.071851187238125114e-01
-7.552413638428050469e-01
-1.895005466132333449e-01
1.837957876432867454e-01
-7.880111612975906343e-01
7.908502567788475712e-01
-3.097598219852844004e-01
6.852863643890905188e-02
1.903217452367389484e-02
-5.215738119961232933e-02
-8.063121249925584433e-01
-1.316456490513697730e-01
-6.669089277368898117e-01
-3.089362149764305343e-01
-2.858995502775560915e-01
6.336164898654699229e-01
5.093439733579119277e-03
-5.455913207760803019e-01
-7.193518138169237019e-01
-8.361979400926748962e-01
6.495301730826650299e-01
6.032187984155399363e-01
1.054611300686731923e-01
-8.804750331030448685e-01
-1.332395764810854200e-01
7.337408547006529780e-01
1.807285227253292437e-01
-6.523777369791816660e-02
-3.570678467798571454e-01
1.551972546050170987e-01
-9.021424039923098270e-01
5.157357617518854020e-01
9.023843288726589584e-01
1.904467711992123835e-01
-7.086789473373222847e-01
9.473384685174932596e-01
7.045440737513037899e-01
-7.036933062624581847e-01
-7.484994246763121417e-01
-8.710639872395415928e-01
2.899169565300940832e-01
9.950493044440669177e-01
-9.544546488585945454e-01
8.916868833614561840e-01
-4.653215624139481754e-01
6.191464273240274707e-01
-4.530769101706451085e-01
-6.853547458232960299e-01
-8.846917954823840802e-01
-7.678192637048131264e-01
1.284362958112448272e-01
-6.866979927757994595e-01
-3.805320190370975464e-01
-3.866756786580010097e-01
9.276903430302654296e-01
-7.702328849055291027e-01
-8.347544136680669080e-01
-4.981557348680165642e-01
-3.479104289799415106e-01
6.200021326802436228e-01
2.957830220383228514e-02
1.148311289144252623e-01
-5.418982029089709496e-01
2.017594223893115490e-01
-1.603395437082817399e-01
-7.406968963386868499e-01
-9.860690359133954530e-01
2.704314028881882326e-01
-2.363118170669076257e-02
-8.406097538494969879e-01
4.934545467142106290e-01
4.222952657716962932e-01
2.670487419789457917e-01
1.464212286332542412e-01
-9.710413508967732366e-01
5.539315455800815080e-01
6.021548786165162870e-01
4.350275273053896274e-01
7.441596230604776707e-01
-7.884162374827416997e-01
-8.624740529852708004e-01
-3.187660537027721119e-01
-6.041874076361688495e-01
-7.956563935626781436e-02
6.967090973154494993e-01
9.038381871473766260e-01
7.751797273228617779e-01
7.623089653379893083e-01
9.210856728766307899e-01
-1.952636713022608550e-01
7.211650285709574337e-01
3.096355880103711655e-01
3.766961496932552667e-01
-9.764439300850686898e-01
8.899105900710180261e-01
5.587890572570142211e-01
-5.224258418000002901e-01
1.723168657530229630e-01
2.841622142161643882e-01
-2.806507290600057658e-02
-7.002722371508964816e-01
-2.392564006449462433e-01
1.829887389471185344e-01
2.062841724980293279e-01
6.359157385971219156e-01
2.373933522966096277e-01
-3.508199864937031620e-01
7.781246733038431618e-01
-7.246916169679074038e-02
8.108018394131177864e-01
1.100556275914537085e-01
8.635336990151416536e-01
6.869340474963165910e-01
-5.976911367072637038e-01
-4.023224620562748655e-02
4.818720560898070993e-02
9.454571848172417248e-01
8.545729587350485712e-01
2.751738703920405538e-01
-7.323163474550022922e-01
5.361734690689343719e-01
8.294802104444405355e-01
9.924803971954394566e-01
-3.467571669542492963e-01
6.306991324773258967e-02
-8.905541672771486450e-01
8.066316529941899294e-01
-9.558406391667384483e-03
-6.971467866817266934e-01
-8.892930901471423066e-01
-8.149710153308040717e-01
5.983776426632383405e-01
2.760514370140110252e-01
-6.256154517300251960e-01
-6.657423267835405056e-02
9.565665802093534786e-01
2.108338417546626875e-01
-1.282896274568345873e-02
5.514303796101183153e-03
2.425980062040602458e-01
-2.436726748526616415e-01
-8.751243434313735747e-01
-7.696372182453032895e-01
9.305837610482581290e-01
-9.173682533161835462e-01
-5.438233715104634491e-01
4.686735646482342865e-02
1.376031429895585578e-01
5.058065995062148712e-01
-3.540744192805538315e-01
-4.310467897874723509e-01
7.674416848064353758e-01
-7.456225716522264513e-01
-2.023131587007580556e-01
2.813694866102984804e-01
2.435750921362684895e-01
-1.182768818140158551e-01
-6.542162199054502025e-01
1.272142111938545650e-01
-8.835202340936294529e-01
-2.552053702583485517e-01
-7.453946823104296016e-03
4.086855452864377458e-01
-4.299432357701065133e-01
-5.062519023754363801e-02
-4.810615328951903802e-01
-3.485610322278389628e-01
-8.720870114445680166e-01
2.321676268582459901e-01
4.487420792641956258e-01
6.823082733856160598e-01
3.244963145261678950e-01
-2.366820620671543640e-01
-7.369745982785476102e-01
-6.216284934623750313e-01
7.573430733096118139e-01
-4.948749234487703763e-01
5.993206069909757794e-01
-7.625132176491367098e-01
-1.064891281652347033e-02
-9.092780742789734472e-01
4.606107540790291832e-01
-6.943611523016741671e-01
9.083602336788869636e-01
-7.521823572585184525e-01
3.129009789472112502e-01
-9.348197062655088097e-01
-6.066263214998648401e-01
-1.223393664875864761e-01
3.665516172380081095e-01
9.614669714380179588e-01
-5.570363002876674852e-01
3.380983840447644440e-01
-2.367292149402193679e-01
-4.995513248772731618e-01
-1.888577769680297447e-01
4.531151216729156772e-02
9.085120383079323680e-01
-8.136846723139363746e-01
-9.700563948490024124e-01
3.880717333584389195e-01
5.518129063011458779e-01
-3.849939808933289243e-02
5.368091032782729144e-01
9.343209545594723942e-01
3.188924263009074167e-02
9.224083261434934400e-02
-4.205818628473445564e-01
3.515996233584166575e-01
-1.537619703549732986e-01
-4.299705162828004745e-01
6.338877911300007106e-01
-3.134690727153357503e-01
-5.979526761607383278e-01
-1.067191573640677849e-01
9.300988129024654327e-01
4.060982410132649711e-01
-1.697544738269562981e-01
6.557274046004741841e-01
8.191095945667343781e-01
-5.651830527321259900e-01
-3.578260353157347584e-01
-7.973681516951092174e-01
7.719839115785223083e-01
5.525470501453844108e-01
-6.575921093454779598e-01
5.584951054695734829e-01
-6.193750447295049977e-01
9.376882011603597800e-01
5.041848927306826766e-01
-1.636819973899932279e-01
-8.745798249421896653e-01
1.423246798638733157e-01
-1.622321487337212709e-01
9.104462944538340707e-01
5.706189260170309030e-01
-6.327980922556721843e-01
3.667101234974234902e-01
-7.972725303132301988e-01
6.115394608721860248e-01
6.272430381065121630e-01
8.966361653417274091e-01
-8.802656891487001811e-01
-2.745986527058807969e-01
-4.053731151843793512e-01
3.585704270985523578e-01
7.529761401478447524e-01
-3.535501065021866562e-01
-7.312933557105121274e-01
8.973873200219384394e-02
-2.250795580245581462e-01
8.474426398893073475e-01
-5.566719095347527624e-01
-6.745678906412868603e-01
8.314827295093571990e-01
8.758155539417566970e-02
-7.697532452341082632e-02
-9.936612064271641565e-01
1.354290370116528752e-01
4.655151959028613895e-02
-3.240741600977252723e-01
7.269275763631262155e-01
4.976616852609438979e-02
-2.179615326617279081e-02
-2.690198170440984970e-01
-1.383855153392938853e-01
-2.726328352658142773e-01
-9.539691792732998277e-01
6.923037758282082343e-01
5.508403528454546283e-01
-1.775521136875735095e-03
-2.781806513349844856e-01
-5.080444389680585093e-01
1.822018351866607766e-01
6.443516768598311906e-02
7.856271675806076882e-01
-3.134447795374528667e-02
3.498462441310545845e-01
-7.752758498382357200e-01
-3.638629327563132065e-01
-3.438782272029830001e-01
2.834592238060009706e-01
7.669370967411484052e-01
6.353609059156013483e-01
-7.504139035932968493e-01
-4.537374815757244662e-02
9.299552907092811793e-02
-5.722558386744820424e-01
-6.543668366172439299e-02
-6.650632863900318714e-01
-2.321931186383683343e-01
7.771433787856860675e-01
9.648721245116058665e-01
-5.455694720266590636e-02
9.964239291491485684e-01
8.044770999925443533e-01
-5.981896280279013212e-01
2.741830229395616492e-01
1.754989987549504526e-02
4.470609186448375461e-01
6.232170399710503794e-01
6.424850445054339776e-01
3.343943309936605601e-01
5.649804050419988677e-01
3.326447598924966442e-01
1.160008277899500229e-01
2.693649976859548989e-01
-9.871725949235363728e-01
7.707493029193670520e-01
-9.914025337111218583e-01
-2.330360234756752025e-01
6.031402486175485578e-01
2.295690981339848502e-01
-6.870219461301492192e-01
9.445537403412564981e-01
2.520202634305401812e-01
3.004053973819518220e-01
-3.533924168388753451e-01
6.035136736772908073e-01
-8.014789967793389813e-02
-4.724909695277323962e-01
-3.083490340151346931e-01
2.313624693227580575e-01
3.447199895670345349e-01
-2.789528836483223806e-01
9.637970181243058487e-01
7.690480023941521637e-01
-6.880248273992390917e-01
1.569832754982756207e-01
-4.477491639456219197e-01
-6.669834143855135622e-01
-9.022566020170628143e-01
9.654097135703036958e-01
7.919900795559569051e-01
2.081744830745364538e-01
4.930254712114401361e-01
3.070670301354443410e-01
1.305891106037693206e-01
4.044070293892898516e-01
-9.152941474042930459e-01
3.431932773186963104e-02
9.193972628899935717e-01
-3.905628111588397289e-01
5.572198763798623666e-01
-3.961347702569031348e-01
-1.279460581457478874e-01
2.088651170666149248e-01
2.512785302604871873e-01
-6.322976952933427874e-01
-3.131131645475910830e-01
-5.640370224580444347e-01
-1.259218664934522725e-01
6.771546842058360216e-01
-7.253027373307086023e-02
-2.770623159266032420e-01
6.544308921785604305e-01
-5.279989486801579535e-01
5.630686941456439776e-01
9.061130086429864949e-01
7.034852682254253420e-01
4.424970065122875162e-01
7.038464629972633890e-01
4.742503846879952967e-02
1.310642386817835181e-01
6.306194344969660026e-01
-4.806125674200181219e-01
-9.512346620516671791e-01
8.771196487030228361e-01
9.129290832241254705e-02
-4.269448902823043124e-01
-8.593926444927910691e-01
-6.168808660878439820e-01
-6.309744675488890842e-01
-7.975211319953114941e-01
1.083924411419237011e-01
-9.020931438028740867e-01
-1.613704325562281827e-01
7.722538083167351797e-01
-2.186938777655573762e-01
-2.038944962686506379e-01
-2.378348103035707872e-01
-9.787891194373166126e-01
-4.191449043829094112e-01
4.847121029241161505e-01
-5.167499682530323213e-01
4.916694046017822117e-02
-1.054840915328505435e-01
8.862052958078492360e-01
2.428572265870880820e-01
-4.478621556478099563e-01
7.298090157274681467e-01
2.532622775268349447e-01
-1.398391475609876977e-01
-6.173838364681338842e-01
1.705087587735096832e-01
4.929765163974668685e-01
6.373948643556419658e-01
5.642514615967058056e-01
-4.071915853228063042e-01
-3.278330023799080895e-01
4.512626808197190975e-01
2.562502597500384560e-01
-9.537600737257203587e-01
5.078652961878387107e-01
-4.027504977545368625e-01
-6.870263667272238362e-01
6.273489133043070876e-01
-8.496220919326964438e-01
-7.027543191258962541e-01
8.078481607039404988e-01
7.311988336627222029e-01
-4.360930227419923533e-01
-9.316561950062491881e-01
8.593187877442916012e-01
2.096452571573055312e-01
-9.239088704693843024e-01
-1.633800735152295402e-01
2.290404069943496879e-02
-4.902209228812572928e-01
-6.632458717190616859e-01
-8.700289571033328340e-01
2.710589337644453423e-01
-2.043956656401892946e-01
-3.112965308328687897e-01
5.282146765491280149e-01
4.573647526505324468e-01
-1.842555750267322878e-01
-1.623657294646922988e-01
7.378065345165323308e-01
-7.770485790840879758e-01
3.206861582680151646e-01
-6.291508252828441616e-01
-2.042521091891256191e-01
-6.283288253401804191e-01
8.052970124109746219e-01
-5.230626197588905679e-01
-2.402135886302412260e-01
-8.647324692727862416e-01
-8.772045744984346971e-01
-5.527421235907490349e-01
-3.743190587748215226e-01
-1.651562522023082291e-01
-9.244209119260091700e-01
-2.115464781030167440e-01
9.324830431018968913e-01
8.278273044320729745e-01
7.363749034145814498e-01
-8.419939890992034215e-01
-4.634067673542960897e-01
6.717155666480900678e-01
-9.035989050073676143e-01
3.929590706977759140e-02
-3.314469028416588969e-02
2.326536519408619608e-01
-3.569190813769724802e-01
7.945516400341816610e-01
-1.877369834087578848e-01
4.175072004935433956e-01
-8.392504598379415537e-01
4.552235228619394558e-01
-6.583364874241961484e-01
-7.268460828221843251e-01
5.912197459896828544e-01
1.323010733181666509e-01
-1.614482079893868605e-01
-4.246841110774624006e-01
-4.428364103571535981e-01
-4.276926677275594280e-02
3.524038508444586881e-01
9.650065563217102849e-02
-3.959156314602236826e-01
9.078761374289046060e-02
-6.114387465385098253e-01
-3.641901943591911994e-01
6.385354823819067160e-01
7.223936684342748826e-01
-7.794883826869953847e-01
6.209614427152214677e-01
3.658395515894750094e-01
-6.250244184215401066e-01
-2.514865809018493881e-01
5.323727196242695747e-01
2.314111366865891917e-01
1.890095365673891692e-01
-2.804980545768289701e-01
-7.273842218575459206e-01
-5.507665498215119637e-01
-2.248511418947414242e-01
-7.069048496721768160e-01
5.275178143682597298e-01
8.353249139943648149e-01
-8.589781607697364318e-01
2.871743530844006465e-02
-2.714847489464817798e-01
-4.875701334428514944e-01
-6.306685084277594555e-01
-1.735739946632011144e-01
3.587490335479275316e-01
1.340513555826621239e-01
2.378801106893633222e-01
-2.358280861808421669e-01
-7.578004779743536812e-01
-5.009842922468368265e-01
-3.062615012148328653e-02
4.235931836011153084e-01
9.551706035386291482e-01
9.126152417777304571e-01
1.730833944366616528e-02
7.630395766202724417e-01
-2.034034994527784690e-01
-2.682779343838117558e-01
-8.148729967070149627e-01
1.561522386505285187e-01
-1.568412468548152638e-02
9.132390400462724322e-01
6.033009489145579884e-01
-5.219652635933662577e-01
-3.490051789090666823e-01
-9.879010922592319499e-01
4.697493574931677074e-01
-8.970244544006766851e-02
1.479376018299336515e-01
-1.902007354752504042e-01
-7.463915389005915113e-01
2.663545205937720706e-01
-5.380252875457609552e-01
-9.149759495230469497e-02
-1.600332391550556288e-01
-7.450138652946391993e-02
8.456869182883797187e-02
-5.593795893062534219e-01
8.505106411496163865e-01
-3.664243457982958585e-01
2.347945945851890315e-01
-8.328906442003765065e-01
-6.754101548680009337e-01
-7.650870939460858722e-01
2.848547856712309034e-01
-8.676809538470362515e-01
1.541104681359768414e-01
-5.094529009008668119e-01
-5.958806149450559531e-01
2.994394148354073693e-02
-5.419001803053962174e-01
-8.874897228743097166e-01
1.260088341433398540e-01
-8.079604275942791070e-01
9.824189827956031351e-01
-5.419571594024485961e-02
3.994503051079918432e-01
-9.491250498737240360e-01
-5.887514430890392614e-01
-3.723617096616149702e-02
-2.867166934372504805e-01
8.865254834070410705e-01
4.275592530614913400e-01
3.845059541360340560e-01
8.385916693571093816e-02
-2.914408812939586202e-01
-2.982400071660471497e-01
-9.996969214383277791e-01
-1.269566606166996348e-01
-3.360550480908961468e-01
4.099412769437569271e-01
-1.748955337998829851e-01
7.489891540376432122e-01
-5.694548228083546881e-01
1.903944336993015352e-01
-7.136038974324470097e-01
3.015713659247416523e-01
-5.249391649800336790e-01
-7.552310572861360427e-01
2.655957270467665943e-01
6.573836523105192065e-02
6.616123748519355807e-01
7.570121346711780053e-01
-2.071851187238125114e-01
-7.552413638428050469e-01
-1.895005466132333449e-01
1.837957876432867454e-01
-7.880111612975906343e-01
7.908502567788475712e-01
-3.097598219852844004e-01
6.852863643890905188e-02
1.903217452367389484e-02
-5.215738119961232933e-02
-8.063121249925584433e-01
-1.316456490513697730e-01
-6.669089277368898117e-01
-3.089362149764305343e-01
-2.858995502775560915e-01
6.336164898654699229e-01
5.093439733579119277e-03
-5.455913207760803019e-01
-7.193518138169237019e-01
-3.465269911774568889e-01
-2.352423031272345977e-01
4.178328197430469793e-02
-9.054097495803437035e-01
-5.948200556678517881e-01
5.988896171038919913e-01
3.142781578570417178e-01
-3.559593939253107298e-01
-8.637702389926187330e-01
-4.753406917629849904e-01
2.033486473219097146e-01
-5.053555362871711143e-01
-9.183708342491909704e-01
-2.209091861620895436e-01
-7.673817609177606691e-01
6.420748258806043829e-01
-2.746425042841018627e-01
-5.366407650625557579e-01
-7.036933062624581847e-01
-7.484994246763121417e-01
-8.710639872395415928e-01
2.899169565300940832e-01
9.950493044440669177e-01
-9.544546488585945454e-01
8.916868833614561840e-01
-4.653215624139481754e-01
6.191464273240274707e-01
-4.530769101706451085e-01
-6.853547458232960299e-01
-8.846917954823840802e-01
-7.678192637048131264e-01
1.284362958112448272e-01
-6.866979927757994595e-01
-3.805320190370975464e-01
-3.866756786580010097e-01
9.276903430302654296e-01
-7.702328849055291027e-01
-8.347544136680669080e-01
-4.981557348680165642e-01
-3.479104289799415106e-01
6.200021326802436228e-01
2.957830220383228514e-02
1.148311289144252623e-01
-5.418982029089709496e-01
2.017594223893115490e-01
-1.603395437082817399e-01
-7.406968963386868499e-01
-9.860690359133954530e-01
2.704314028881882326e-01
-2.363118170669076257e-02
-8.406097538494969879e-01
4.934545467142106290e-01
4.222952657716962932e-01
2.670487419789457917e-01
1.464212286332542412e-01
-9.710413508967732366e-01
5.539315455800815080e-01
6.021548786165162870e-01
4.350275273053896274e-01
7.441596230604776707e-01
-7.884162374827416997e-01
-8.624740529852708004e-01
-3.187660537027721119e-01
-6.041874076361688495e-01
-7.956563935626781436e-02
6.967090973154494993e-01
9.038381871473766260e-01
7.751797273228617779e-01
7.623089653379893083e-01
9.210856728766307899e-01
-1.952636713022608550e-01
7.211650285709574337e-01
3.096355880103711655e-01
3.766961496932552667e-01
-9.764439300850686898e-01
8.899105900710180261e-01
5.587890572570142211e-01
-5.224258418000002901e-01
1.723168657530229630e-01
2.841622142161643882e-01
-2.806507290600057658e-02
-7.002722371508964816e-01
-2.392564006449462433e-01
1.829887389471185344e-01
2.062841724980293279e-01
6.359157385971219156e-01
2.373933522966096277e-01
-3.508199864937031620e-01
7.781246733038431618e-01
-7.246916169679074038e-02
8.108018394131177864e-01
1.100556275914537085e-01
8.635336990151416536e-01
6.869340474963165910e-01
-5.976911367072637038e-01
-4.023224620562748655e-02
4.818720560898070993e-02
9.454571848172417248e-01
8.545729587350485712e-01
2.751738703920405538e-01
-7.323163474550022922e-01
5.361734690689343719e-01
8.294802104444405355e-01
9.924803971954394566e-01
-3.467571669542492963e-01
6.306991324773258967e-02
-8.905541672771486450e-01
8.066316529941899294e-01
-9.558406391667384483e-03
-6.971467866817266934e-01
-8.892930901471423066e-01
-8.149710153308040717e-01
5.983776426632383405e-01
2.760514370140110252e-01
-6.256154517300251960e-01
-6.657423267835405056e-02
9.565665802093534786e-01
2.108338417546626875e-01
-1.282896274568345873e-02
5.514303796101183153e-03
